tree
version=v3
num_class=1
num_tree_per_iteration=1
label_index=0
max_feature_idx=14
objective=binary sigmoid:1
feature_names=p_Rhad p_numberOfInnermostPixelHits p_ambiguityType p_Reta p_Rphi p_sigmad0 p_deltaEta1 p_e2ts1 p_nTracks p_numberOfPixelHits p_deltaPhiRescaled2 p_d0 p_EptRatio p_pt_track p_ptconecoreTrackPtrCorrection
feature_infos=[-1.0393297575575098:49.075399512186024] [-2.619969350985325:5.3829070101326542] [-0.36704075877666531:3.5969194249996108] [-13.108089942502176:6.2083975130397659] [-12.242503984706151:52.799409152577063] [-0.14219271981030465:61.14922938400116] [-403.10911900809333:0.04044005491137069] [-0.58026703497553822:16.618760144035448] [-1.1432869443081086:7.1598911339684381] [-3.9940156965587672:4.8235146939746736] [-152.35872207103574:0.064544043186838401] [-37.248939944618058:39.66692640900861] [-0.48334565507746347:15.753166409226786] [-0.058267744342277467:366.83028200066434] [-0.035033473237188098:400.47826314110262]
tree_sizes=3463 3535 3576 3534 3574 3572 3577 3557 3564 3580 3597 3586 3599 3583 3599 3596 3572 3488 3602 3602 3596 3579 3589 3615 3584 3600 3612 3592 3629 3600 3593 3612 3605 3484 3478 3361 3585 3613 3591 3619 3597 3380 3596 3600 3133 3269 3570 3500 3607 3061 3515 3379 3617 3383 3475 3046 3505 3617 3623 3292 3559 3514 3353 3269 3604 3623 3414 3582 3427 3365 3151 3479 3403 3602 3189 2930 3408 3590 3586 3579 3366 3443 2800 3232 3170 3507 2841 3291 3269 3286 2842 3398 3498 3456 3382 2905 3150 3603 3270 3182 3048 3369 3480 3060 3582 2742 3452 3510 3474 3492 2713 3268 3052 3517 3290 3157 3043 2720 3615 3590 3269 3516 3376 2834 2820 3304 3109 3463 3161 2746 3236 3580 2690 1860 2962 3601 3281 2688 2954 3042 3264 2529 3147 3618 3634 2958 3371 2912 2296 3396 3273 3088 3511 3154 3500 3261 3392 3579 3143 3132 3612 3279 2896 2599 3246 3282 3483 3253 3235 3247 3494 3562 3258 3509 3286 3618 1980 3038 3255 3210 3370 3468 3628 3385 3285 2932 2915 3483 3054 3286 3362 3473 3262 3249 2941 3627 2958 3593 3426 1980 3583 3600 3520 3237 3381 3275 1989 3375 3413 2731 3276 3032 2813 3348 3591 2258 2572 3247 3490 3273 3612 3621 3060 3392 3527 3148 3615 3597 3463 3613 2930 3505 3280 3151 3506 2479 3597 2604 3371 3500 3291 3581 3602 3480 3372 3184 3251 3512 3246 2588

Tree=0
num_leaves=32
num_cat=0
split_feature=0 1 3 5 4 3 0 10 12 2 0 3 9 10 12 0 3 6 3 0 12 7 0 7 3 4 0 0 3 0 0
split_gain=67245.6 12195.6 5427.74 2682.13 974.81 908.174 834.433 823.204 810.895 762.912 410.291 387.37 341.839 308.354 260.779 162.406 152.172 89.7707 81.6717 168.773 105.698 49.203 32.6955 32.4081 30.1595 29.1812 8.69777 7.81564 22.2442 2.94221 1.54627
threshold=0.045937964220315645 1.0000000180025095e-35 -0.53523038176572857 -0.0032008745590787779 0.042582364663917148 0.16622866491896834 0.38392641714013354 0.0048195302324176102 -0.20490852084766373 1.0000000180025095e-35 -0.19129288762243754 -0.1306306821649616 -1.7896330989254066 0.0062433973858082616 -0.063777524776429104 -0.28634257477835373 -0.073370191670558166 0.0013611996372771293 -0.1306306821649616 0.28494674641600454 -0.23580777438833006 -0.078081492519658707 0.60892343476482347 0.15696450197428244 -0.44993415711512069 0.3874002122673505 0.5485538855394706 0.11030517958396081 -0.36517587427755155 0.38392641714013354 0.73200841225398638
decision_type=2 2 2 2 2 2 2 2 2 2 2 2 2 2 2 2 2 2 2 2 2 2 2 2 2 2 2 2 2 2 2
left_child=1 9 8 4 -4 18 14 -5 10 12 -3 24 21 -13 17 -10 -14 -7 27 20 -20 -1 25 -16 -11 -8 -21 28 -2 -29 -24
right_child=5 2 3 7 -6 6 22 -9 15 11 -12 13 16 -15 23 -17 -18 -19 19 26 -22 -23 30 -25 -26 -27 -28 29 -30 -31 -32
leaf_value=0.86777296002056126 0.66513901051205382 1.1133506583947363 1.1486692315191207 0.8246414373972295 1.2153102769153512 0.65252554259521811 0.72393633628196175 1.0950986110960361 0.87511762635178703 0.66349338519811241 0.80467360883426764 0.75375916906556684 0.81423941758676532 0.88807917519243385 0.87349950208042104 0.6954229860668345 1.1308784963671428 1.1478035807486777 1.0192197862846601 0.70890248497948938 0.7566060516123343 0.65859690562121653 0.69422044530388205 0.66877285210141113 0.74764886120935592 0.97788833039872414 0.65808754343870746 0.66297268579707302 0.80982903917790483 0.65347940164044838 0.65787434773404208
leaf_weight=52.141152620315552 95.025361478328705 145.65517634153366 3172.8647038340569 142.44358360767365 14591.021458804607 4.5340132713317862 19.836308062076572 2157.2457310557365 77.833894491195679 168.89199435710907 78.778480589389801 302.45646864175797 20.214142501354218 616.62580490112305 29.093251824378967 256.54958426952362 166.0582360625267 104.2823052406311 28.526500165462494 50.251980423927307 50.251980423927307 17.947135865688324 15.680129230022429 13.413122594356535 72.166377902030945 7.3677715659141532 195.90715676546097 448.48947942256927 14.546625912189482 2855.8616092801094 122.22944110631943
leaf_count=276 503 771 16795 754 77235 24 105 11419 412 894 417 1601 107 3264 154 1358 879 552 151 266 266 95 83 71 382 39 1037 2374 77 15117 647
internal_value=1.08347 1.1585 1.17974 1.18907 1.20341 0.675687 0.852935 1.07835 0.844785 0.849221 1.005 0.811631 1.01934 0.843876 1.03777 0.73725 1.09652 1.12717 0.660686 0.712886 0.851701 0.81421 0.683542 0.808897 0.688687 0.792715 0.668461 0.655717 0.684348 0.654768 0.662007
internal_weight=0 22038.9 20622.4 20063.6 17763.9 4055.3 316.436 2299.69 558.817 1416.5 224.434 1160.14 256.361 919.082 151.323 334.383 186.272 108.816 3738.86 324.938 78.7785 70.0883 165.114 42.5064 241.058 27.2041 246.159 3413.92 109.572 3304.35 137.91
internal_count=138125 116659 109161 106203 94030 21466 1675 12173 2958 7498 1188 6141 1357 4865 801 1770 986 576 19791 1720 417 371 874 225 1276 144 1303 18071 580 17491 730
is_linear=0
shrinkage=1


Tree=1
num_leaves=32
num_cat=0
split_feature=0 2 3 1 5 3 0 10 7 10 6 14 12 3 2 12 0 3 0 12 6 0 7 3 13 0 4 3 0 0 7
split_gain=46312 9914.55 2848.74 1953.4 1141.43 976.956 762.992 731.917 561.002 518.36 466.182 452.728 262.343 188.021 216.498 184.866 109.811 78.9935 143.367 108.421 72.7826 41.5031 37.7531 35.9859 30.654 11.328 7.37723 7.03552 27.0115 3.6531 1.81125
threshold=1.0000000180025095e-35 1.0000000180025095e-35 -0.44993415711512069 1.0000000180025095e-35 -0.048604334215887272 0.16622866491896834 0.28494674641600454 0.0052094488417880908 0.060775098337461496 0.0086721143547028572 0.00071451745204923476 -0.012225436867297922 -0.11105665904109298 -0.26401378164587436 2.4077313698667284 -0.10041478624470622 -0.2583571351992075 -0.086446020168922263 0.19099781992733803 -0.17616842074449338 0.0031899405957844513 0.48816145552141554 0.01369619115355329 0.16622866491896834 -0.023033138925675496 0.48816145552141554 0.3917251873714736 -0.3297045888388998 0.14873681028633265 0.66622114480992822 -0.07110408252999674
decision_type=2 2 2 2 2 2 2 2 2 2 2 2 2 2 2 2 2 2 2 2 2 2 2 2 2 2 2 2 2 2 2
left_child=1 2 8 13 10 17 15 23 12 -9 -4 -6 -1 26 -15 20 -10 27 19 -19 -7 24 -17 -5 -8 -20 -3 30 -29 -23 -2
right_child=5 3 4 7 11 6 21 9 16 -11 -12 -13 -14 14 -16 22 -18 18 25 -21 -22 29 -24 -25 -26 -27 -28 28 -30 -31 -32
leaf_value=0.031557701237774502 -0.31303579751563149 -0.30880272171497947 -0.24545064782211778 -0.29524474869416917 0.068396666508920845 0.078023689878910743 -0.26900506249014861 0.014978107987262885 -0.1533513779682826 -0.15102410270829797 0.12500520353462657 -0.048260920694585638 -0.20522414491915678 -0.14952753310530995 -0.24923076403923747 -0.10458580003065808 -0.30861978151025621 -0.015292723660925097 -0.2599741994135728 -0.27000154977521329 -0.36894605324554725 -0.26786864830201174 -0.29520904949180776 -0.19870583416213827 -0.059676829481559258 -0.31278443215052798 -0.22312608985893692 -0.21882625983077592 -0.3118272534975004 -0.31360664458125193 -0.3184574919846021
leaf_weight=192.60309080779552 981.61422871053219 203.32057330012321 40.446207031607628 74.038632035255432 2599.1379400640726 152.7010977268219 18.62654173374176 1378.7550698369741 77.525550097227097 266.51136370003223 14236.702663347125 465.75817213952541 78.0784662514925 604.1661731749773 452.06369344890118 45.08150976896286 178.83175212144852 42.796428352594376 63.514102205634117 36.994059726595879 4.4515758752822867 23.903771564364433 16.982659950852394 120.39149223268032 14.99082291126251 200.35201621055603 12.676453068852423 41.769455671310425 330.2526641190052 156.32285322248936 2872.3359157443047
leaf_count=998 4369 910 225 354 14141 838 88 7527 389 1394 80253 2538 365 2883 2135 225 831 224 293 176 24 110 79 585 76 892 57 205 1471 696 12774
internal_value=0 0.0721606 0.103419 -0.10733 0.111004 -0.296786 -0.14037 -0.0355387 -0.146147 -0.0119121 0.123956 0.0506687 -0.0367423 -0.211143 -0.1922 0.0024797 -0.261665 -0.31161 -0.261371 -0.133386 0.0653626 -0.286808 -0.156746 -0.235468 -0.17566 -0.300073 -0.303775 -0.315695 -0.301385 -0.30754 -0.317077
internal_weight=0 20981 17869.1 3111.92 17342 5002.69 433.061 1839.7 527.039 1645.27 14277.1 3064.9 270.682 1272.23 1056.23 219.217 256.357 4569.63 343.657 79.7905 157.153 213.844 62.0642 194.43 33.6174 263.866 215.997 4225.97 372.022 180.227 3853.95
internal_count=138125 115585 99740 15845 97157 22540 2136 9860 2583 8921 80478 16679 1363 5985 5018 1166 1220 20404 1585 400 862 970 304 939 164 1185 967 18819 1676 806 17143
is_linear=0
shrinkage=0.108964


Tree=2
num_leaves=32
num_cat=0
split_feature=0 2 3 1 5 3 5 0 4 13 3 6 0 14 2 3 4 6 9 3 0 12 7 0 12 1 0 4 0 0 0
split_gain=34851.8 8111.35 2174.59 1370.08 1093.95 892.988 619.881 574.797 546.415 391.22 350.504 319.987 193.444 148.203 144.2 140.809 125.192 112.603 87.9165 85.9923 173.519 121.925 81.0958 39.9528 31.8572 21.1144 16.1973 4.40836 10.9941 2.46578 1.35213
threshold=-0.018705160521995903 1.0000000180025095e-35 -0.44993415711512069 1.0000000180025095e-35 -0.069595050981615017 0.20619347224828125 -0.068710139715685695 0.24143873357272624 -0.068885264983351555 -0.026305907015884141 -0.18771868972883518 0.0049401749547072103 -0.20412614192265133 -0.019273446383194066 1.0000000180025095e-35 -0.40480980469805089 -0.31317209518280392 0.0014935359640234848 -1.7896330989254066 -0.14700588711663024 0.14873681028633265 -0.1724087433616531 0.04378014685963056 0.48816145552141554 -0.026411495068527711 1.0000000180025095e-35 0.28494674641600454 1.0000000180025095e-35 0.14873681028633265 0.73200841225398638 1.0000000180025095e-35
decision_type=2 2 2 2 2 2 2 2 2 2 2 2 2 2 2 2 2 2 2 2 2 2 2 2 2 2 2 2 2 2 2
left_child=1 2 9 13 11 19 15 14 -6 22 -8 -4 -11 16 17 -5 -3 -7 -15 27 21 -21 -1 24 -9 -16 -22 30 -29 -25 -2
right_child=5 3 4 6 8 7 10 23 -10 12 -12 -13 -14 18 25 -17 -18 -19 -20 20 26 -23 -24 29 -26 -27 -28 28 -30 -31 -32
leaf_value=-0.13162510320967832 -0.28312347741775618 -0.21753810840852131 0.12351006977372796 -0.19005765524238719 -0.0061882201114818432 -0.31191239653628611 -0.23794014882345527 -0.055660575575878349 0.081999615566769143 0.053905125873122482 -0.054329292187801144 -0.28797663813987889 -0.15656308482878797 -0.25157230664249264 -0.23688118742190045 0.067726243976268141 -0.11283076030889758 0.078881992254167546 -0.17070049704814044 0.0053375164934653177 -0.1867689143660283 -0.21852416506203631 -0.24885777796530736 -0.22420818754571709 -0.25253730625593818 -0.080995761975697717 -0.25382370712101454 -0.20879841228915358 -0.25601671849653362 -0.25773708667584555 -0.26068830164195872
leaf_weight=115.78777898848057 32.159553855657578 182.56769493222237 11959.852852419019 26.234821543097496 1137.5698452740908 9.1825696825981122 139.46607394516468 25.445453330874443 3127.9991769492626 160.1122308075428 1074.2936125844717 22.480132207274437 76.681448385119438 327.30063305795193 21.798580184578896 613.06981989741325 526.74235627055168 187.66914387047291 311.49885809421539 63.9353346824646 48.352803707122803 52.694486260414124 177.39308901131153 32.469340920448303 15.828927636146544 19.585600644350052 370.48891158401966 65.756051793694496 533.98754586279392 131.56312027573586 3875.5447855740786
leaf_count=528 140 789 72316 126 6344 43 644 127 18033 850 5594 134 351 1424 100 3440 2352 1061 1355 341 215 236 760 137 68 99 1533 283 2198 542 15962
internal_value=0 0.068457 0.0987838 -0.0904907 0.105869 -0.241596 -0.0296889 -0.0933681 0.0584811 -0.118422 -0.0754269 0.122738 -0.0142513 -0.174067 0.0217832 0.0571477 -0.139781 0.0606526 -0.212137 -0.254634 -0.213351 -0.0958054 -0.202558 -0.226988 -0.131164 -0.163106 -0.246083 -0.259538 -0.25084 -0.2511 -0.260873
internal_weight=0 19979.1 16777.9 3201.17 16247.9 5486.46 1853.06 443.543 4265.57 529.975 1213.76 11982.3 236.794 1348.11 238.236 639.305 709.31 196.852 638.799 5042.92 535.472 116.63 293.181 205.307 41.2744 41.3842 418.842 4507.45 599.744 164.032 3907.7
internal_count=138125 115040 99316 15724 96827 23085 9804 2177 24377 2489 6238 72450 1201 5920 1303 3566 3141 1104 2779 20908 2325 577 1288 874 195 199 1748 18583 2481 679 16102
is_linear=0
shrinkage=0.108964


Tree=3
num_leaves=32
num_cat=0
split_feature=0 2 6 6 5 4 3 3 10 0 11 3 0 7 3 12 0 7 6 0 3 11 6 6 0 6 0 4 0 7 7
split_gain=27407.2 6792.09 1921.4 1905.25 1027.39 1003.39 660 405.39 379.251 323.407 185.951 123.87 199.878 136.214 111.325 100.048 51.9906 39.6193 38.3601 32.8028 31.3792 24.1564 21.7709 17.7186 12.1929 17.0017 9.60302 7.84438 28.1716 1.12264 0.941344
threshold=-0.018705160521995903 1.0000000180025095e-35 0.0042687358210873544 0.00071451745204923476 -0.067039987420914979 0.042582364663917148 0.32559947722501653 -0.11422046830165079 0.006161470720228609 0.33550315653122226 0.05094577623797264 -0.050626780303582829 0.24143873357272624 0.18825024828156026 -0.92617489807424769 -0.10041478624470622 -0.29847033088441693 0.2563057305363915 0.0018748226587684015 -0.3194924624278182 -0.11422046830165079 0.066776281512691146 0.0037738090247192023 0.0046101981737517042 0.66622114480992822 0.0027811979810198387 0.60892343476482347 -0.046039977688357388 0.14873681028633265 -0.42682713695185076 0.060775098337461496
decision_type=2 2 2 2 2 2 2 2 2 2 2 2 2 2 2 2 2 2 2 2 2 2 2 2 2 2 2 2 2 2 2
left_child=1 2 3 19 10 -5 11 17 -9 15 14 27 13 -13 -3 18 20 -6 -8 -1 -4 -12 -17 -18 25 -11 -14 30 -29 -26 -2
right_child=6 4 16 5 7 -7 9 8 -10 24 21 12 26 -15 -16 22 23 -19 -20 -21 -22 -23 -24 -25 29 -27 -28 28 -30 -31 -32
leaf_value=-0.14980989160758693 -0.222996568558888 -0.22309528572749315 -0.23510419104903593 0.04619116107651746 -0.17384810238836992 0.11634512944565784 -0.18645242931739425 -0.16488745652713152 -0.061829646170972037 -0.071821575617265529 -0.094894219070174327 -0.021489028100681495 -0.18537293459735771 -0.25749297288000816 0.061944562849678364 -0.056219347261935435 -0.11878021426521231 -0.23840199121601829 0.096402829217172428 -0.25878488670826461 -0.067477032994362932 -0.2707830180874396 -0.22662031626521986 -0.2751976228993111 -0.16936371965414318 -0.2470687495602493 -0.2253145090914698 -0.15512938946465149 -0.22117389593270426 -0.22028843759752137 -0.22668879769980529
leaf_weight=41.371097445487976 1142.1305217444897 16.702848389744759 23.793270424008369 3008.83496786654 249.18208773434162 12382.131764173508 5.952728644013404 582.5727636963129 1557.2117764353752 18.246293678879741 16.392284765839577 135.70738777518272 98.047176674008369 36.940653309226036 625.42054428160191 40.738132461905479 9.135013669729231 206.36926275491714 130.28743074834347 158.22519445419312 29.948282912373543 21.339659258723259 11.391419783234594 146.3936370164156 5.4865514785051337 10.273743912577627 263.65556541085243 86.792229264974594 658.38220505416393 81.325469300150871 2905.4540243893862
leaf_count=206 4586 73 112 17759 1055 79622 29 2587 7391 79 92 696 407 165 3563 193 50 851 780 725 167 112 50 675 22 43 1057 367 2639 326 11646
internal_value=0 0.0642868 0.0938903 0.0982927 -0.0785232 0.10263 -0.2093 -0.109758 -0.0898879 -0.0530609 0.0407162 -0.218207 -0.168445 -0.0719856 0.0545301 0.0349227 -0.234085 -0.203092 0.0840441 -0.236197 -0.141691 -0.19437 -0.0934556 -0.26601 -0.196763 -0.134951 -0.214488 -0.223755 -0.213482 -0.21707 -0.225647
internal_weight=0 19075 15799.8 15590.6 3275.19 15391 5630.81 2595.34 2139.78 303.702 679.855 5327.11 534.351 172.648 642.123 188.37 209.27 455.551 136.24 199.596 53.7416 37.7319 52.1296 155.529 115.332 28.52 361.703 4792.76 745.174 86.812 4047.58
internal_count=138125 115040 99316 98312 15724 97381 23085 11884 9978 1522 3840 21563 2325 861 3636 1052 1004 1906 809 931 279 204 243 725 470 122 1464 19238 3006 348 16232
is_linear=0
shrinkage=0.108964


Tree=4
num_leaves=32
num_cat=0
split_feature=0 5 4 1 3 3 0 10 8 11 6 6 6 6 9 3 14 14 3 0 12 10 14 0 6 0 0 7 0 0 0
split_gain=22148.5 5667.37 1389.28 1181.7 835.819 620.944 505.595 435.459 445.702 419.83 336.947 293.071 161.186 192.845 153.776 101.772 77.9022 76.6066 49.237 91.0071 92.1706 40.8073 30.4048 28.5391 32.0505 24.4788 8.1835 4.58257 14.6543 2.95996 2.83629
threshold=-0.04910214933365404 -0.017278627050199991 -0.10815901750633851 1.0000000180025095e-35 0.13516252521597868 -0.92617489807424769 0.24143873357272624 0.0054822480541340266 1.0000000180025095e-35 0.070912479913255486 0.0046101981737517042 0.0042687358210873544 0.0031320268023185597 0.0013611996372771293 -1.7896330989254066 -0.086446020168922263 -0.021455765703966422 -0.016652547550870641 -0.14700588711663024 0.14873681028633265 -0.1724087433616531 0.0043424536389232039 -0.029523003038869015 0.48816145552141554 0.0016151365678332022 -0.28871397440367114 0.5485538855394706 -0.063025393243668917 0.28494674641600454 -0.018705160521995903 0.66622114480992822
decision_type=2 2 2 2 2 2 2 2 2 2 2 2 2 2 2 2 2 2 2 2 2 2 2 2 2 2 2 2 2 2 2
left_child=1 2 5 14 18 25 12 21 -9 10 -4 -7 13 -6 16 -16 -3 -11 27 20 -20 -5 -14 24 -8 -1 -21 28 -2 -29 -25
right_child=4 3 9 7 6 11 23 8 -10 17 -12 -13 22 -15 15 -17 -18 -19 19 26 -22 -23 -24 30 -26 -27 -28 29 -30 -31 -32
leaf_value=-0.10491690980727839 -0.17015802564116539 -0.1322691656295335 0.11338265261935575 -0.16528450930294922 -0.22372878274924415 0.039056744001231956 -0.2410831389171581 0.042797766127525651 -0.055817951031880024 0.004502126202565797 -0.16441247815471136 -0.2491975406527783 -0.071815073693439493 0.068547856496229256 -0.1751641429289936 -0.065412937353991119 -0.19972767092592877 -0.14862085269959083 0.011941321014916366 -0.16548027537575877 -0.18329691348549618 -0.083581163539979533 -0.27856092837168811 -0.16345936334026703 -0.057389650987685066 -0.19805130294289297 -0.2014824111981359 -0.22885723607495567 -0.20070164557303932 -0.20244591600871864 -0.1989630225361399
leaf_weight=43.995963022112846 228.01801973581314 453.04666408896446 11521.484297528863 178.62321442365646 29.432039573788643 1978.6848376840353 15.503950446844099 1503.9521297216415 852.63770751655102 81.870033949613571 52.075584232807159 42.783301204442978 13.562935858964918 300.05742266774178 128.48676964640617 457.55215719342232 368.63951475918293 73.726272255182266 61.148098558187485 106.10869386792183 54.118498682975769 122.25828656554222 22.384239807724953 31.068782299757004 41.368277102708817 140.54035080969334 255.38468414545059 51.141184419393539 1024.3782657384872 3390.1445160061121 190.67812874913216
leaf_count=203 934 1925 79347 756 128 11924 63 8448 4632 520 243 201 59 1829 522 2039 1520 443 328 429 231 642 103 125 186 585 1026 212 4118 13638 766
internal_value=0 0.0617987 0.0948217 -0.0514013 -0.182815 0.0154893 -0.0657616 -0.00864312 0.00711762 0.109742 0.112133 0.032956 0.018537 0.0424399 -0.132119 -0.0894755 -0.162534 -0.0680522 -0.197396 -0.164032 -0.0797244 -0.132086 -0.200555 -0.176328 -0.107466 -0.175847 -0.190915 -0.200784 -0.195141 -0.202838 -0.193989
internal_weight=0 18000.4 13935.2 4065.2 5814.5 2206 644.056 2657.47 2356.59 11729.2 11573.6 2021.47 365.437 329.489 1407.73 586.039 821.686 155.596 5170.44 476.76 115.267 300.882 35.9472 278.619 56.8722 184.536 361.493 4693.68 1252.4 3441.29 221.747
internal_count=138125 113950 93466 20484 24175 12913 3259 14478 13080 80553 79590 12125 2119 1957 6006 2561 3445 963 20916 2014 559 1398 162 1140 249 788 1455 18902 5052 13850 891
is_linear=0
shrinkage=0.108964


Tree=5
num_leaves=32
num_cat=0
split_feature=0 2 4 3 1 5 7 0 10 6 6 12 12 2 6 2 7 3 3 0 6 11 14 1 0 6 0 4 0 0 7
split_gain=18178.6 4955.85 1498.55 685.4 645.542 560.331 530.366 407.649 356.874 308.942 348.384 265.91 187.248 154.535 119.738 108.595 95.4989 83.7797 45.5803 77.8915 75.7817 35.7427 24.2029 23.8822 17.5854 22.4702 8.34951 4.83043 12.998 0.883439 0.878554
threshold=-0.04910214933365404 1.0000000180025095e-35 -0.16364025700397591 0.13516252521597868 1.0000000180025095e-35 -0.073431190275417127 0.18825024828156026 0.28494674641600454 0.0074144336390161427 -0.0020022474142061364 0.0058449531600475628 -0.37319259445749792 -0.41663587923163642 1.0000000180025095e-35 0.0033438589738695157 2.4077313698667284 0.2985575178896977 0.0081083538592618531 -0.14700588711663024 0.14873681028633265 0.0029370406660849942 -0.23954239156706769 -0.0098951481061549471 1.0000000180025095e-35 0.60892343476482347 0.0034591066709285579 0.5485538855394706 1.0000000180025095e-35 0.14873681028633265 0.92962540757143441 -0.12060590001333193
decision_type=2 2 2 2 2 2 2 2 2 2 2 2 2 2 2 2 2 2 2 2 2 2 2 2 2 2 2 2 2 2 2
left_child=1 2 6 18 15 12 11 13 -7 21 -11 -1 -4 14 -5 16 -3 -8 27 20 -20 -6 -17 -15 25 -9 -21 30 -29 -26 -2
right_child=3 4 5 7 9 8 17 24 -10 10 -12 -13 -14 23 -16 22 -18 -19 19 26 -22 -23 -24 -25 29 -27 -28 28 -30 -31 -32
leaf_value=-0.12003946699488534 -0.18172680715194017 -0.077712815276393468 -0.0317904189432196 0.065494152734757685 -0.062875968002515437 0.072323438899478745 -0.16874092492264117 -0.076786480603112356 -0.071298916126460735 0.010684093765561753 -0.14807897911402229 0.036346552270376545 0.11772689457471437 -0.18910966729958678 -0.25057491995967818 -0.13416666759319956 -0.18924322910281002 -0.042570681556661667 -0.022530030854019324 -0.14748842829990386 -0.23229154755275033 -0.19244267066726628 -0.1780657145070409 -0.06618318641287825 -0.16657454891635021 -0.21996317646494953 -0.18398439627014054 -0.13491345396780269 -0.18071499473581981 -0.18417578767949791 -0.18562182059737622
leaf_weight=139.6690646559 885.08445064723492 702.20343253016472 100.62091940641403 280.07770925760269 31.638478919863701 2913.7775007635355 212.07592943310738 48.418511852622032 220.99524256587029 1494.4496873319149 184.34820374846458 1704.781962543726 8532.2479177117348 36.318101838231087 14.992680802941321 344.07426489889622 104.75164747238159 88.58876296877861 89.72042079269886 106.06834633648396 26.485827445983887 125.76800245046616 263.16421197354794 38.825054407119751 43.581203371286392 17.79847477376461 249.5011922121048 85.319316223263741 534.03469829261303 151.7448116838932 3080.9586006999016
leaf_count=836 3642 2909 745 1775 142 19535 950 204 1300 8164 817 10307 64277 153 65 1400 427 517 445 429 114 555 1069 188 178 72 1026 355 2198 624 12707
internal_value=0 0.0580868 0.0863879 -0.166669 -0.0630511 0.101656 0.00262922 -0.0596609 0.0621983 -0.0204355 -0.00674962 0.0245044 0.115984 0.0139082 0.0494345 -0.118384 -0.0921907 -0.131566 -0.180037 -0.147786 -0.0703391 -0.1664 -0.153192 -0.125596 -0.163798 -0.115271 -0.173097 -0.183355 -0.174406 -0.180249 -0.184753
internal_weight=0 17163.2 13912.8 5688.93 3250.4 11767.6 2145.12 631.757 3134.77 1836.2 1678.8 1844.45 8632.87 370.214 295.07 1414.19 806.955 300.665 5057.17 471.776 116.206 157.406 607.238 75.1432 261.543 66.217 355.57 4585.4 619.354 195.326 3966.04
internal_count=138125 113950 98467 24175 15483 85857 12610 3259 20835 9678 8981 11143 65022 2181 1840 5805 3336 1467 20916 2014 559 697 2469 341 1078 276 1455 18902 2553 802 16349
is_linear=0
shrinkage=0.108964


Tree=6
num_leaves=32
num_cat=0
split_feature=0 5 4 1 6 3 6 3 0 14 11 11 6 6 14 7 12 9 3 0 12 10 3 0 6 5 8 3 0 7 4
split_gain=15093.2 4353.48 1068.84 837.199 599.756 583.332 562.015 388.677 361.185 313.286 224.96 210.733 142.131 161.543 118.448 109.053 56.0771 45.2036 34.0523 53.2212 67.2689 29.7689 28.0183 16.2029 24.1685 6.86566 6.46642 5.3999 15.4464 0.74796 0.480996
threshold=-0.04910214933365404 -0.030398094717174022 0.19595214026645982 1.0000000180025095e-35 0.0013611996372771293 0.10503821062375375 0.0033438589738695157 -0.18771868972883518 0.28494674641600454 -0.012225436867297922 0.075492461507060002 -0.071165232173061185 0.00097298153167503715 0.0030485185886231707 -0.019273446383194066 0.43666137087575191 0.30434665851854614 -2.6713861379787507 -0.14700588711663024 0.19099781992733803 -0.14853430140105453 0.0062114349324415034 0.46286643120847992 0.66622114480992822 0.0018258671618207576 0.0034498372118780154 -0.88381262936196647 -0.49236495802547486 0.19099781992733803 -0.109405428436818 0.58673024448126476
decision_type=2 2 2 2 2 2 2 2 2 2 2 2 2 2 2 2 2 2 2 2 2 2 2 2 2 2 2 2 2 2 2
left_child=1 2 4 14 22 18 -6 16 12 -9 11 -4 25 -14 15 -3 -5 -16 27 20 -20 -12 -1 24 -10 -7 -21 29 -29 -2 -25
right_child=5 3 10 7 6 8 -8 9 23 -11 21 -13 13 -15 17 -17 -18 -19 19 26 -22 -23 -24 30 -26 -27 -28 28 -30 -31 -32
leaf_value=-0.20217620484846993 -0.16891777756603782 -0.064348685584287205 -0.13008189342918583 -0.063630254475253542 0.056651915529823606 -0.25580032389019497 -0.15802365242608188 0.022337953728723537 -0.1988479262199159 -0.086386989036985773 -0.16251293593427626 0.11268102944132274 0.060468557201628248 -0.15445428320217447 -0.18693333934875103 -0.18797594900489883 -0.16938287861693491 -0.12197397012508926 0.0025853962753142499 -0.11091614103289191 -0.16571783170038157 -0.022544194728907521 0.016334168296388965 -0.17113020927002517 -0.071723129665060628 -0.15652216387889492 -0.16654156598053427 -0.12125992963585901 -0.16829131293983079 -0.17251149792321963 -0.15601705676024108
leaf_weight=124.87650877982378 900.64458763599396 756.74804995954037 42.671700060367584 92.616668701171875 3121.8809011802077 16.287398174405098 151.83433228731155 2380.1938298791647 25.843107610940933 362.59793819487095 29.516225218772888 8367.6884102523327 301.6040176898241 48.152082994580269 179.5211610943079 95.396715596318245 166.66986078023911 436.31928145885468 61.985642522573471 27.290974348783493 51.72536988556385 46.405192852020264 7.3789256811141959 169.88821981847286 56.744097605347633 16.803088545799255 273.28202059864998 99.179606407880783 505.4666982293129 2907.2994928658009 29.317928552627563
leaf_count=567 3842 3207 289 469 21245 68 719 13801 105 2005 177 67492 1936 206 735 394 700 1816 317 115 214 294 40 725 238 69 1155 419 2166 12475 125
internal_value=0 0.0546097 0.0890686 -0.0370656 0.0375049 -0.15416 0.0466953 -0.00409028 -0.0584556 0.00796448 0.109764 0.111449 0.0104582 0.0308794 -0.104501 -0.0781886 -0.131608 -0.14091 -0.167338 -0.137469 -0.0739731 -0.0769603 -0.189985 -0.152082 -0.111503 -0.205388 -0.161491 -0.170143 -0.160577 -0.171662 -0.168906
internal_weight=0 16362.3 11892.3 4470.06 3405.97 5491.51 3273.72 3002.08 664.64 2742.79 8486.28 8410.36 382.847 349.756 1467.99 852.145 259.287 615.84 4826.87 414.284 113.711 75.9214 132.255 281.793 82.5872 33.0905 300.573 4412.59 604.646 3807.94 199.206
internal_count=138125 113950 90823 23127 22571 24175 21964 16975 3472 15806 68252 67781 2279 2142 6152 3601 1169 2551 20703 1801 531 471 607 1193 343 137 1270 18902 2585 16317 850
is_linear=0
shrinkage=0.108964


Tree=7
num_leaves=32
num_cat=0
split_feature=0 5 4 9 3 3 3 11 0 5 6 6 4 5 14 6 6 7 1 0 3 0 4 0 7 0 7 0 0 0 4
split_gain=12639.2 3757.06 967.011 737.758 506.651 491.349 381.895 363.799 300.411 299.964 183.046 177.988 132.104 124.873 115.615 86.4619 84.9449 43.3768 39.5154 36.0218 34.0646 50.2332 69.2083 16.3328 23.0865 6.24576 19.3658 4.65217 3.09631 0.857389 0.27028
threshold=-0.04910214933365404 -0.03610106377873331 0.21057413846166487 -0.90788005987206277 0.10503821062375375 -0.44993415711512069 -0.26401378164587436 0.057506250214031503 0.28494674641600454 0.19145270287145946 -0.0020022474142061364 0.0049401749547072103 0.25740140264625944 -0.065308069615751876 -0.014073677591826055 0.0014935359640234848 0.0019477613348785501 0.43666137087575191 1.0000000180025095e-35 -0.22222496747676371 -0.14700588711663024 0.28494674641600454 -0.33129794710359212 0.60892343476482347 0.04378014685963056 0.38392641714013354 0.18825024828156026 -0.22962972536504325 0.5485538855394706 0.92962540757143441 0.3917251873714736
decision_type=2 2 2 2 2 2 2 2 2 2 2 2 2 2 2 2 2 2 2 2 2 2 2 2 2 2 2 2 2 2 2
left_child=1 2 5 12 20 15 19 -7 13 -8 27 -12 17 16 -14 -1 -6 -3 -15 -5 25 22 -22 24 -10 26 -2 -4 -23 -25 -27
right_child=4 3 10 6 8 7 9 -9 23 -11 11 -13 14 18 -16 -17 -18 -19 -20 -21 21 28 -24 29 -26 30 -28 -29 -30 -31 -32
leaf_value=-0.18629842623954232 -0.13049675132441524 -0.11108661760231135 -0.19834930887427221 -0.093004521219414202 -0.18110947145190001 0.058732955224669883 0.029119123420649567 -0.12387729752115582 -0.05178795689594113 -0.054790296996690073 0.10922862576706997 -0.16032263470264388 -0.032051614191839987 -0.15162392863708896 -0.13781427030933222 -0.057930170576045228 0.081617604584425782 -0.17689941001676435 -0.030130423350387694 -0.1766620862011109 -0.17390124783926203 -0.13088145471295565 -0.015089286628333526 -0.14377510335994864 -0.1800436967907024 -0.1621168462881194 -0.16410191454916917 -0.31375628378539266 -0.16060679895396848 -0.16099507992675074 -0.15661536260167666
leaf_weight=85.996648341417313 324.69196003675461 688.39650160074234 8.616384834051134 134.93556886911392 15.745477423071859 2841.7240974605083 2258.546376042068 135.7171370908618 47.365466147661209 651.82378597557545 7611.8578596189618 29.196673914790154 510.14378686994314 44.701930522918701 161.59190275520086 226.06070397794247 202.85387291014194 143.73113204538822 109.99954129755497 111.69714789837599 51.704007059335709 51.88047556579113 88.085634633898735 44.15046826004982 25.707633674144745 3218.3658815175295 545.95651130378246 7.9955743700265876 210.08177679777145 154.3420195877552 109.63906998932362
leaf_count=364 1425 2990 44 599 77 20402 13576 837 199 3191 66581 136 2318 191 694 1096 1414 614 597 471 223 221 416 194 107 14548 2436 37 941 693 493
internal_value=0 0.0513044 0.0861874 -0.0306268 -0.144207 0.0367758 -0.000706049 0.0504093 -0.0537552 0.0103263 0.107413 0.108199 -0.0934381 0.00967739 -0.0574937 -0.0933058 0.0626937 -0.122454 -0.0652367 -0.130892 -0.156886 -0.126574 -0.0738291 -0.140951 -0.0969092 -0.159786 -0.15157 -0.253896 -0.15472 -0.157165 -0.161936
internal_weight=0 15608 10947.2 4660.87 5245.27 3289.5 3157 2977.44 644.866 2910.37 7657.67 7641.05 1503.86 373.301 671.736 312.057 218.599 832.128 154.701 246.633 4600.41 401.752 139.79 271.566 73.0731 4198.65 870.648 16.612 261.962 198.492 3328
internal_count=138125 113950 89497 24453 24175 22699 17837 21239 3472 16767 66798 66717 6616 2279 3012 1460 1491 3604 788 1070 20703 1801 639 1193 306 18902 3861 81 1162 887 15041
is_linear=0
shrinkage=0.108964


Tree=8
num_leaves=32
num_cat=0
split_feature=0 2 4 6 6 10 10 5 10 4 3 0 10 11 3 0 4 12 12 7 1 6 4 0 10 7 7 0 6 7 3
split_gain=10662.2 3447.65 1322.29 537.992 549.611 392.951 319.675 318.357 235.793 257.406 220.876 106.798 101.543 90.9303 67.1701 63.6204 95.6307 66.7285 55.1512 26.4685 24.4547 20.4676 10.7704 31.0767 10.0868 7.3089 7.00328 3.508 5.29054 1.38892 0.467966
threshold=1.0000000180025095e-35 1.0000000180025095e-35 0.089978376156294462 0.0014935359640234848 0.0034591066709285579 0.0074144336390161427 0.0049427191763560261 -0.083225338686915354 0.0061770433797679368 -0.13545687572751317 0.32559947722501653 0.48816145552141554 0.0086721143547028572 0.052898186286861083 -0.40480980469805089 0.14873681028633265 -0.046039977688357388 -0.23580777438833006 -0.10041478624470622 0.2563057305363915 1.0000000180025095e-35 0.00037258760581394872 0.21729606347226096 0.5485538855394706 0.0050481773934043803 -0.31042461897168411 0.10347210455041782 0.73200841225398638 0.0031320268023185597 -0.109405428436818 0.38962650723914355
decision_type=2 2 2 2 2 2 2 2 2 2 2 2 2 2 2 2 2 2 2 2 2 2 2 2 2 2 2 2 2 2 2
left_child=1 2 3 21 -5 6 -4 13 20 -10 15 18 -7 14 -3 16 26 -18 19 -12 -9 -1 29 -24 -20 -15 -2 28 -13 -17 -29
right_child=10 7 5 4 -6 12 -8 8 9 -11 11 27 -14 25 -16 22 17 -19 24 -21 -22 -23 23 -25 -26 -27 -28 30 -30 -31 -32
leaf_value=-0.18154639959129409 -0.12263803944782739 -0.14218458317889793 -0.14042462673363976 0.037634865064261572 -0.15058493855389313 0.0035169750487358113 0.10177062124129278 -0.13303029391892149 -0.10410627210933665 -0.019773860063064318 0.076901950856182857 -0.050734120779932203 -0.15385753060123744 -0.12396740793806145 0.055821235474280015 -0.14935756229548777 0.046846188609398036 -0.101836579690659 -0.18357726441513278 -0.17288435654148987 -0.095434618683525013 -0.10176983945206369 -0.082539432180426073 -0.1524648754209656 -0.054007463118744874 -0.25539225327182186 -0.15760019764936981 -0.13110038327283338 -0.17029052292300509 -0.15429921478639261 -0.1518362675317502
leaf_weight=144.9194298684597 112.41486996412277 21.461650669574738 65.210390254855156 2834.7359320521355 197.00013573467731 207.05814874172211 8353.8696883842349 432.25837086141109 622.97274793684483 1385.3144189417362 94.280192747712135 12.217489182949068 63.641418792307377 9.7378155738115328 389.73463824391365 896.35560776293278 65.072028368711472 79.775599613785744 8.5777237415313703 5.321079656481742 391.45416879653931 51.843839012086391 102.57128991186619 285.51779201626778 42.372448414564133 10.379090368747709 172.26847539842129 17.306678131222725 6.8632573038339606 2738.2530895918608 51.00498902797699
leaf_count=641 518 97 411 19269 900 1529 76386 1797 2829 6442 648 52 328 50 2728 4250 344 352 36 28 1849 276 472 1358 192 53 804 82 30 13132 242
internal_value=0 0.0464462 0.0736173 0.0140728 0.0254045 0.0957398 0.0998947 -0.0527881 -0.06607 -0.0459339 -0.141515 -0.0392303 -0.0334817 0.0344206 0.0454867 -0.146982 -0.107121 -0.0350416 0.0163884 0.0635574 -0.115164 -0.160527 -0.151238 -0.133984 -0.0758212 -0.191775 -0.143794 -0.135045 -0.093738 -0.153081 -0.146583
internal_weight=0 15181.6 11918.3 3228.5 3031.74 8689.78 8419.08 3263.31 2832 2008.29 4690.17 237.944 270.7 431.313 411.196 4452.23 429.531 144.848 150.551 99.6013 823.713 196.763 4022.7 388.089 50.9502 20.1169 284.683 87.3924 19.0807 3634.61 68.3117
internal_count=138125 115585 99740 21086 20169 78654 76797 15845 12917 9271 22540 1310 1857 2928 2825 21230 2018 696 904 676 3646 917 19212 1830 228 103 1322 406 82 17382 324
is_linear=0
shrinkage=0.108964


Tree=9
num_leaves=32
num_cat=0
split_feature=0 5 2 3 8 11 3 11 0 14 7 10 9 0 7 1 6 11 7 3 0 6 0 7 3 0 7 3 0 7 3
split_gain=9042.33 3063.65 820.909 522.079 467.647 437.612 409.02 346.6 222.902 219.449 183.973 187.58 152.734 116.174 112.559 82.9809 57.4901 54.9435 38.4837 34.3046 57.6316 63.3948 11.5197 16.2193 10.7849 6.45768 5.2914 2.88318 8.79783 0.594295 0.553103
threshold=-0.04910214933365404 -0.068710139715685695 1.0000000180025095e-35 -0.40480980469805089 -0.36486399946968229 -0.046357796492900415 0.094120553446747635 0.057506250214031503 0.33550315653122226 -0.0083427419315573285 0.43666137087575191 0.0064056719202908018 -1.7896330989254066 -0.2583571351992075 0.18825024828156026 1.0000000180025095e-35 0.0014935359640234848 -0.078775453041825497 0.060775098337461496 -0.29482760102227196 0.19099781992733803 0.0031320268023185597 0.66622114480992822 -0.109405428436818 0.24586582708399765 0.5485538855394706 0.49098527090985805 -0.5872967451986798 0.28494674641600454 -0.078081492519658707 0.33147158174607638
decision_type=2 2 2 2 2 2 2 2 2 2 2 2 2 2 2 2 2 2 2 2 2 2 2 2 2 2 2 2 2 2 2
left_child=1 3 4 13 12 17 19 -7 14 -6 11 -4 -3 16 15 -8 -1 -5 -15 27 21 -21 23 -10 -12 -22 -16 29 -29 -2 -24
right_child=6 2 10 5 9 7 8 -9 22 -11 24 -13 -14 18 26 -17 -18 -19 -20 20 25 -23 30 -25 -26 -27 -28 28 -30 -31 -32
leaf_value=-0.15152411102776167 -0.14435998524028104 -0.15398517985772417 -0.091589818623937738 -0.28959822338955599 0.0063230478570360255 0.10013637494401306 -0.11770306479949497 -0.088019311584381629 -0.041619979234032219 -0.083420249685162193 -0.15850859589333596 -0.027465622367974452 0.076387664348669795 -0.05381860026035868 -0.083687989152130673 0.047867878557107481 0.047681824456749594 -0.096533833877742503 -0.15963806168401007 -0.018420696524584508 -0.11465863321929302 -0.1838565170496059 -0.1482881079648492 -0.14995436806189319 -0.093619140725892835 -0.14559634784421407 -0.1725083072843398 -0.10766876571704689 -0.14546182028512639 -0.14789404489021402 -0.13568870948943118
leaf_weight=19.853677518665791 748.47911706566811 35.050268061459064 828.67752034962177 26.085513241589069 1681.3248182907701 7610.4931818321347 40.98904450237751 118.04327142983675 36.659898161888123 400.59286727756262 208.22396989166737 1563.6489100158215 1359.2993535995483 74.455769665539265 10.183316513895987 291.73650946468115 128.73298910260201 53.184185996651649 90.282694727182388 112.71590800583363 107.78608600795269 36.377255946397781 107.43339216709137 29.702652886509895 35.612040221691132 311.92541424930096 36.534142732620239 92.196342676877975 353.69751141965389 2304.1568958312273 67.272366613149643
leaf_count=87 3767 173 3632 191 11442 74333 179 832 157 2603 932 7057 10452 399 56 1980 801 450 410 533 507 159 545 133 156 1586 167 433 1810 11825 338
internal_value=0 0.0452582 -0.0130119 0.0891155 0.0217619 0.09465 -0.129226 0.0972625 -0.0468217 -0.0109449 -0.0588675 -0.0496776 0.0705967 -0.0487983 0.00523295 0.0274709 0.0210646 -0.160066 -0.111812 -0.141797 -0.116979 -0.0587854 -0.128756 -0.0901085 -0.149032 -0.137651 -0.153148 -0.145832 -0.137647 -0.147028 -0.143437
internal_weight=0 14233.6 6112.43 8121.13 3476.27 7807.81 4687.85 7728.54 620.511 2081.92 2636.16 2392.33 1394.35 313.325 379.443 332.726 148.587 79.2697 164.738 4067.33 568.805 149.093 241.068 66.3626 243.836 419.712 46.7175 3498.53 445.894 3052.64 174.706
internal_count=138125 113950 36447 77503 24670 75806 24175 75165 3555 14045 11777 10689 10625 1697 2382 2159 888 641 809 20620 2785 692 1173 290 1088 2093 223 17835 2243 15592 883
is_linear=0
shrinkage=0.108964


Tree=10
num_leaves=32
num_cat=0
split_feature=3 5 0 9 0 10 14 10 11 13 14 11 9 11 11 6 0 6 7 4 7 0 12 9 12 0 6 0 0 6 3
split_gain=7706.19 2218.47 1117.4 651.698 560.292 421.261 379.929 336.936 258.37 250.973 146.353 117.698 98.6896 87.6933 84.4577 71.073 49.664 41.0095 40.7223 31.6377 19.2189 39.6081 67.2524 12.7286 9.25099 4.91243 4.42636 3.92971 2.88295 4.64468 0.359038
threshold=-0.18771868972883518 -0.065308069615751876 0.14873681028633265 -0.90788005987206277 -0.20412614192265133 0.0057044139270425124 -0.012030991452841351 0.0055239880686811975 -0.043651212055753695 -0.033956452005864828 -0.010073943899002897 0.038983937114973867 -2.6713861379787507 0.055052704980457411 -0.078775453041825497 0.0017688627081615573 0.48816145552141554 0.0019477613348785501 -0.11504999335255173 0.089978376156294462 -0.078081492519658707 0.076823695009424667 -0.21792747208424243 -2.6713861379787507 -0.1960964402013147 0.48816145552141554 0.0033438589738695157 0.73200841225398638 -0.018705160521995903 0.0020403760581214252 -0.26401378164587436
decision_type=2 2 2 2 2 2 2 2 2 2 2 2 2 2 2 2 2 2 2 2 2 2 2 2 2 2 2 2 2 2 2
left_child=4 2 5 10 9 11 7 -5 -7 18 12 -2 -3 15 -8 -11 17 -4 19 -1 21 22 -6 -12 -15 -23 -20 -18 29 -22 -30
right_child=1 3 16 6 20 8 14 -9 -10 13 23 -13 -14 24 -16 -17 27 -19 26 -21 28 25 -24 -25 -26 -27 -28 -29 30 -31 -32
leaf_value=-0.099070717435082958 0.0073841727370583914 -0.10076034830140544 -0.15994460540186611 -0.075910443065934141 -0.010131541647618699 -0.087905318828363069 -0.1617302244961531 0.041377896475007662 0.097923862175749901 -0.10801772203972708 -0.15860013579346394 -0.16129091680932764 -0.029442275747659102 -0.17183078742355409 -0.041230351630116173 0.060368059382851766 -0.10301420444909369 -0.00043905498136056066 -0.12596146486147972 0.0034371651055655175 -0.17183368523608836 -0.12136235007241006 -0.13040526539325825 -0.11539403096837751 -0.042596577387247439 -0.14161593416174995 -0.1624328379452312 -0.13980472582965961 -0.14210884276103014 -0.14224073834131373 -0.13390754782306027
leaf_weight=98.827500768005848 385.18131048977375 326.98164913058281 26.055433571338654 322.46002071350813 86.730524815618992 89.972497388720512 75.868452548980713 2962.201570995152 7016.6857103407383 32.898189291357994 114.22234308719635 56.295351654291153 779.7404198795557 25.417765580117702 769.59677942097187 312.15551574528217 41.030340269207954 72.085349962115288 110.05790613591671 56.007026486098766 103.76131249219179 182.86506086587906 151.82801554352045 277.97602833807468 8.8720357343554479 639.16210201382637 61.637071579694748 215.61700700223446 2400.8037058711052 160.18489753454924 65.096445217728615
leaf_count=452 3291 1367 121 1656 494 691 381 20053 73485 163 508 372 3775 126 4738 2277 203 368 515 283 495 960 702 1298 43 3498 279 1174 13245 765 347
internal_value=0 0.0430374 0.0802723 -0.00923886 -0.121616 0.0891553 0.0130966 0.0298635 0.0955712 -0.032482 -0.070782 -0.0141246 -0.0505132 0.0277985 -0.0520435 0.0443138 -0.108713 -0.0427862 -0.102512 -0.0619914 -0.138215 -0.125767 -0.0866785 -0.127977 -0.138393 -0.13711 -0.139054 -0.133923 -0.143051 -0.153874 -0.141892
internal_weight=0 13532 7902.92 5629.05 4496.31 7548.13 4130.13 3284.66 7106.66 705.873 1498.92 441.477 1106.72 379.344 845.465 345.054 354.788 98.1408 326.53 154.835 3790.43 1060.59 238.559 392.198 34.2898 822.027 171.695 256.647 2729.85 263.946 2465.9
internal_count=138125 113481 79705 33776 24644 77839 26828 21709 74176 4138 6948 3663 5142 2609 5119 2440 1866 489 1529 735 20506 5654 1196 1806 169 4458 794 1377 14852 1260 13592
is_linear=0
shrinkage=0.108964


Tree=11
num_leaves=32
num_cat=0
split_feature=0 5 2 3 8 4 11 13 0 2 11 6 12 6 6 7 6 9 3 7 0 14 6 0 6 6 0 0 0 10 4
split_gain=6641.91 2333.72 663.536 443.508 406.932 385.226 218.738 197.702 189.378 153.559 150.446 137.821 137.358 133.86 130.514 107.244 79.2124 61.5277 39.7513 55.5903 78.3751 34.8822 30.7938 11.2502 15.1181 6.34852 6.11585 3.58192 4.3732 1.40181 0.628403
threshold=-0.073637347028242386 -0.077465834879335671 1.0000000180025095e-35 0.099613110133052338 -0.36486399946968229 -0.19498052797254076 0.13779651540136537 0.07143866393342109 0.33550315653122226 2.4077313698667284 0.055052704980457411 0.0058449531600475628 -0.38939333706058871 0.00097298153167503715 0.0013611996372771293 0.18825024828156026 0.00097298153167503715 1.0000000180025095e-35 -0.29482760102227196 0.18825024828156026 0.28494674641600454 0.052142149701629531 0.0035960625027346687 0.66622114480992822 0.0034591066709285579 0.0031320268023185597 1.0000000180025095e-35 -0.04910214933365404 0.076823695009424667 0.0066008321551562655 0.58673024448126476
decision_type=2 2 2 2 2 2 2 2 2 2 2 2 2 2 2 2 2 2 2 2 2 2 2 2 2 2 2 2 2 2 2
left_child=1 5 4 18 14 12 -6 10 15 11 -7 -4 21 -14 -3 16 -5 -9 27 20 -20 -1 -11 24 -10 -17 -21 29 -29 -2 -25
right_child=3 2 9 8 6 7 -8 17 23 22 -12 -13 13 -15 -16 25 -18 -19 19 26 -22 -23 -24 30 -26 -27 -28 28 -30 -31 -32
leaf_value=-0.25989520297848479 -0.14464519497614867 -0.10791141645128417 -0.015984880139942041 -0.15029015631667553 0.0026428800001720041 0.10227383192496455 -0.1534856724225219 -0.16173989463271396 -0.045245919108809915 -0.078438210102020789 -0.063017708713190249 -0.10173131054949781 -0.16217341027960672 0.037957914578171756 0.073998748839781789 -0.10889877949888961 0.041070085481265929 0.014367129827285481 -0.014590897228911838 -0.20971396764960326 -0.12350547326736154 0.002393723162856424 -0.15399813581235303 -0.13635807742230466 -0.16461104880709479 -0.18710791996540876 -0.13958783013849388 -0.11991703062634256 -0.13644837268820489 -0.18410978627063379 -0.1164204881994271
leaf_weight=25.460888601839542 18.99265369027853 48.401549465954304 1494.9519085735083 27.661952346563339 2213.509029135108 5438.1741275116801 111.92986784875393 39.059731841087341 45.170043364167213 818.45203548669815 66.174979910254478 261.48790155351162 41.817429631948471 776.71954750269651 1440.4839819595218 30.636475019156933 359.07317048311234 59.338930137455463 143.25711344927549 15.843393333256243 173.39377738535404 7.8843664899468413 69.474661201238632 129.12174561619759 17.470689252018929 20.615325346589088 217.11303004622459 203.74494636058807 2815.6708605140448 24.435548149049282 21.962143361568451
leaf_count=178 89 257 6793 116 15904 63747 612 375 203 3848 525 1132 201 5922 12418 162 2707 584 736 78 985 52 312 743 82 93 1197 1084 16751 114 125
internal_value=0 0.0408336 -0.00547381 -0.116012 0.0236061 0.08717 -0.00487202 0.0975499 -0.033277 -0.0474197 0.100287 -0.0287503 0.0189025 0.0277336 0.0680851 0.0077543 0.0273827 -0.0555392 -0.130938 -0.103955 -0.0742311 -0.197878 -0.0843503 -0.117363 -0.0785372 -0.140357 -0.144357 -0.13578 -0.135333 -0.166851 -0.13346
internal_weight=0 12913.3 6458.69 4264.16 3814.32 6454.63 2325.44 5602.75 651.712 2644.37 5504.35 1756.44 851.882 818.537 1488.89 437.987 386.735 98.3987 3612.45 549.607 316.651 33.3453 887.927 213.725 62.6407 51.2518 232.956 3062.84 3019.42 43.4282 151.084
internal_count=138125 112860 41276 25265 29191 71584 16516 65231 4231 12085 64272 7925 6353 6123 12675 3078 2823 959 21034 2996 1721 230 4160 1153 285 255 1275 18038 17835 203 868
is_linear=0
shrinkage=0.108964


Tree=12
num_leaves=32
num_cat=0
split_feature=3 5 0 9 0 12 8 6 4 13 14 10 8 10 0 11 11 4 7 6 4 12 0 11 12 0 6 7 6 6 0
split_gain=5700.8 1736.58 802.995 536.177 452.677 316.136 312.694 284.351 244.151 191.435 124.498 115.32 97.7334 96.0066 63.5356 63.3766 66.6187 55.2013 40.4244 26.6012 18.5425 27.106 64.6781 14.7064 7.19575 4.65461 4.46094 3.1324 6.80373 2.69494 1.79991
threshold=-0.18771868972883518 -0.073431190275417127 0.076823695009424667 -0.90788005987206277 -0.1967263595761182 -0.39365650130753982 1.0000000180025095e-35 1.0000000180025095e-35 0.21729606347226096 -0.033573503317676376 -0.010073943899002897 0.0082931482680349538 -0.36486399946968229 0.0059009554860025857 0.48816145552141554 0.05094577623797264 -0.035333012694485029 0.25740140264625944 -0.11504999335255173 0.00037258760581394872 -0.046039977688357388 -0.21284560619950624 0.14873681028633265 0.06014084874542696 -0.1960964402013147 0.73200841225398638 0.0033438589738695157 -0.109405428436818 0.0030881618430353892 0.0039766368496737823 1.0000000180025095e-35
decision_type=2 2 2 2 2 2 2 2 2 2 2 2 2 2 2 2 2 2 2 2 2 2 2 2 2 2 2 2 2 2 2
left_child=4 2 5 10 9 12 7 -5 -7 18 13 -8 -2 -3 17 16 -11 -4 19 -1 27 22 -22 -12 -17 -16 -20 28 -6 -23 -29
right_child=1 3 14 6 20 8 11 -9 -10 15 23 -13 -14 -15 25 24 -18 -19 26 -21 21 29 -24 -25 -26 -27 -28 30 -30 -31 -32
leaf_value=-0.15033260759533115 0.049415724972801021 -0.11170346992411263 -0.10043632007512436 -0.099152439027994255 -0.11694405115382527 0.054299099180587812 -0.012461628764523907 0.047588840693632103 0.10424608481546044 -0.11647289015267794 -0.099109783196421067 -0.11754061990760367 -0.11334066087811924 -0.026989253884731581 -0.086204424113959954 -0.13995942126385302 0.053326493974579565 0.043908858298854672 -0.11555560199977263 -0.032194495405954648 0.0036846347569318341 -0.12403739431671476 -0.11969395469044203 -0.14507909141717126 -0.027640432354497924 -0.13060360413069794 -0.1521740458527992 -0.14464501190323201 -0.13959261245275911 -0.14483403961134272 -0.13374969421576752
leaf_weight=27.301717504858971 69.717271745204926 191.96066718548536 60.680527366697788 167.23170843720436 387.73756048083305 1588.5915849655867 1670.2078897431493 2510.5854232162237 4327.0491014122963 30.227740734815598 279.16798098385334 133.94849605113268 117.86214255541563 920.49874054640532 33.343704298138618 28.060054540634155 296.81120570749044 65.315119311213493 112.46648924797773 132.24873498827219 71.240800760686398 187.65403991192579 172.84136393666267 117.368667319417 8.9266825094819051 176.07466758787632 60.881518468260765 199.33059936016798 265.18851084262133 122.13213169574738 1858.8280790895224
leaf_count=117 747 893 312 761 2342 14989 10573 18982 56548 158 1392 658 1038 4351 182 140 2309 392 548 648 421 1103 1100 546 46 1117 294 1042 1608 704 12064
internal_value=0 0.0381091 0.0773963 -0.00411382 -0.11199 0.0864173 0.0148007 0.0384247 0.0908333 -0.0322697 -0.0602932 -0.0202632 -0.0528493 -0.0416071 -0.0867494 0.0223423 0.0376322 -0.025609 -0.0919882 -0.0524099 -0.129007 -0.11084 -0.0836832 -0.112716 -0.112851 -0.123534 -0.128416 -0.132719 -0.126143 -0.132236 -0.134805
internal_weight=0 12429.6 6438.63 5990.97 3961.88 6103.22 4481.97 2677.82 5915.64 696.924 1509 1804.16 187.579 1112.46 335.414 364.026 327.039 125.996 332.898 159.55 3264.95 553.868 244.082 396.537 36.9867 209.418 173.348 2711.08 652.926 309.786 2058.16
internal_count=138125 113481 75325 38156 24644 73322 30974 19743 71537 4260 7182 11231 1785 5244 2003 2653 2467 704 1607 765 20384 3328 1521 1938 186 1299 842 17056 3950 1807 13106
is_linear=0
shrinkage=0.108964


Tree=13
num_leaves=32
num_cat=0
split_feature=0 5 4 4 2 10 7 12 6 10 6 4 0 5 6 6 3 0 0 7 0 7 6 3 6 0 11 0 14 4 3
split_gain=4937.11 1871.18 525.545 431.888 409.466 262.481 189.204 166.621 156.581 151.2 133.587 116.481 126.88 109.352 83.4728 130.599 69.673 56.1817 20.4345 19.1666 16.8104 17.4267 13.9208 7.70397 5.36098 4.45086 5.50229 4.18864 4.18157 1.5031 0.382534
threshold=0.020961579493108961 -0.078084350788320642 -0.47809714163589706 0.021886483330395026 1.0000000180025095e-35 0.0073087208990175101 0.43666137087575191 -0.37047620854249885 0.0049401749547072103 0.0064056719202908018 0.00071451745204923476 0.21729606347226096 0.48816145552141554 0.072514403095315594 0.0032574693257715454 0.0013611996372771293 0.099613110133052338 -0.2386462109292681 -0.20412614192265133 3.2022747075345954 0.076823695009424667 -0.046988589897750059 0.0016151365678332022 0.4783420779061226 0.0014935359640234848 0.73200841225398638 0.0074681893811332526 0.38392641714013354 -0.032041395148610138 -0.16364025700397591 0.34030919724599923
decision_type=2 2 2 2 2 2 2 2 2 2 2 2 2 2 2 2 2 2 2 2 2 2 2 2 2 2 2 2 2 2 2
left_child=1 3 13 6 5 -4 7 -1 10 -6 -5 20 14 16 15 -13 -3 -8 -15 -10 21 22 -2 27 -25 26 -14 -22 -16 -23 -27
right_child=11 2 4 8 9 -7 17 -9 19 -11 -12 12 25 18 28 -17 -18 -19 -20 -21 23 29 -24 24 -26 30 -28 -29 -30 -31 -32
leaf_value=-0.11989985642467962 -0.14861965351004047 -0.085423414578301729 0.045034340981649087 -0.16966387243845787 -0.068359930644963277 -0.055409448649693195 -0.019423036860095451 0.048543672375736299 -0.22301907299572193 -0.0072068792546183926 0.096801032088665348 -0.14224361079567893 -0.045671126023674333 -0.095061600037783439 -0.072980446819989608 0.078564963620126008 -0.020988476914700828 -0.15498285980136961 -0.14423813980822617 0.034793050671388326 -0.11893058517548953 -0.133619049300464 -0.0095641716749193337 -0.14452508986434753 -0.037223828787223981 -0.13029385944887492 -0.12906546117599485 -0.13039344394193758 -0.15501582195497438 -0.083922078248880455 -0.11538408197146632
leaf_weight=74.817928403615952 10.79198135435581 316.63727808743715 2792.784092977643 22.449874900281429 723.83424941450357 347.3121383190155 65.474648915231228 1024.1681194230914 20.52158293128014 1425.2627634853125 4489.4021560698748 41.647876292467117 18.625301167368889 318.78871564567089 9.2322550714015943 134.54236236959696 537.40426799654961 81.461086802184582 146.39834819734097 4.1093361973762503 457.18344002962112 47.615404650568962 41.103485256433487 7.8817766606807735 18.515045024454594 178.12505312263966 18.952044025063515 2198.7635319679976 36.718562617897987 8.5186211019754392 23.078132301568985
leaf_count=520 58 1666 24082 119 3323 2143 414 8931 97 6546 62335 219 110 1533 44 870 3166 456 770 21 2924 303 235 46 108 1216 117 15354 198 49 152
internal_value=0 0.033106 -0.00650298 0.0783732 0.00884329 0.0339247 0.0215499 0.0370762 0.0939794 -0.0278037 0.0954752 -0.117759 -0.0670129 -0.0680309 -0.00774085 0.0263702 -0.0448778 -0.0945773 -0.110538 -0.180007 -0.126141 -0.0839979 -0.0384816 -0.127838 -0.0692627 -0.122155 -0.0877309 -0.12842 -0.138534 -0.126077 -0.128584
internal_weight=0 12390.8 6608.42 5782.4 5289.19 3140.1 1245.92 1098.99 4536.48 2149.1 4511.85 3251.29 460.922 1319.23 222.141 176.19 854.042 146.936 465.187 24.6309 2790.37 108.029 51.8955 2682.34 26.3968 238.781 37.5773 2655.95 45.9508 56.134 201.203
internal_count=138125 116122 43229 72893 36094 26225 10321 9451 62572 9869 62454 22003 2926 7135 1331 1089 4832 870 2303 118 19077 645 293 18432 154 1595 227 18278 242 352 1368
is_linear=0
shrinkage=0.108964


Tree=14
num_leaves=32
num_cat=0
split_feature=0 5 9 10 4 4 6 13 0 3 0 6 6 5 10 3 3 3 9 0 0 12 14 0 6 3 14 13 12 14 3
split_gain=4246.54 1644.92 486.055 468.206 415.857 398.811 226.488 213.415 83.7305 81.4224 68.4834 64.7367 106.543 63.8746 51.4551 50.5312 45.8784 41.0477 28.8832 23.8471 8.78039 16.8316 29.7656 4.8514 7.34529 2.80695 1.38407 0.632108 0.416701 2.98303 0.0520184
threshold=0.045937964220315645 -0.081658493988491218 -1.7896330989254066 0.0054822480541340266 -0.55145467655692315 0.23096572187255163 0.0035960625027346687 0.07143866393342109 -0.22013778053579766 -0.086446020168922263 0.48816145552141554 0.0037738090247192023 0.0020852138679440398 0.48750615680891918 0.004679087354796249 -0.23522791751704356 0.35185914952229935 0.41275672438597055 -2.6713861379787507 -0.26903999565694814 0.38392641714013354 -0.2662690707985198 0.0025609720259420188 0.73200841225398638 0.0020984316900918508 -0.44993415711512069 -0.032041395148610138 -0.0051545016854240679 -0.25336516673506432 0.0015915516792737491 -0.18771868972883518
decision_type=2 2 2 2 2 2 2 2 2 2 2 2 2 2 2 2 2 2 2 2 2 2 2 2 2 2 2 2 2 2 2
left_child=1 4 13 17 8 -5 7 -6 14 20 11 12 -11 18 -1 -15 -10 -4 -3 -8 21 22 -2 24 -12 -23 -13 -25 29 -22 -30
right_child=9 2 3 5 6 -7 19 -9 16 10 23 26 -14 15 -16 -17 -18 -19 -20 -21 28 25 -24 27 -26 -27 -28 -29 30 -31 -32
leaf_value=-0.14324077684054332 0.026657064650237112 -0.13942986933198256 -0.10443475352694027 -0.012501776179655992 0.091898390341005401 0.047137214238738734 -0.044367842918730672 -0.066604463424295685 -0.12256518738105628 -0.12751487906004441 -0.14183680582323385 -0.10277532521012188 0.042837100427556195 -0.13205940687669077 0.022209766490304539 -0.033451169192420312 0.029375348510060174 -0.043232079728820011 -0.083977453836979216 -0.18892977423420718 -0.1036358462376093 -0.12514929782302264 -0.1138588664565888 -0.12838714360918371 -0.056698458719827205 -0.099998865831987194 -0.15946498715519083 -0.11395519328516007 -0.12838754222730073 -0.12772104115484978 -0.13220511195313561
leaf_weight=24.29329489171505 27.526501074433327 204.41107848286629 409.23177245259285 2732.5151607915759 4602.667238034308 2596.1006033867598 22.575893692672253 103.11818968504667 116.73298372328281 62.973616629838943 18.810593545436859 5.8537852913141242 141.62148582190275 74.595938988029957 274.47322268038988 356.95205190777779 29.572713911533356 190.75974863767624 245.42348199337721 33.882140636444092 68.406542375683784 284.58027227222919 51.175264090299606 145.57581190764904 33.385215133428574 64.658173054456711 40.431649893522263 47.886196985840797 1316.5730404853821 568.10794794559479 43.787964522838593
leaf_count=147 176 961 2160 17246 65762 21802 174 945 701 321 111 27 861 424 2218 1505 244 1029 1149 192 521 2102 354 1038 194 406 203 355 10137 4354 306
internal_value=0 0.030307 -0.00494508 0.00627916 0.0764087 0.0165543 0.0858223 0.0884251 -0.0243163 -0.116166 -0.0759666 -0.0359234 -0.00959661 -0.0804448 0.00875666 -0.0504963 -0.0918535 -0.0849761 -0.109176 -0.131124 -0.124398 -0.110234 -0.0647124 -0.116861 -0.0873811 -0.120493 -0.152295 -0.124815 -0.127434 -0.125133 -0.12851
internal_weight=0 12017.3 6809.99 5928.61 5207.32 5328.62 4762.24 4705.79 445.072 2921.35 496.538 250.881 204.595 881.383 298.767 431.548 146.306 599.992 449.835 56.458 2424.82 427.94 78.7018 245.658 52.1958 349.238 46.2854 193.462 1996.88 636.514 1360.36
internal_count=138125 116659 46276 42237 70383 39048 67073 66707 3310 21466 3110 1412 1182 4039 2365 1929 945 3189 2110 366 18356 3038 530 1698 305 2508 230 1393 15318 4875 10443
is_linear=0
shrinkage=0.108964


Tree=15
num_leaves=32
num_cat=0
split_feature=3 2 4 13 6 6 0 6 10 9 10 12 6 6 12 9 2 4 7 0 6 0 13 6 6 7 13 12 0 0 0
split_gain=3692.89 1218.74 808.798 326.04 327.981 293.261 271.274 268.136 160.347 102.181 101.85 95.9388 49.0632 55.5486 42.7963 40.9645 23.202 23.018 19.6255 29.9874 41.7782 19.1124 15.3788 10.9507 10.7992 10.3253 5.68363 1.17297 6.86881 2.69514 0.848348
threshold=-0.26401378164587436 1.0000000180025095e-35 0.29283963280840986 0.033875078428346229 0.0013611996372771293 0.0046101981737517042 -0.22222496747676371 0.0011808989988759038 0.0059009554860025857 -2.6713861379787507 0.0095772899134050071 1.0000000180025095e-35 0.0042687358210873544 0.0016986527336948609 0.50196216857496112 1.0000000180025095e-35 2.4077313698667284 0.35474493956168279 -0.063025393243668917 0.38392641714013354 0.0033438589738695157 -0.15369670990026776 -0.018929274661681216 0.0017688627081615573 0.0028822785527579655 -0.43476386320583804 -0.022386589017863914 -0.11105665904109298 -0.12876196924644553 -0.018705160521995903 1.0007912691400096
decision_type=2 2 2 2 2 2 2 2 2 2 2 2 2 2 2 2 2 2 2 2 2 2 2 2 2 2 2 2 2 2 2
left_child=6 2 3 4 -2 7 11 -4 16 14 -11 12 13 -1 -10 -5 21 24 19 20 -8 -3 -18 -19 -13 -7 -14 28 -20 -29 -21
right_child=1 8 5 15 -6 25 18 -9 9 10 -12 17 26 -15 -16 -17 22 23 27 30 -22 -23 -24 -25 -26 -27 -28 29 -30 -31 -32
leaf_value=-0.10017721772800703 -0.12542128333924898 -0.05161811619953479 -0.11446135303729807 -0.13735127154117305 0.029821400388192094 -0.036523056994505781 -0.051240810870494473 0.0877612718422007 -0.10917391458113024 0.0022217337974848764 -0.065901567939901928 -0.082534748112744444 -0.16334149813431689 0.043909642565932536 -0.026702818744941171 -0.051414618378254666 -0.12900304424660017 -0.097906241647038039 -0.078662586657781031 -0.11569785163088575 -0.13788555030091942 -0.11484006659891886 -0.071438852570852085 0.051217228813537546 -0.13914773030522862 -0.15760888283667457 -0.057404120956133599 -0.14217147445620151 -0.12495209982005653 -0.12589634378708772 -0.12605226562098423
leaf_weight=36.973010092973709 170.17952391132712 300.7289499938488 79.1938381716609 160.24457369744778 3197.8052133060992 9.7140817120671255 209.97552447766066 4587.3235100544989 183.95453307777643 1673.608720138669 308.62612994760275 101.74621715396643 18.677300110459331 225.64762564748526 125.79624316096306 111.81230911239982 146.37482319027185 8.5791069865226763 39.909259252250195 135.58000898361206 96.411898203194141 69.985224388539791 88.371763505041599 18.357242532074451 65.92758072912693 60.044870190322399 8.8679264709353429 142.60518802702427 821.78946182876825 790.36877658218145 305.95008033514023
leaf_count=184 1037 1448 521 1088 29186 59 1289 66737 855 9367 1380 503 86 1765 542 854 790 38 215 1116 586 392 522 85 338 344 43 840 6766 6614 2535
internal_value=0 0.0302603 0.0513312 0.0127087 0.0219772 0.0810143 -0.105284 0.0843294 -0.0306542 -0.0174795 -0.00838479 -0.0305844 0.00911348 0.0236244 -0.0756807 -0.102032 -0.0805273 -0.0897744 -0.119527 -0.104698 -0.0785056 -0.0635535 -0.107333 0.00372207 -0.104794 -0.140747 -0.129236 -0.125707 -0.122808 -0.128384 -0.122873
internal_weight=0 11273.8 8376.32 3640.04 3367.98 4736.28 3027.37 4666.52 2897.45 2291.99 1982.23 484.776 290.166 262.621 309.751 272.057 605.461 194.61 2542.59 747.918 306.387 370.714 234.747 26.9363 167.674 69.759 27.5452 1794.67 861.699 932.974 441.53
internal_count=138125 115122 99826 32165 30223 67661 23003 67258 15296 12144 10747 3042 2078 1949 1397 1942 3152 964 19961 5526 1875 1840 1312 123 841 403 129 14435 6981 7454 3651
is_linear=0
shrinkage=0.108964


Tree=16
num_leaves=32
num_cat=0
split_feature=0 5 14 5 7 6 11 11 4 11 11 4 0 0 10 10 5 8 3 13 3 14 0 7 7 14 0 3 4 5 3
split_gain=3231.02 1355.83 403.549 432.936 325.401 324.229 235.352 206.754 148.602 110.379 161 59.6603 71.2929 54.4314 48.956 46.8419 27.757 23.8357 22.3873 22.1586 7.81361 7.33762 6.10295 11.4001 4.92331 5.07726 3.37058 4.62328 0.753963 0.634768 0.438613
threshold=0.076823695009424667 -0.087158800234638414 -0.0083427419315573285 0.072514403095315594 0.43666137087575191 1.0000000180025095e-35 -0.046357796492900415 0.049118370076655933 -0.12209554035465463 -0.041358612437523763 0.038106762106572885 0.21729606347226096 0.5485538855394706 -0.26385123352355155 0.0070598661682810988 0.0057893002829020801 -0.0747983355256399 1.7109305200994547 0.19467554031799533 -0.028690826460682866 0.4783420779061226 -0.03130786152009786 0.38392641714013354 0.38579225673232936 -0.010164817675646035 -0.0013116969456940949 0.73200841225398638 0.13516252521597868 -0.10815901750633851 -0.062449127216441878 0.34030919724599923
decision_type=2 2 2 2 2 2 2 2 2 2 2 2 2 2 2 2 2 2 2 2 2 2 2 2 2 2 2 2 2 2 2
left_child=1 4 3 5 6 -3 19 -8 -5 16 -11 20 14 17 15 -13 -4 -6 -15 -1 22 -16 23 -2 25 -22 27 -14 -24 -26 -28
right_child=11 2 9 8 13 -7 7 -9 -10 10 -12 12 26 18 21 -17 -18 -19 -20 -21 24 -23 28 -25 29 -27 30 -29 -30 -31 -32
leaf_value=-0.027819000524106755 -0.087404531255275683 -0.1376341698548168 -0.27853672434781063 -0.076183947818793327 0.021915204357811247 0.040721521136508405 0.087317891151428698 -0.078067200015732571 -0.011127849870680615 -0.013285098015501168 -0.098798315370646303 -0.11066875701104982 -0.113167432513192 -0.13264039151779039 -0.019343057417389172 0.065276509451082543 -0.10980764232551497 -0.22337563625302312 -0.006119061556672762 -0.21858001602475202 0.023490219136338562 -0.13539713627615627 -0.12375917493475605 -0.12546246352153703 -0.093092125700365083 -0.10956531413792243 -0.1227524666804314 -0.014878962223474058 -0.11658475776987345 -0.15235950783992055 -0.10509604497310529
leaf_weight=9.2944541797041875 176.3847062587738 125.65774187445641 12.12717581540346 569.33689317107201 74.392536275088787 3275.6873976513743 3949.4655169583857 91.834670711308718 1556.7916503101587 834.38842061161995 380.67204384505749 23.008472211658955 15.537445336580278 95.783499289304018 8.0138727799057943 81.969869308173656 254.64966498315334 5.0210273787379256 20.087221492081881 32.545933656394482 10.271387621760367 33.541295111179352 1498.9481063634157 198.75033496320248 4.1654420346021652 5.0936829522252109 139.98245649784803 8.9580787569284421 196.74311243742704 4.424727223813532 18.968272492289543
leaf_count=79 1239 637 92 2956 759 29314 62725 825 7841 7272 2237 147 129 625 45 544 1330 36 206 262 62 213 13642 1685 28 36 1216 51 1712 28 152
internal_value=0 0.0259894 -0.00351489 0.0100223 0.074326 0.0341324 0.0808978 0.0835597 -0.0285486 -0.0540107 -0.0400759 -0.112645 -0.069581 -0.063082 -0.0129119 0.026714 -0.117478 0.00640637 -0.110707 -0.176204 -0.119429 -0.113016 -0.120144 -0.107568 -0.0575545 -0.0206191 -0.114847 -0.0772231 -0.122927 -0.12362 -0.120645
internal_weight=0 11287.7 7009.31 5527.47 4278.42 3401.35 4083.14 4041.3 2126.13 1481.84 1215.06 2424.76 329.98 195.284 146.534 104.978 266.777 79.4136 115.871 41.8404 2094.78 41.5552 2070.83 375.135 23.9552 15.3651 183.446 24.4955 1695.69 8.59017 158.951
internal_count=138125 117196 51679 40748 65517 29951 63891 63550 10797 10931 9509 20929 2497 1626 949 691 1422 795 831 341 18432 258 18278 2924 154 98 1548 180 15354 56 1368
is_linear=0
shrinkage=0.108964


Tree=17
num_leaves=31
num_cat=0
split_feature=3 5 0 10 10 14 10 0 12 14 11 6 6 14 9 10 7 5 1 7 0 12 5 4 0 6 0 12 4 0
split_gain=2800.35 991.57 493.218 376.592 391.748 360.725 195.458 182.161 98.164 84.6136 82.9516 66.9153 119.013 51.4642 50.7714 59.1533 48.8289 45.5687 42.0587 10.4423 15.7771 25.5261 7.3606 6.81422 4.74585 4.45404 1.0869 9.54242 1.00464 0.878782
threshold=-0.3297045888388998 -0.089760486462653971 0.076823695009424667 0.0057893002829020801 0.0077447866621644388 -0.0083427419315573285 0.0058585949214337582 -0.1967263595761182 -0.38199380066756217 -0.029162863003016595 -0.039153252828993311 0.0032574693257715454 0.0016986527336948609 0.014810984373392337 -0.90788005987206277 0.0048195302324176102 0.060775098337461496 -0.0032008745590787779 1.0000000180025095e-35 -0.078081492519658707 0.38392641714013354 -0.21284560619950624 -0.11774989452958463 0.36429128060816829 0.24143873357272624 0.00097298153167503715 -0.16530696521721924 -0.25509149625869959 0.57268786137679373 -0.16173256282392848
decision_type=2 2 2 2 2 2 2 2 2 2 2 2 2 2 2 2 2 2 2 2 2 2 2 2 2 2 2 2 2 2
left_child=7 2 6 14 5 -5 10 11 -8 -6 -2 12 25 16 17 -16 -4 -3 -14 20 21 -9 -13 -24 -15 -1 27 -21 -22 -28
right_child=1 3 13 4 9 -7 8 19 -10 -11 -12 22 18 24 15 -17 -18 -19 -20 26 28 -23 23 -25 -26 -27 29 -29 -30 -31
leaf_value=-0.12080696475264134 -0.23951187414107364 -0.1955808232161135 0.014423863642456375 0.042881532104484102 -0.019904039827915818 -0.027504826036517539 -0.01432278118741313 -0.033503080055139536 0.092529664579287713 -0.07978261817797995 0.015342175585831747 0.096481527888313962 -0.090449690951225598 -0.2107739036951948 -0.08644038472042237 -0.023551385673860569 -0.11365880354609043 -0.079498731456448091 0.043947911506358218 0.041958838341981032 -0.11972775845209088 -0.10857969528854432 -0.12794157889989147 -0.043018328427473704 -0.12471024543147588 -0.063279447571070971 -0.17516719026708411 -0.12573518800891781 -0.079109869216098722 -0.12164193103962195
leaf_weight=91.052149131894112 15.870316877961157 50.004150196909904 95.000177532434464 3515.5429663360119 653.24018943682313 1146.3999092690647 105.5376382805407 82.585050597786903 3117.0017396137118 490.6492878831923 340.55939039960504 1.932767018675803 31.897330276668072 8.2209869623184186 277.39895150065422 493.49372962489724 56.272244945168495 203.77027688920498 207.43524328246713 4.7019479200243941 339.93498107045889 154.10542547702789 96.203455306589603 12.699095487594603 101.92819450050592 19.380915999412537 3.6512578576803199 28.14591459184885 7.3871424645185462 1418.9738472402096
leaf_count=489 113 279 702 31286 2998 9588 1303 518 55410 2758 4218 11 178 50 1448 3631 461 1085 1540 25 3377 1033 517 60 886 102 23 170 72 13794
internal_value=0 0.0257101 0.0700079 0.000804139 0.0115527 0.0255731 0.0805616 -0.10241 0.0890303 -0.0455878 0.0039946 -0.0405191 -0.0171398 -0.0744767 -0.0600978 -0.0461814 -0.033222 -0.102372 0.0260359 -0.116388 -0.104079 -0.0823843 -0.114298 -0.118039 -0.131134 -0.110711 -0.121327 -0.101731 -0.118864 -0.121779
internal_weight=0 10670.9 3840.39 6830.5 5805.83 4661.94 3578.97 2500.09 3222.54 1143.89 356.43 460.601 349.766 261.422 1024.67 770.893 151.272 253.774 239.333 2039.49 584.013 236.69 110.835 108.903 110.149 110.433 1455.47 32.8479 347.322 1422.63
internal_count=138125 116216 63143 53073 46630 40874 61044 21909 56713 5756 4331 2897 2309 2099 6443 5079 1163 1364 1718 19012 5000 1551 588 577 936 591 14012 195 3449 13817
is_linear=0
shrinkage=0.108964


Tree=18
num_leaves=32
num_cat=0
split_feature=0 5 8 5 11 3 4 13 14 7 11 6 6 10 6 6 12 0 7 6 10 12 5 6 6 0 7 0 12 14 3
split_gain=2442.09 1010.1 365.329 248.935 275.192 227.248 189.894 187.779 153.023 123.229 93.3946 88.0125 126.189 74.4162 74.1775 53.1883 56.0192 19.2809 36.1789 42.5992 17.6987 13.4114 10.9501 3.53589 14.735 3.28878 2.44879 1.52182 0.602143 4.9577 0.103469
threshold=-0.073637347028242386 -0.093660933389029227 -0.88381262936196647 0.029039674247666288 -0.087152107563726586 -0.086446020168922263 -0.20996357806801555 -0.056504692787704751 -0.022817746602412002 0.15696450197428244 -0.056326417454433543 0.0037738090247192023 0.0020569398448349475 0.0058585949214337582 -0.00090973864619215263 0.0049401749547072103 -0.36573938206974937 0.38392641714013354 0.12890434000055795 0.0031320268023185597 0.015660985482567075 1.2732816735934112 -0.11019843451107229 0.0028991406629637396 0.0019477613348785501 1.0000000180025095e-35 1.446017232892147 -0.018705160521995903 -0.2895926991230075 0.0015915516792737491 -0.26401378164587436
decision_type=2 2 2 2 2 2 2 2 2 2 2 2 2 2 2 2 2 2 2 2 2 2 2 2 2 2 2 2 2 2 2
left_child=1 6 7 4 -4 17 15 20 -5 11 22 12 -7 -12 -9 16 -1 18 19 -2 -3 -13 -8 24 -11 -25 -17 -20 29 -19 -30
right_child=5 2 3 8 -6 9 10 14 -10 23 13 21 -14 -15 -16 26 -18 28 27 -21 -22 -23 -24 25 -26 -27 -28 -29 30 -31 -32
leaf_value=-0.10107864529579827 -0.027542186021575422 -0.037397317547493564 -0.13552755140746831 -0.015481801537350027 0.015848008589985332 -0.096015914704567135 -0.29876752582948657 -0.084325334939915134 -0.074704271066112299 -0.14118993241346003 0.027102519071319362 -0.14843764773150686 0.036193678345848239 0.095280284732644396 0.084569166105709262 -0.19148241130029406 0.032343247522000566 -0.071317691157349233 -0.13786473685642517 -0.12959696052769726 -0.13623426448455811 -0.042898032904851134 -0.10887402517856669 -0.20281180084953587 -0.053104313286351443 -0.13122107505038094 -0.1048869262849234 -0.11644976249662266 -0.12022757673707292 -0.11916938204456871 -0.1246969423023606
leaf_weight=41.395735666155815 147.48533677309752 115.27970708906651 148.68918128311634 1467.1965640708804 3475.7476641088724 113.95010848343372 5.337254315614703 31.970971748232841 800.73196512460709 59.627719722688198 206.17665230855346 58.029200859367847 345.93057314306498 2435.2577145583928 900.48561944440007 13.615779899060728 383.56343390792608 28.011174269020557 47.259313467890024 72.401465944945812 26.446170225739479 18.968796797096729 11.111662335693834 8.6609763056039792 36.258820697665215 63.311914026737213 5.4209228157997122 236.8988201841712 981.77401815354824 312.48842450231314 65.611157722771168
leaf_count=255 1027 517 863 7732 32935 774 39 148 4176 473 2971 404 3119 49124 10078 65 3732 299 344 576 113 103 82 39 252 488 30 2348 10965 3445 609
internal_value=0 0.0256052 0.00257553 -0.00807838 0.00963797 -0.0929108 0.0773277 0.0610169 -0.0363913 -0.0400953 0.0883468 -0.0146178 0.00343453 0.0899587 0.0787783 0.0113643 0.0193465 -0.112584 -0.0943314 -0.0611455 -0.0558404 -0.122437 -0.17049 -0.121582 -0.107881 -0.139836 -0.166823 -0.120011 -0.119213 -0.115233 -0.120508
internal_weight=0 10068.4 6966.55 5892.37 3624.44 2596.67 3101.88 1074.18 2267.93 704.738 2657.88 536.879 459.881 2641.43 932.457 443.996 424.959 1891.93 504.045 219.887 141.726 76.998 16.4489 167.859 95.8865 71.9729 19.0367 284.158 1387.88 340.5 1047.39
internal_count=138125 112860 56562 45706 33798 25265 56298 10856 11908 5652 52216 4400 3893 52095 10226 4082 3987 19613 4295 1603 630 507 121 1252 725 527 95 2692 15318 3744 11574
is_linear=0
shrinkage=0.108964


Tree=19
num_leaves=32
num_cat=0
split_feature=3 4 5 6 11 11 10 10 0 14 14 14 7 6 6 0 5 6 12 14 14 7 0 6 7 3 3 0 12 4 6
split_gain=2131.22 768.026 505.898 243.161 240.352 262.108 224.218 228.381 158.601 125.999 217.581 92.9969 60.6454 42.4564 57.7638 38.9789 29.1639 27.6604 13.073 14.2317 12.4629 11.1238 16.055 24.5195 9.86561 4.47291 2.41529 1.243 9.39417 0.886348 0.79817
threshold=-0.3297045888388998 0.25104455464072983 -0.037951193928302929 0.0035960625027346687 0.057506250214031503 -0.0371436975185402 0.0071939161520704403 0.0058585949214337582 -0.18845058814231191 -0.034452688810628095 -0.018590790610106621 -0.023997158221350016 -0.019864041417201109 0.0039766368496737823 0.0014935359640234848 -0.25262787231320155 -0.093660933389029227 0.011651671872939499 0.14460667544600378 -0.00058357675377250008 -0.029523003038869015 -0.07110408252999674 0.48816145552141554 0.0014935359640234848 0.2563057305363915 0.31334550427435054 -0.44993415711512069 -0.16530696521721924 -0.25509149625869959 0.62317314080068742 0.0030485185886231707
decision_type=2 2 2 2 2 2 2 2 2 2 2 2 2 2 2 2 2 2 2 2 2 2 2 2 2 2 2 2 2 2 2
left_child=8 3 6 4 5 -2 7 -3 12 17 -11 -6 13 14 -1 24 -8 -4 19 -14 -15 22 23 -10 -5 -17 -20 28 -23 -24 -29
right_child=1 2 9 15 11 -7 16 -9 21 10 -12 -13 18 20 -16 25 -18 -19 26 -21 -22 27 29 -25 -26 -27 -28 30 -30 -31 -32
leaf_value=-0.10185815756684066 -0.043710829394978112 -0.014196847839424031 -0.027685203744473433 -0.032946523511941488 -0.017648340954339294 0.025463653388201703 0.000497902965073988 0.08988978814889266 -0.13171144957396674 0.05260283099278338 -0.04210644148819289 -0.093208222930242599 -0.039060232551759978 -0.023210556599631213 0.043741986519948733 -0.13811908309307772 -0.10132963562378876 -0.10231431648297667 -0.12431134305489802 -0.12285658133030308 -0.14995121974898595 0.07425713687785776 -0.11711171397267468 -0.054357908360864626 -0.10445390388198107 -0.096081164189829593 -0.060437940764476686 -0.11574080194291292 -0.12171041050870354 -0.064876193331626697 -0.12145746445344288
leaf_weight=39.954697534441948 857.95093472674489 272.88428726792336 519.14860181510448 86.934864848852158 360.66349419951439 2687.7885709479451 56.049472384154797 3022.0460015274584 69.319976814091206 960.6761908531189 411.31416112929583 417.00391983985901 89.881204124540091 14.146110266447065 170.00695189461112 166.4018505141139 82.621150575578213 66.522292867302895 72.252460032701492 32.862423982471228 26.410344280302525 3.410673230886462 269.62135579437017 163.19460201263428 31.10397008061409 36.675305068492889 7.7864810749888411 671.52002357691526 19.565334312617779 3.9128418117761603 510.38274551182985
leaf_count=202 5054 3603 2731 420 2065 26478 995 60422 537 6827 2568 2313 536 69 1334 1245 843 292 465 208 130 19 3244 1182 150 210 43 7780 127 45 5988
internal_value=0 0.0223754 0.0503536 -0.010101 -0.00330622 0.00872573 0.0755571 0.0812694 -0.0968444 0.00614835 0.0242096 -0.0581654 -0.0395376 -0.00367986 0.016035 -0.101584 -0.0601718 -0.0361618 -0.0838363 -0.0614952 -0.105744 -0.112027 -0.0984704 -0.0774195 -0.0517892 -0.130527 -0.118098 -0.117721 -0.09262 -0.116364 -0.118209
internal_weight=0 10035.8 5391.26 4644.52 4323.41 3545.74 3433.6 3294.93 2164.23 1957.66 1371.99 777.667 453.301 250.518 209.962 321.116 138.671 585.671 202.783 122.744 40.5565 1710.93 506.049 232.515 118.039 203.077 80.0389 1204.88 22.976 273.534 1181.9
internal_count=138125 116216 78281 37935 35910 31532 65863 64025 21909 12418 9395 4378 2987 1735 1536 2025 1838 3023 1252 744 199 18922 5008 1719 570 1455 508 13914 146 3289 13768
is_linear=0
shrinkage=0.108964


Tree=20
num_leaves=32
num_cat=0
split_feature=0 5 4 6 6 14 14 7 12 11 0 4 12 6 6 6 0 6 7 3 13 3 3 6 6 14 13 14 8 0 0
split_gain=1885.49 816.061 317.063 225.721 224.694 197.949 212.016 184.026 148.798 146.198 54.6572 66.1034 36.0924 35.1956 57.6981 31.583 30.4493 17.8668 16.7459 21.473 14.2541 11.8198 4.29904 4.57368 17.9984 2.65886 1.05917 9.97161 0.477237 0.248081 0.0209968
threshold=0.076823695009424667 -0.093660933389029227 0.25740140264625944 0.0014935359640234848 0.0033438589738695157 -0.033532091066202613 -0.0041526974996678187 0.2563057305363915 -0.37319259445749792 0.093044384545621514 0.48816145552141554 0.21729606347226096 -0.070210846852012093 0.0030154901721004689 0.0018258671618207576 0.011651671872939499 -0.21568495152934455 0.0049401749547072103 0.38579225673232936 -0.5872967451986798 -0.028690826460682866 -0.21101285104725498 0.33147158174607638 0.0027653712833693748 0.0020569398448349475 -0.030933672263252412 0.0062363164426906242 0.010564792954874967 -0.88381262936196647 0.60892343476482347 0.60892343476482347
decision_type=2 2 2 2 2 2 2 2 2 2 2 2 2 2 2 2 2 2 2 2 2 2 2 2 2 2 2 2 2 2 2
left_child=1 3 7 16 8 15 -7 9 -5 -3 11 18 -9 14 -13 -4 20 -6 19 -2 -1 -18 26 24 -24 -15 29 -28 -20 -12 -25
right_child=10 2 5 4 17 6 -8 12 -10 -11 22 13 -14 25 -16 -17 21 -19 28 -21 -22 -23 23 30 -26 -27 27 -29 -30 -31 -32
leaf_value=-0.16380692614384218 -0.1123499336041658 -0.0031716295048727092 -0.018124178938493593 -0.024806784178916061 -0.045729301189374308 0.054857195500005354 -0.026656897526524788 -0.041095679997906372 0.084464745557107868 -0.065552832705300643 -0.11166218800491914 -0.11036345201938939 -0.10717209650122284 -0.038893979045128972 0.079882386601664079 -0.094790617966960852 -0.14739321440294975 -0.1526082061412444 -0.0916051505626191 -0.038704884960847584 -0.0039324771311371005 -0.27712452407977411 -0.12592843205318682 -0.13540622810820321 0.052140330472034875 -0.12738043775458743 -0.019746323498415923 -0.11645178159576808 -0.11933686154720502 -0.11802716120546133 -0.12417430692147874
leaf_weight=9.0659666173160058 86.376894526183605 2954.3562415316701 634.38854572176933 156.93087789043784 30.893333312124014 2019.900648329407 466.30836638063192 143.40311868861318 2588.446702349931 525.39036046713591 78.568629078567028 26.001344732940197 311.01871958374977 4.9045598953962353 69.572187915444374 70.930889055132866 25.822762817144394 46.556557521224022 7.6826856583356848 103.13571144640446 24.554811168462038 12.314978722482918 16.913819581270221 2.2649061977863338 11.203483536839483 22.658920347690582 13.871148556470869 144.96410655975342 179.821876257658 974.15835402160883 15.496769562363623
leaf_count=50 976 21226 3763 2027 325 23095 5005 963 54884 2702 959 197 2099 31 495 311 190 272 96 687 216 68 159 15 72 179 166 1861 2172 12715 149
internal_value=0 0.0194145 -0.000404498 0.0682037 0.0730551 0.0251147 0.0395686 -0.0211066 0.0782186 -0.0125903 -0.102942 -0.0724747 -0.0863202 -0.00315963 0.0281249 -0.0258342 -0.122641 -0.109976 -0.0951136 -0.0722712 -0.0470432 -0.189284 -0.115061 -0.0823201 -0.054976 -0.111635 -0.116301 -0.108006 -0.118201 -0.117552 -0.125607
internal_weight=0 10020.3 7125.7 2894.59 2822.83 3191.53 2486.21 3934.17 2745.38 3479.75 1757.6 500.154 454.422 123.137 95.5735 705.319 71.7585 77.4499 377.017 189.513 33.6208 38.1377 1257.44 45.879 28.1173 27.5635 1211.56 158.835 187.505 1052.73 17.7617
internal_count=138125 117196 59164 58032 57508 32174 28100 26990 56911 23928 20929 4833 3062 902 692 4074 524 597 3931 1663 266 258 16096 395 231 210 15701 2027 2268 13674 164
is_linear=0
shrinkage=0.108964


Tree=21
num_leaves=32
num_cat=0
split_feature=0 5 2 6 6 4 6 6 6 6 0 0 7 6 6 7 6 10 0 3 6 6 3 13 8 9 13 14 3 0 0
split_gain=1634.54 708.685 302.692 297.1 305.055 208.976 77.8129 74.3318 70.084 77.0516 68.3583 55.0401 58.3461 50.5963 103.299 26.862 19.4712 21.5206 5.36397 4.56239 4.40666 15.8674 3.5867 2.85872 2.15408 3.07262 1.14027 9.8677 0.683691 0.296938 0.0143431
threshold=0.076823695009424667 -0.093660933389029227 2.4077313698667284 0.0042687358210873544 0.00097298153167503715 0.021886483330395026 0.0018748226587684015 0.0046101981737517042 0.00097298153167503715 0.0031320268023185597 -0.22599249870512339 0.48816145552141554 0.38579225673232936 0.0016986527336948609 0.0030485185886231707 -0.40953150086922446 0.0035960625027346687 0.0061770433797679368 -0.21785591103025828 0.33147158174607638 0.0027653712833693748 0.0020569398448349475 0.49101103454113276 -0.03678381911630374 -0.88381262936196647 1.0000000180025095e-35 0.0062363164426906242 0.012652459281648395 0.46599247085536083 0.60892343476482347 0.60892343476482347
decision_type=2 2 2 2 2 2 2 2 2 2 2 2 2 2 2 2 2 2 2 2 2 2 2 2 2 2 2 2 2 2 2
left_child=1 5 3 4 -3 8 15 -8 18 -10 -5 12 13 22 -15 -7 17 -4 -1 26 21 -21 -2 -18 25 -14 29 -28 -26 -13 -22
right_child=11 2 16 10 -6 6 7 -9 9 -11 -12 19 24 14 -16 -17 23 -19 -20 20 30 -23 -24 -25 28 -27 27 -29 -30 -31 -32
leaf_value=-0.080172729236176132 -0.12133702594363077 -0.062849053354266313 -0.077641891630568491 -0.040171987423761983 0.023884697684628146 0.046665238126675779 0.087179464781885263 -0.14304597947992137 0.032787698712882563 -0.098535461680679712 -0.12216495220905732 -0.1094950454137955 -0.12051175339941193 0.04699426746818286 -0.11303045601631184 -0.13448792618525343 -0.13090440086145583 -0.041535521323763473 -0.165400574950688 -0.12399575022493332 -0.13210956324005552 0.045238582969800885 0.0034801958544373639 -0.078685074398572599 -0.1195298205695039 0.0049788968516764091 -0.024224080950963487 -0.11575273503928186 -0.070650148848672809 -0.11678307375461933 -0.12241386100743104
leaf_weight=14.043397597968577 69.082263946533203 531.77063210308552 301.89334669709206 324.96589392051101 5089.5157751962543 15.649347454309462 2000.2062919810414 16.790411412715912 556.84659098833799 58.632652200758457 192.08685648441315 71.774864785373211 5.242841921746729 133.55136436969042 74.674702204763889 25.645056016743183 46.214594125747681 558.75808227807283 23.338829696178436 15.390837058424951 2.0789008885622051 11.487838469445704 2.8460469096899024 17.035465732216835 176.34741605073214 4.1505289152264595 15.677857689559458 129.52263310924172 3.4642956033349028 882.37701034545898 14.085571289062498
leaf_count=74 676 2743 1686 1535 48654 290 50169 89 6515 407 1137 959 67 951 755 311 288 3016 177 159 15 72 16 105 2299 47 193 1834 22 12715 149
internal_value=0 0.0178374 -0.000342462 0.00840935 0.0156797 0.0651939 0.0822315 0.085263 0.011479 0.0202774 -0.0706327 -0.100597 -0.0691823 -0.0376103 -0.0103943 -0.0658363 -0.0584889 -0.0542007 -0.133383 -0.113503 -0.0787028 -0.0516657 -0.116398 -0.11684 -0.115931 -0.0650628 -0.114866 -0.10587 -0.118588 -0.116235 -0.123661
internal_weight=0 9773.39 7062.24 6138.34 5621.29 2711.15 2058.29 2017 652.861 615.479 517.053 1611.75 469.359 280.154 208.226 41.2944 923.901 860.651 37.3822 1142.4 43.0431 26.8787 71.9283 63.2501 189.205 9.39337 1099.35 145.2 179.812 954.152 16.1645
internal_count=138125 117196 59164 54069 51397 58032 50859 50258 7173 6922 2672 20929 4833 2398 1706 601 5095 4702 251 16096 395 231 692 393 2435 114 15701 2027 2321 13674 164
is_linear=0
shrinkage=0.108964


Tree=22
num_leaves=32
num_cat=0
split_feature=0 4 5 7 12 2 1 10 6 6 0 0 4 9 14 12 8 3 7 3 12 9 3 6 6 3 13 14 3 0 0
split_gain=1418.13 635.226 380.489 230.36 235.776 253.634 142.629 135.099 86.462 85.4727 58.3375 55.0984 55.0968 32.5009 30.1141 50.0213 27.6638 24.7914 16.8015 20.3506 14.3687 13.054 4.80151 4.24735 14.0525 3.94395 1.22858 9.78566 0.628124 0.34958 0.0098637
threshold=0.076823695009424667 0.35474493956168279 -0.030398094717174022 0.2563057305363915 -0.37575422270989328 2.4077313698667284 1.0000000180025095e-35 0.0070598661682810988 -0.0025864729870801579 0.0053855528050653053 -0.26903999565694814 0.48816145552141554 0.21729606347226096 1.0000000180025095e-35 0.0074382117552160279 -0.17616842074449338 2.229879149991739 0.36907712998106207 0.38579225673232936 -0.5872967451986798 0.029862631295316633 1.0000000180025095e-35 0.33147158174607638 0.0027653712833693748 0.0020569398448349475 0.51339837966043012 0.0062363164426906242 0.012652459281648395 0.46599247085536083 0.60892343476482347 0.60892343476482347
decision_type=2 2 2 2 2 2 2 2 2 2 2 2 2 2 2 2 2 2 2 2 2 2 2 2 2 2 2 2 2 2 2
left_child=1 3 6 4 13 -6 21 -8 17 -10 16 12 18 -1 15 -14 -5 -4 19 -2 -12 -3 26 24 -24 -16 29 -28 -20 -13 -25
right_child=11 2 8 10 5 -7 7 -9 9 -11 20 22 14 -15 25 -17 -18 -19 28 -21 -22 -23 23 30 -26 -27 27 -29 -30 -31 -32
leaf_value=-0.10622770247187271 -0.10874916893711138 -0.087048240936221988 -0.12914959377497415 -0.020025649486034604 0.017940479577412946 -0.054109212370709481 0.084697175039209899 -0.029982323869279598 0.02560950562052668 -0.050962436644704782 -0.079084328750770871 -0.10738328799920747 0.10183966928714924 -0.042107445215942542 -0.13325075211869072 -0.058901220791226457 -0.16657772911307347 -0.036233920729159527 -0.11571960756796668 -0.032999017733684549 -0.12324571805958821 -0.26512399174538559 -0.1223038017398225 -0.12928576618510915 0.0394144727924296 0.019529697691402934 -0.022034608580538427 -0.11448099207631365 -0.063541611919719826 -0.11566015777732329 -0.12087671991939913
leaf_weight=238.04811454936862 73.456751614809036 44.906358014792204 59.644044980406761 218.24610593914986 3836.1362070851028 683.45767972618341 2349.5401905179024 128.64488307759166 1154.0194707885385 203.62099944800138 180.37189183011651 65.560994032770395 48.912326917052269 154.9512802362442 19.134298808872703 43.365389734506607 16.445273078978062 79.592279985547066 152.22685322165489 98.67238087952137 169.85229429602623 5.4845294430851927 13.982170891016724 1.9027025252580632 11.733263731002806 2.2410939633846274 15.375766195356844 117.36982663348317 2.7894555181264868 798.53812568262219 12.783048905432222
leaf_count=1555 976 434 269 1566 37823 3952 56370 2016 7844 910 1383 959 393 1243 141 350 113 343 2250 687 1333 42 159 15 72 18 193 1834 18 12715 149
internal_value=0 0.0163909 0.0492787 -0.00769062 5.87464e-06 0.00704505 0.0750538 0.0787441 0.00573855 0.0141251 -0.072332 -0.0983256 -0.0660535 -0.0809465 -0.000694667 0.0263004 -0.0302948 -0.0760358 -0.0887597 -0.0653257 -0.100502 -0.10643 -0.11204 -0.0752151 -0.0485161 -0.117233 -0.113533 -0.103773 -0.114781 -0.115032 -0.121966
internal_weight=0 9522.96 4025.45 5497.51 4912.59 4519.59 2528.58 2478.19 1496.88 1357.64 584.916 1478.04 440.799 392.999 113.653 92.2777 234.691 139.236 327.145 172.129 350.224 50.3909 1037.25 40.4012 25.7154 21.3754 996.845 132.746 155.016 864.099 14.6858
internal_count=138125 117196 68228 48968 44573 41775 58862 58386 9366 8754 4395 20929 4833 2798 902 743 1679 612 3931 1663 2716 476 16096 395 231 159 15701 2027 2268 13674 164
is_linear=0
shrinkage=0.108964


Tree=23
num_leaves=32
num_cat=0
split_feature=3 5 14 0 5 10 10 0 14 4 11 11 10 14 10 13 7 13 4 14 0 12 14 6 6 6 9 0 4 6 14
split_gain=1245.36 480.973 271.354 241.262 197.958 179.257 164.09 110.241 81.9071 81.47 68.4423 109.37 52.6977 36.3561 33.3938 30.4306 23.6873 15.9756 15.6948 14.1476 12.8199 21.151 33.2783 12.2732 7.59056 7.34284 5.28907 2.0212 0.38739 0.639763 0.113074
threshold=-0.40480980469805089 -0.091379360416778091 -0.0083427419315573285 0.11030517958396081 0.039475503381796832 0.0057044139270425124 0.0059148637357303744 -0.22222496747676371 -0.023997158221350016 0.16572038315892382 -0.029609743510580992 0.038106762106572885 0.0051362171880332359 0.014810984373392337 0.0070401547706874304 -0.038869278613408741 -0.21271143286116784 -0.05023885119491709 0.30913003694187363 -0.0038446120176910763 0.38392641714013354 -0.21284560619950624 0.0022419749020001919 0.00071451745204923476 -0.0055980406465586741 0.0028419889556519284 0.85562601823462536 0.24143873357272624 0.042582364663917148 0.0023645458442767653 0.0074382117552160279
decision_type=2 2 2 2 2 2 2 2 2 2 2 2 2 2 2 2 2 2 2 2 2 2 2 2 2 2 2 2 2 2 2
left_child=7 3 4 6 5 -3 12 15 -6 -8 17 -12 -2 14 -5 18 23 -4 25 -18 21 22 -9 -17 -20 -1 -23 -15 30 -30 -22
right_child=1 2 10 13 8 -7 9 20 -10 -11 11 -13 -14 27 -16 16 19 -19 24 -21 28 26 -24 -25 -26 -27 -28 -29 29 -31 -32
leaf_value=-0.06446799520160984 -0.097348463376540934 -0.04231280943482741 -0.010822309229352447 0.015441226335520898 -0.00038004351113071733 0.04267784984269378 0.039682221988666035 -0.0066447892657690482 -0.050957873257484812 0.088918951846927233 -0.006278942119652106 -0.077274730251466014 0.014844569831728063 -0.18865149128547082 -0.12008972866524938 -0.11261957405050459 -0.0063064232396160998 -0.092273079331804897 -0.12681997576019596 -0.09249409236609038 -0.11279483781979609 -0.11152475996227361 -0.1113772695032122 0.05409422823507011 0.03834217669056534 -0.11997328189079429 -0.071946260904904261 -0.11685074590472579 -0.11608905612539167 -0.096194036148020357 -0.115641259200677
leaf_weight=72.256430059671402 60.009287487715483 335.68482893705368 31.710140310227871 75.527189128100872 1735.279843788594 2409.8720571957529 537.27758472412825 76.610229648649693 486.80519421026111 1550.4427502714097 849.66373725607991 369.74203706160188 289.55384968221188 4.9730040021240702 30.222166825085878 5.6482466608285895 60.818310022354126 290.65835466980934 3.9652840793132809 35.996815610677004 298.65246615558863 281.92924016341567 67.989294216036797 73.070409398525953 19.805212616920471 46.515056498348713 46.734223298728466 72.77964198589325 38.619095258414745 38.147029660642147 372.21975192055106
leaf_count=442 525 2483 197 765 9472 27589 7825 609 2681 46602 8934 2411 4624 36 346 27 384 1830 21 264 5454 3166 682 668 94 314 500 990 675 667 6848
internal_value=0 0.0161928 0.000323919 0.0556074 0.012718 0.0322865 0.0646788 -0.0897661 -0.0114604 0.0762478 -0.0396101 -0.0278059 -0.00441554 -0.0648803 -0.0232922 -0.0326298 -0.00225857 -0.0842611 -0.0700305 -0.0383518 -0.104651 -0.0906176 -0.055889 0.0421321 0.0107906 -0.0862058 -0.105897 -0.121443 -0.113535 -0.106203 -0.114374
internal_weight=0 9130.2 6509.42 2620.79 4967.64 2745.56 2437.28 1538.98 2222.09 2087.72 1541.77 1219.41 349.563 183.502 105.749 318.076 175.534 322.368 142.542 96.8151 1220.9 473.263 144.6 78.7187 23.7705 118.771 328.663 77.7526 747.638 76.7661 670.872
internal_count=138125 117310 55597 61713 42225 30072 59576 20815 12153 54427 13372 11345 5149 2137 1111 2214 1343 2027 871 648 18601 4957 1291 695 115 756 3666 1026 13644 1342 12302
is_linear=0
shrinkage=0.108964


Tree=24
num_leaves=32
num_cat=0
split_feature=0 4 5 6 6 12 14 14 11 11 3 0 7 4 6 3 8 5 0 0 3 6 6 3 12 3 13 14 3 0 0
split_gain=1085.3 501.796 307.188 211.943 198.06 199.143 98.0805 119.677 96.9344 90.4483 48.4569 33.9961 36.6637 33.1296 34.5289 27.7645 16.4343 15.4155 14.3037 9.38753 5.07277 4.2031 12.709 2.34741 2.02705 3.14402 1.50812 10.3245 1.48321 0.438699 0.00699638
threshold=0.14873681028633265 0.35474493956168279 -0.065308069615751876 0.0042687358210873544 0.0014935359640234848 -0.37047620854249885 -0.034452688810628095 -0.013891235890755516 -0.052431999711543859 0.080582765873704151 0.12087419294854304 0.48816145552141554 0.15696450197428244 -0.72756146413542711 0.0030485185886231707 0.36057295301763392 -0.88381262936196647 1.0326990276756074 -0.28982334886484024 -0.20412614192265133 0.33147158174607638 0.0027653712833693748 0.0020569398448349475 0.43861849051678342 -0.37319259445749792 -0.63903479335049862 0.0062363164426906242 0.010564792954874967 0.53969647637293006 0.60892343476482347 0.60892343476482347
decision_type=2 2 2 2 2 2 2 2 2 2 2 2 2 2 2 2 2 2 2 2 2 2 2 2 2 2 2 2 2 2 2
left_child=1 3 8 4 10 -6 17 -8 16 -10 -1 12 13 23 -15 18 -3 -4 -5 -17 26 22 -22 -2 25 -14 29 -28 -26 -13 -23
right_child=11 2 6 15 5 -7 7 -9 9 -11 -12 20 24 14 -16 19 -18 -19 -20 -21 21 30 -24 -25 28 -27 27 -29 -30 -31 -32
leaf_value=-0.10169616863727961 -0.10870898745646596 0.047685737192647251 -0.034630253277532851 -0.067654269179492188 -0.066004085478299182 0.011298783387571856 0.048415945688164493 -0.025210541250965012 0.080047733027169055 -0.17658119361925717 -0.027348803147800808 -0.10380735162632423 -0.11549398540737905 0.036176446589651787 -0.11167064826748493 0.0021467298490077742 -0.20614584869211022 0.015720483882580669 -0.12433867143731224 -0.10316352032945675 -0.12050176699349396 -0.1266643342385059 0.038333253788704072 0.025260680731603157 -0.11212451493425794 0.083217639209319391 -0.0052016373376492543 -0.11122997867702587 -0.0098726659616981804 -0.11390215939506404 -0.11916929717182845
leaf_weight=265.71972895413637 48.2162493057549 3.6937701180577305 450.52268861979246 73.117595922201872 436.11982678808272 4266.3230023905635 974.51684309542179 358.56861604005098 1840.9796570148319 16.451888110488653 171.11037038266659 55.391970261931419 2.2154013253748421 83.682792067527771 24.172734498977661 41.488023690879345 16.814072281122208 85.972139410674572 190.72540451586246 13.263019695878027 12.251078300178053 1.7043278738856305 11.686649195849894 1.6045622527599324 128.16583123058081 1.6490682549774636 12.268692374229429 98.028948873281479 1.7067414820194233 661.70606788992882 11.171318776905535
leaf_count=2016 612 43 2522 391 3104 41629 8987 2761 53503 135 851 959 42 644 264 188 151 373 1554 62 159 15 72 10 2155 19 166 1861 13 12715 149
internal_value=0 0.0133443 0.044046 -0.0077364 -0.00239018 0.00412946 0.0127795 0.0286122 0.0751734 0.0777747 -0.0725736 -0.0986844 -0.0665002 -0.0309054 0.00304074 -0.0939768 -0.160427 -0.0265617 -0.10863 -0.0233639 -0.109537 -0.0699595 -0.0429568 -0.104394 -0.108467 -0.0306986 -0.111298 -0.0994362 -0.110781 -0.113122 -0.120161
internal_weight=0 9205.39 3747.52 5457.87 5139.27 4702.44 1869.58 1333.09 1877.94 1857.43 436.83 1155.62 291.413 157.676 107.856 318.594 20.5078 536.495 263.843 54.751 864.209 36.8134 23.9377 49.8208 133.737 3.86447 827.396 110.298 129.873 717.098 12.8756
internal_count=138125 118270 68475 49795 47600 44733 14643 11748 53832 53638 2867 19855 3759 1530 908 2195 194 2895 1945 250 16096 395 231 622 2229 61 15701 2027 2168 13674 164
is_linear=0
shrinkage=0.108964


Tree=25
num_leaves=32
num_cat=0
split_feature=0 5 8 14 11 6 6 12 13 6 0 7 10 0 6 6 6 0 4 3 0 6 4 3 13 14 7 3 12 14 3
split_gain=944.01 440.153 283.466 173.585 185.187 146.946 143.84 121.651 113.168 71.4218 34.5235 34.6304 33.9347 33.5841 31.1203 60.2617 13.4745 12.9799 12.7252 5.42991 7.97479 7.94614 3.98573 2.75293 2.09367 4.58907 1.132 0.769871 0.604833 3.8502 0.0501938
threshold=0.14873681028633265 -0.097683186063066543 -0.88381262936196647 -0.00087932171528945892 0.066776281512691146 0.0018258671618207576 0.0033438589738695157 -0.38199380066756217 -0.056848347803103917 0.0049401749547072103 0.48816145552141554 0.15696450197428244 0.0059407596282906846 -0.21568495152934455 0.0017688627081615573 0.0030485185886231707 0.00037258760581394872 -0.2090655536605773 0.52360935607936898 -0.029202607192393069 0.73200841225398638 0.0020984316900918508 0.45809111526052054 0.4753483890227671 -0.0073389803870678207 0.00078584111702882892 -0.029622136369973368 0.53969647637293006 -0.29636127686679209 0.00046364829499329958 -0.29482760102227196
decision_type=2 2 2 2 2 2 2 2 2 2 2 2 2 2 2 2 2 2 2 2 2 2 2 2 2 2 2 2 2 2 2
left_child=1 5 8 4 -4 13 7 -7 18 -10 11 14 -5 16 23 -16 -1 -8 -3 28 21 -21 -15 -2 27 -26 -22 -13 29 -12 -30
right_child=10 2 3 12 -6 6 17 -9 9 -11 19 24 -14 22 15 -17 -18 -19 -20 20 26 -23 -24 -25 25 -27 -28 -29 30 -31 -32
leaf_value=-0.11312265897860582 -0.1177735391227987 0.013560268809409885 0.0092807673072744425 -0.08989615440823448 -0.040854993314237559 -0.047897745867261463 -0.050709385900610915 0.075879682660165759 0.074749811907928718 -0.062071439423563461 -0.049002359152217116 -0.11253029957332206 -0.041164131094956688 -0.14641391292109349 0.057642163049350069 -0.11038129425973729 0.019292266005634214 -0.1492342920375227 -0.067242996811683692 -0.12251733395080344 -0.091451810492805374 0.00043982535650840133 -0.25222536057318384 0.02665617497199952 0.060716905174306911 -0.098987571564300991 -0.11730951474340433 -0.033479191778558466 -0.11337063408334822 -0.11101836788819425 -0.11695906939957133
leaf_weight=12.978421140462158 37.964666273444891 31.407077293843031 4017.4002448562533 224.86271706782281 1118.2179159484804 99.667302370071411 33.508334163576365 1742.3512763548642 820.53112983703613 47.945690460503101 12.90751715376973 107.80728070065379 691.08074319548905 33.495136246085167 74.4628637842834 38.41932313144207 30.725427677854896 30.170657761394978 87.916038811206818 8.9920125678181666 43.236599039286375 20.392862908542156 4.837133737280964 1.6343656927347172 2.721561897546052 9.9332160204648954 37.567373234778643 1.4828519374132145 459.29190753400326 150.19913549721241 51.467079099267721
leaf_count=75 467 150 38585 1728 6442 1186 293 50054 11671 244 223 2010 6392 298 541 512 449 271 387 102 613 176 45 10 34 173 604 12 10304 3238 836
internal_value=0 0.0121904 -0.000595171 -0.00942934 -0.00163568 0.0574694 0.0636164 0.0691824 0.0535257 0.0671964 -0.0965784 -0.0633157 -0.0531278 -0.0853233 -0.0287002 0.000455572 -0.0200301 -0.0973898 -0.0459747 -0.108221 -0.0857962 -0.0371861 -0.159766 -0.111813 -0.106599 -0.0646412 -0.103474 -0.111458 -0.111887 -0.106111 -0.113732
internal_weight=0 9027.1 7039.36 6051.56 5135.62 1987.73 1905.7 1842.02 987.8 868.477 1058.48 274.426 915.943 82.0361 152.481 112.882 43.7038 63.679 119.323 784.054 110.189 29.3849 38.3323 39.599 121.945 12.6548 80.804 109.29 673.866 163.107 510.759
internal_count=138125 118270 65599 53147 45027 52671 51804 51240 12452 11915 19855 3759 8120 867 1530 1053 524 564 537 16096 1495 278 343 477 2229 207 1217 2022 14601 3461 11140
is_linear=0
shrinkage=0.108964


Tree=26
num_leaves=32
num_cat=0
split_feature=3 10 10 4 8 1 0 0 0 11 11 8 14 12 14 14 11 10 6 7 14 13 4 13 14 10 6 4 0 5 4
split_gain=841.257 354.237 388.112 301.254 150.08 133.687 96.7748 86.4627 51.7961 57.6548 105.748 49.1272 31.3702 28.9513 26.7517 21.6599 21.0497 15.1502 14.072 11.6273 13.5635 42.1705 11.0766 10.3525 9.34107 7.97773 6.62326 1.23591 1.01944 2.93626 0.493398
threshold=-0.40480980469805089 0.0058264221764058417 0.0071463236403031443 0.41679152749332221 -0.36486399946968229 1.0000000180025095e-35 -0.16530696521721924 -0.157928857783773 -0.11594345862819598 0.038983937114973867 -0.030907022908264175 0.67303326031488619 -0.029523003038869015 0.051184045229911518 0.026617911705911077 0.0023920910622045161 0.05094577623797264 0.004679087354796249 0.0025887120922053202 -0.07110408252999674 0.0017560666253885564 -0.020157413776538652 0.42068098625843536 -0.0070997024184139357 -0.034452688810628095 0.0063701829492232862 0.0031320268023185597 0.72014113543857283 -0.12263885267939119 -0.053755179248182967 0.45411189665843948
decision_type=2 2 2 2 2 2 2 2 2 2 2 2 2 2 2 2 2 2 2 2 2 2 2 2 2 2 2 2 2 2 2
left_child=6 8 3 4 -3 -5 13 11 9 10 -2 -4 -9 15 -11 16 -1 24 -19 20 21 -8 26 -17 -10 -24 -15 -22 29 -21 -30
right_child=1 2 7 5 -6 -7 19 12 17 14 -12 -13 -14 22 -16 23 -18 18 -20 28 27 -23 25 -25 -26 -27 -28 -29 30 -31 -32
leaf_value=0.01940432486674027 -0.072695035684440509 0.056699311970671115 0.00294227374304454 -0.020330522745642496 0.0025924895400028861 0.078107617507285329 -0.08801313496928366 -0.016780261858880961 -0.035544953885635208 -0.07818833544590359 0.010633806784735246 -0.03968324161600488 -0.091201935749746749 -0.067873238664418675 0.073763479808682531 -0.13144455034387409 -0.085630491535684777 -0.031910156743377133 -0.10989829706373488 -0.056546037731484901 -0.11146376734246491 0.06142710873704546 -0.10272899865739156 -0.031062040901974213 -0.13630099277769789 0.051981075315578371 -0.1205789499756128 0.0079491555520713048 -0.11091670875147325 -0.1271053041441004 -0.13567168110336422
leaf_weight=159.57254196703434 260.40391556546092 821.80339729972184 1177.1740120910108 178.9806235730648 2346.9118142221123 1931.748225543648 130.42027039825916 94.170279290527105 12.719818286597727 280.41017819941044 591.63603925704956 441.40684738010168 235.22718608006835 79.952742364257574 14.465971764177082 22.417867083102465 26.401989962905645 70.141649577766657 45.15434056520462 14.737079519778492 123.28923196345568 27.074256423860788 5.7413090020418194 26.75725344568491 77.419832322746515 12.735966362059115 43.826006799936295 1.0377336181700219 568.61923529580235 13.341952703893183 9.7229534015059453
leaf_count=1223 1503 12711 7850 1092 24838 53064 1954 544 91 1655 6276 2980 2431 564 92 150 158 720 516 114 2452 245 32 246 947 60 355 14 12948 142 158
internal_value=0 0.0129534 0.0225308 0.0378687 0.016625 0.0697605 -0.0822096 -0.0190383 -0.0382309 -0.0292057 -0.0148335 -0.00868223 -0.0699258 -0.0359856 -0.0707339 -0.0125123 0.00449299 -0.0886172 -0.0624533 -0.10185 -0.0835622 -0.0623235 -0.0747871 -0.0768242 -0.122083 0.00390914 -0.0865346 -0.110467 -0.110348 -0.0900728 -0.111333
internal_weight=0 8579.77 7227.42 5279.44 3168.72 2110.73 1265.65 1947.98 1352.35 1146.92 852.04 1618.58 329.397 377.406 294.876 235.15 185.975 205.436 115.296 888.243 281.821 157.495 142.256 49.1751 90.1397 18.4773 123.779 124.327 606.421 28.079 578.342
internal_count=138125 117310 105510 91705 37549 54156 20815 13805 11800 9526 7779 10830 2975 2788 1747 1777 1381 2274 1236 18027 4665 2199 1011 396 1038 92 919 2466 13362 256 13106
is_linear=0
shrinkage=0.108964


Tree=27
num_leaves=32
num_cat=0
split_feature=0 5 8 13 2 7 13 12 11 6 9 0 7 14 0 6 6 12 11 14 3 0 7 3 13 14 7 3 12 14 12
split_gain=726.507 350.815 239.166 157.073 177.812 109.501 91.8056 85.4588 73.9911 69.0747 47.0739 34.7794 31.388 28.9825 26.9781 26.8399 48.5673 11.5649 10.6797 8.1147 6.07044 7.77486 7.79036 2.88303 2.22887 4.17746 1.25649 0.810639 0.717418 4.14218 0.043852
threshold=0.14873681028633265 -0.10341925033197935 -0.88381262936196647 0.061705279272538688 2.4077313698667284 0.2563057305363915 -0.056848347803103917 -0.38199380066756217 -0.065761781432633518 -0.0020022474142061364 1.0000000180025095e-35 0.48816145552141554 0.15696450197428244 0.042502232277439933 -0.2386462109292681 0.0017688627081615573 0.0028678645158723023 -0.23367727599548721 -0.23954239156706769 0.0092633250606799413 -0.029202607192393069 0.73200841225398638 -0.091451604651539037 0.49101103454113276 -0.0073389803870678207 0.011719437913586787 -0.029622136369973368 0.53969647637293006 -0.29636127686679209 0.00046364829499329958 2.8768435177954146
decision_type=2 2 2 2 2 2 2 2 2 2 2 2 2 2 2 2 2 2 2 2 2 2 2 2 2 2 2 2 2 2 2
left_child=1 5 6 4 -4 7 18 13 -9 -8 -5 12 15 -1 17 23 -17 -7 -3 -16 28 22 -22 -2 27 -26 -23 -14 29 -13 -30
