{"learner":{"attributes":{"best_iteration":"84","best_ntree_limit":"85","best_score":"0.15391212200921794","scikit_learn":"{\"use_label_encoder\": null, \"n_estimators\": 86, \"objective\": \"binary:logistic\", \"max_depth\": 5, \"max_leaves\": null, \"max_bin\": null, \"grow_policy\": null, \"learning_rate\": 0.2131702912636896, \"verbosity\": null, \"booster\": null, \"tree_method\": null, \"gamma\": null, \"min_child_weight\": 1, \"max_delta_step\": null, \"subsample\": 1, \"sampling_method\": null, \"colsample_bytree\": 1, \"colsample_bylevel\": 1, \"colsample_bynode\": null, \"reg_alpha\": 0, \"reg_lambda\": 1, \"scale_pos_weight\": null, \"base_score\": null, \"missing\": NaN, \"num_parallel_tree\": null, \"random_state\": null, \"n_jobs\": null, \"monotone_constraints\": null, \"interaction_constraints\": null, \"importance_type\": null, \"gpu_id\": null, \"validate_parameters\": null, \"predictor\": null, \"enable_categorical\": false, \"feature_types\": null, \"max_cat_to_onehot\": null, \"max_cat_threshold\": null, \"eval_metric\": \"logloss\", \"early_stopping_rounds\": 120, \"callbacks\": null, \"kwargs\": {\"min_split_loss\": 0}, \"classes_\": [0.0, 1.0], \"n_classes_\": 2, \"evals_result_\": {\"validation_0\": {\"logloss\": [0.5479113417698787, 0.4525034494583423, 0.3848578324048947, 0.33538992973413223, 0.2992252007930707, 0.27147516968678204, 0.25008337521553037, 0.23308013419004586, 0.2197726574943616, 0.209581445338023, 0.20094325458881182, 0.19364864048973107, 0.18827981029351554, 0.18360481309462817, 0.17968245581541306, 0.17652057287188677, 0.1741751210804551, 0.17167224387874205, 0.16993555366582214, 0.16829558376360398, 0.16708123825809512, 0.1659892652859768, 0.16476620471910217, 0.16402218849193784, 0.16335921005967718, 0.16261813982169215, 0.162070589565629, 0.1616947354617266, 0.16106446785017228, 0.1603426457027833, 0.15975896581368618, 0.15929565763432915, 0.15885014112490492, 0.15886468641194634, 0.15855551391930128, 0.15786789562985218, 0.1576560151494532, 0.15746345735714556, 0.15724635140355855, 0.15712618914594223, 0.15695466068213604, 0.15690868113891712, 0.15662889784963066, 0.15652521209729303, 0.15628417460130833, 0.155971148119177, 0.1558168386621787, 0.1557244790147244, 0.15565411652793887, 0.1556271930410976, 0.15560131512462066, 0.1555541535199896, 0.15553046176251178, 0.15533811858743996, 0.1553144814927843, 0.15506480965566066, 0.15504255780292084, 0.15506409377987745, 0.15511346149544833, 0.15515298693256485, 0.15499500062551366, 0.15499011946100508, 0.15498166027593646, 0.15488824675359347, 0.15479456302289119, 0.15473167280789235, 0.15461732852516497, 0.1544441497345129, 0.15446611108264427, 0.15443690157218862, 0.15438349680525387, 0.1543564446232045, 0.15419144191581366, 0.15411298409374452, 0.1540708509847878, 0.15406548545354967, 0.1540494217782767, 0.15404366511237907, 0.15409074392760805, 0.15410064209559568, 0.1541165791644803, 0.15410522612803146, 0.15406755977334374, 0.15397782362435167, 0.15391212200921794, 0.1539237602218683]}}, \"_estimator_type\": \"classifier\"}"},"feature_names":["p_Rhad","p_numberOfInnermostPixelHits","p_ambiguityType","p_Reta","p_Rphi","p_sigmad0","p_deltaEta1","p_e2ts1","p_nTracks","p_numberOfPixelHits","p_deltaPhiRescaled2","p_d0","p_EptRatio","p_pt_track","p_ptconecoreTrackPtrCorrection"],"feature_types":["float","float","float","float","float","float","float","float","float","float","float","float","float","float","float"],"gradient_booster":{"model":{"gbtree_model_param":{"num_parallel_tree":"1","num_trees":"86","size_leaf_vector":"0"},"tree_info":[0,0,0,0,0,0,0,0,0,0,0,0,0,0,0,0,0,0,0,0,0,0,0,0,0,0,0,0,0,0,0,0,0,0,0,0,0,0,0,0,0,0,0,0,0,0,0,0,0,0,0,0,0,0,0,0,0,0,0,0,0,0,0,0,0,0,0,0,0,0,0,0,0,0,0,0,0,0,0,0,0,0,0,0,0,0],"trees":[{"base_weights":[9.8856866E-1,1.5118433E0,-1.82636E0,-6.2987274E-1,1.6584418E0,-1.938162E0,-5.383285E-1,5.5350554E-1,-8.9172393E-1,-6.449202E-1,1.7222824E0,-1.9768518E0,-1.5401009E0,7.4733096E-1,-1.7455357E0,-8.6021507E-1,1.0840932E0,-1.7389277E0,-6.652867E-1,4.5690376E-1,-1.3949772E0,1.8209761E0,9.475615E-1,-1.7685951E0,-1.9850763E0,-5.0678736E-1,-1.875093E0,1.2911392E0,-8.651163E-1,-6.666667E-1,-1.8838384E0,-4.9462366E-1,-1.8762887E0,-8.2568806E-1,1.3151927E0,-1.907489E0,-1.3211489E0,-1.2876023E0,-3.598275E-1,1.1847134E0,-9.2753625E-1,-4.4604316E-1,-1.6863331E0,1.4421436E0,1.9029676E0,-8.348993E-1,1.0652213E0,-1.9033816E0,-9.357798E-1,4.074074E-1,-1.3565217E0,-1.5151515E0,-1.9557604E0,1.4342762E0,-1.3142858E0,-4.4155845E-1,-1.8153846E0,-1.4666667E0,3.0769232E-1,-1.3488373E0,-1.9380282E0],"categories":[],"categories_nodes":[],"categories_segments":[],"categories_sizes":[],"default_left":[1,1,1,1,1,1,1,1,1,1,1,1,1,1,1,1,1,1,1,1,1,1,1,1,0,1,1,1,1,1,1,0,0,0,0,0,0,0,0,0,0,0,0,0,0,0,0,0,0,0,0,0,0,0,0,0,0,0,0,0,0],"id":0,"left_children":[1,3,5,7,9,11,13,15,17,19,21,23,25,27,29,31,33,35,37,39,41,43,45,47,-1,49,51,53,55,57,59,-1,-1,-1,-1,-1,-1,-1,-1,-1,-1,-1,-1,-1,-1,-1,-1,-1,-1,-1,-1,-1,-1,-1,-1,-1,-1,-1,-1,-1,-1],"loss_changes":[5.08681E4,9.143828E3,7.785254E2,5.787865E2,4.0088438E3,7.366211E1,6.745094E2,2.5502985E2,2.9206824E2,6.0868384E2,2.0259688E3,4.2578125E0,1.5334692E2,1.8591568E2,3.2167236E1,3.361844E1,1.0998892E2,2.0138E1,2.2912036E2,3.0212198E2,1.2034497E2,7.27875E2,6.297991E2,1.8592651E1,0E0,8.639156E1,6.7999268E0,6.080841E1,2.0832432E1,2.1497437E1,3.1262817E0,0E0,0E0,0E0,0E0,0E0,0E0,0E0,0E0,0E0,0E0,0E0,0E0,0E0,0E0,0E0,0E0,0E0,0E0,0E0,0E0,0E0,0E0,0E0,0E0,0E0,0E0,0E0,0E0,0E0,0E0],"parents":[2147483647,0,0,1,1,2,2,3,3,4,4,5,5,6,6,7,7,8,8,9,9,10,10,11,11,12,12,13,13,14,14,15,15,16,16,17,17,18,18,19,19,20,20,21,21,22,22,23,23,25,25,26,26,27,27,28,28,29,29,30,30],"right_children":[2,4,6,8,10,12,14,16,18,20,22,24,26,28,30,32,34,36,38,40,42,44,46,48,-1,50,52,54,56,58,60,-1,-1,-1,-1,-1,-1,-1,-1,-1,-1,-1,-1,-1,-1,-1,-1,-1,-1,-1,-1,-1,-1,-1,-1,-1,-1,-1,-1,-1,-1],"split_conditions":[6.273013E-2,5E-1,9.207884E-1,5E-1,8.719186E-1,8.9974046E-1,1.2099495E-1,2.5E0,9.0056574E-1,1.7852577E0,4.332112E-2,7.711154E-2,1.0562231E-1,2.9552026E0,1.4597702E-1,1.0750764E3,9.037341E-1,8.798876E-1,-7.52239E-4,2.150615E-2,4.225645E-3,9.094534E-1,-1.297699E-2,8.8237727E-1,-4.231593E-1,1.9725456E0,1.476211E-1,2.9782192E3,1.7564839E3,9.2769367E-1,1.7003268E-1,-1.0543907E-1,-3.9996898E-1,-1.7601216E-1,2.8036E-1,-4.0661997E-1,-2.8162968E-1,-2.7447855E-1,-7.670453E-2,2.5254568E-1,-1.9772317E-1,-9.508315E-2,-3.5947612E-1,3.0742216E-1,4.0565616E-1,-1.7797573E-1,2.2707354E-1,-4.057444E-1,-1.9948046E-1,8.684716E-2,-2.8917012E-1,-3.229853E-1,-4.1691E-1,3.0574507E-1,-2.801667E-1,-9.412714E-2,-3.8698608E-1,-3.1264976E-1,6.559086E-2,-2.8753203E-1,-4.1313004E-1],"split_indices":[0,1,3,2,3,3,0,9,3,12,5,0,0,12,0,7,3,3,10,0,0,4,10,3,0,12,0,7,7,4,0,0,0,0,0,0,0,0,0,0,0,0,0,0,0,0,0,0,0,0,0,0,0,0,0,0,0,0,0,0,0],"split_type":[0,0,0,0,0,0,0,0,0,0,0,0,0,0,0,0,0,0,0,0,0,0,0,0,0,0,0,0,0,0,0,0,0,0,0,0,0,0,0,0,0,0,0,0,0,0,0,0,0,0,0,0,0,0,0,0,0,0,0,0,0],"sum_hessian":[3.453125E4,2.911875E4,5.4125E3,1.86525E3,2.72535E4,4.97975E3,4.3275E2,3.3775E2,1.5275E3,7.3475E2,2.651875E4,4.535E3,4.4475E2,2.0975E2,2.23E2,9.2E1,2.4575E2,3.2075E2,1.20675E3,2.9775E2,4.37E2,2.3521E4,2.99775E3,1.805E2,4.3545E3,1.095E2,3.3525E2,1.57E2,5.275E1,2.6E1,1.97E2,6.875E1,2.325E1,2.625E1,2.195E2,2.26E2,9.475E1,3.9625E2,8.105E2,1.9525E2,1.025E2,1.0325E2,3.3375E2,4.18825E3,1.933275E4,1.8525E2,2.8125E3,1.5425E2,2.625E1,5.3E1,5.65E1,6.5E1,2.7025E2,1.4925E2,7.75E0,3.75E1,1.525E1,1.4E1,1.2E1,2.05E1,1.765E2],"tree_param":{"num_deleted":"0","num_feature":"15","num_nodes":"61","size_leaf_vector":"0"}},{"base_weights":[8.07553E-1,1.2420164E0,-1.4647653E0,1.4335406E0,5.8241524E-2,-1.5952723E0,-2.796383E-1,-2.2542645E-1,1.4789739E0,-7.027508E-1,5.2665275E-1,-1.6312282E0,-1.220758E0,7.633321E-1,-1.3614823E0,5.77548E-1,-1.1135987E0,1.5786119E0,1.1792895E0,-1.4144988E0,-5.247665E-1,-9.038437E-1,6.772979E-1,-1.4784594E0,-1.6396683E0,-1.5697087E-1,-1.505974E0,1.1350611E0,-4.9450067E-1,-5.669576E-1,-1.5526388E0,8.71045E-1,-1.579676E0,-2.667398E-1,-1.4985436E0,-1.0168614E0,1.5844291E0,7.410043E-1,1.3241194E0,-1.5656515E0,-1.0592245E0,-1.8490355E-1,-9.8200464E-1,-1.3535632E0,-6.017933E-1,8.550898E-1,-2.93893E-1,-1.6083102E0,-9.731797E-1,7.054182E-1,-1.137931E0,-1.1842855E0,-1.6196725E0,-1.6686308E0,1.2273539E0,1.004366E-1,-1.0770617E0,-3.818237E-2,-1.5680768E0,-1.1076822E0,-1.5993533E0],"categories":[],"categories_nodes":[],"categories_segments":[],"categories_sizes":[],"default_left":[1,1,1,1,1,1,1,1,1,1,1,1,1,1,1,1,1,1,1,1,1,1,1,1,0,1,1,1,1,1,1,0,0,0,0,0,0,0,0,0,0,0,0,0,0,0,0,0,0,0,0,0,0,0,0,0,0,0,0,0,0],"id":1,"left_children":[1,3,5,7,9,11,13,15,17,19,21,23,25,27,29,31,33,35,37,39,41,43,45,47,-1,49,51,53,55,57,59,-1,-1,-1,-1,-1,-1,-1,-1,-1,-1,-1,-1,-1,-1,-1,-1,-1,-1,-1,-1,-1,-1,-1,-1,-1,-1,-1,-1,-1,-1],"loss_changes":[3.2937234E4,6.3496836E3,8.27834E2,1.8173086E3,1.3910115E3,6.2964844E1,6.018025E2,4.5954962E2,6.9877344E2,1.876112E2,5.211331E2,3.2470703E0,1.2917456E2,1.2761432E2,3.886737E1,2.1575658E2,9.93107E1,2.674453E2,3.7090918E2,1.4282227E1,1.848981E2,3.0504517E1,3.776864E2,1.421051E1,0E0,7.8035416E1,1.0379517E1,5.639975E1,2.1833036E1,2.7641283E1,2.6012878E0,0E0,0E0,0E0,0E0,0E0,0E0,0E0,0E0,0E0,0E0,0E0,0E0,0E0,0E0,0E0,0E0,0E0,0E0,0E0,0E0,0E0,0E0,0E0,0E0,0E0,0E0,0E0,0E0,0E0,0E0],"parents":[2147483647,0,0,1,1,2,2,3,3,4,4,5,5,6,6,7,7,8,8,9,9,10,10,11,11,12,12,13,13,14,14,15,15,16,16,17,17,18,18,19,19,20,20,21,21,22,22,23,23,25,25,26,26,27,27,28,28,29,29,30,30],"right_children":[2,4,6,8,10,12,14,16,18,20,22,24,26,28,30,32,34,36,38,40,42,44,46,48,-1,50,52,54,56,58,60,-1,-1,-1,-1,-1,-1,-1,-1,-1,-1,-1,-1,-1,-1,-1,-1,-1,-1,-1,-1,-1,-1,-1,-1,-1,-1,-1,-1,-1,-1],"split_conditions":[5.7618096E-2,5E-1,9.186411E-1,8.775961E-1,5E-1,8.992697E-1,1.0608954E-1,1.4746885E3,2.6279781E-2,9.0056574E-1,-9.82197E-3,7.711154E-2,8.591517E-2,3.015781E0,1.4597702E-1,9.107843E-3,9.300139E-3,-1.0725081E-2,8.9883906E-1,8.798876E-1,3.5E0,9.219254E-1,2.0294182E-2,8.7493265E-1,-3.4952858E-1,1.9794195E0,1.476211E-1,-6.001738E-3,6.697806E3,1.4043096E3,1.7003268E-1,1.8568091E-1,-3.3674E-1,-5.6861E-2,-3.1944498E-1,-2.1676464E-1,3.377532E-1,1.579601E-1,2.8226292E-1,-3.337504E-1,-2.257952E-1,-3.9415944E-2,-2.0933421E-1,-2.8853947E-1,-1.2828445E-1,1.8227974E-1,-6.264926E-2,-3.4284395E-1,-2.07453E-1,1.503742E-1,-2.4257308E-1,-2.524545E-1,-3.4526607E-1,-3.5570252E-1,2.616354E-1,2.1410098E-2,-2.2959754E-1,-8.139347E-3,-3.342674E-1,-2.3612495E-1,-3.409346E-1],"split_indices":[0,2,3,3,1,3,0,7,5,3,10,0,0,12,0,6,0,6,4,3,2,3,10,3,0,12,0,6,14,7,0,0,0,0,0,0,0,0,0,0,0,0,0,0,0,0,0,0,0,0,0,0,0,0,0,0,0,0,0,0,0],"split_type":[0,0,0,0,0,0,0,0,0,0,0,0,0,0,0,0,0,0,0,0,0,0,0,0,0,0,0,0,0,0,0,0,0,0,0,0,0,0,0,0,0,0,0,0,0,0,0,0,0,0,0,0,0,0,0,0,0,0,0,0,0],"sum_hessian":[3.336013E4,2.8005902E4,5.354228E3,2.4105617E4,3.900284E3,4.8227925E3,5.314352E2,6.4246545E2,2.3463152E4,1.4858444E3,2.4144395E3,4.39727E3,4.2552286E2,2.707288E2,2.607064E2,3.375997E2,3.0486575E2,1.760548E4,5.8576724E3,2.9584235E2,1.1900021E3,2.2956229E2,2.1848772E3,2.3944283E2,4.157827E3,9.029492E1,3.3522794E2,2.0904657E2,6.1682213E1,5.132883E1,2.0937755E2,2.9769376E2,3.990594E1,9.580113E1,2.0906462E2,3.898245E1,1.7566498E4,1.4564067E3,4.4012656E3,2.0515256E2,9.0689804E1,6.8342206E2,5.0658E2,9.0836136E1,1.3872617E2,1.8468937E3,3.3798355E2,1.8875261E2,5.0690212E1,4.8200993E1,4.2093933E1,9.052384E1,2.447041E2,6.11783E0,2.0292874E2,3.0926394E1,3.075582E1,3.426745E1,1.706138E1,2.2241205E1,1.8713635E2],"tree_param":{"num_deleted":"0","num_feature":"15","num_nodes":"61","size_leaf_vector":"0"}},{"base_weights":[6.9255656E-1,1.0628294E0,-1.2793368E0,1.2361592E0,4.7539026E-2,-1.4078083E0,-3.0047238E-1,1.2626958E0,-1.3387212E0,9.0827507E-1,-2.2713085E-1,-1.4357799E0,-1.0714422E0,5.7189065E-1,-1.1952341E0,-1.2705289E0,1.2900527E0,-5.2535766E-1,-1.615658E0,1.006739E0,-7.66167E-1,-1.2108531E0,-6.8544045E-2,-1.3531301E0,-1.4542278E0,-1.2816842E-1,-1.3185266E0,8.726763E-1,-7.758953E-1,-6.7263746E-1,-1.4117388E0,-1.5930372E0,-5.464909E-1,8.910425E-1,1.3565289E0,-1.1144489E0,8.979484E-2,-1.0148133E0,-1.7227881E0,-1.2661448E0,1.0571523E0,-5.7865396E-2,-1.3211133E0,-1.3761643E0,-6.2430507E-1,-6.956384E-1,1.7076302E-1,-1.0983799E0,-1.4233438E0,3.751563E-1,-1.4608915E0,-7.048514E-1,-1.3798337E0,-1.5641974E0,1.0468886E0,-1.342883E0,-2.3113847E-1,-1.5911472E0,-2.5297537E-1],"categories":[],"categories_nodes":[],"categories_segments":[],"categories_sizes":[],"default_left":[1,1,1,1,1,1,1,1,1,1,1,1,1,1,1,1,1,1,1,1,1,1,1,1,0,1,1,1,1,1,0,0,0,0,0,0,0,0,0,0,0,0,0,0,0,0,0,0,0,0,0,0,0,0,0,0,0,0,0],"id":2,"left_children":[1,3,5,7,9,11,13,15,17,19,21,23,25,27,29,31,33,35,37,39,41,43,45,47,-1,49,51,53,55,57,-1,-1,-1,-1,-1,-1,-1,-1,-1,-1,-1,-1,-1,-1,-1,-1,-1,-1,-1,-1,-1,-1,-1,-1,-1,-1,-1,-1,-1],"loss_changes":[2.2560629E4,4.577754E3,6.13896E2,1.5199375E3,8.972735E2,3.908789E1,4.4405673E2,1.525832E3,5.0315887E1,1.5214331E2,4.4878955E2,4.1064453E0,7.801343E1,1.1754715E2,3.0814026E1,5.4116394E1,5.759453E2,2.1544697E1,9.12796E0,1.0074658E2,2.0189589E1,3.786731E1,3.7212195E2,1.1695679E1,0E0,4.799805E1,9.02417E0,1.0189494E2,1.6099274E1,3.2032543E1,0E0,0E0,0E0,0E0,0E0,0E0,0E0,0E0,0E0,0E0,0E0,0E0,0E0,0E0,0E0,0E0,0E0,0E0,0E0,0E0,0E0,0E0,0E0,0E0,0E0,0E0,0E0,0E0,0E0],"parents":[2147483647,0,0,1,1,2,2,3,3,4,4,5,5,6,6,7,7,8,8,9,9,10,10,11,11,12,12,13,13,14,14,15,15,16,16,17,17,18,18,19,19,20,20,21,21,22,22,23,23,25,25,26,26,27,27,28,28,29,29],"right_children":[2,4,6,8,10,12,14,16,18,20,22,24,26,28,30,32,34,36,38,40,42,44,46,48,-1,50,52,54,56,58,-1,-1,-1,-1,-1,-1,-1,-1,-1,-1,-1,-1,-1,-1,-1,-1,-1,-1,-1,-1,-1,-1,-1,-1,-1,-1,-1,-1,-1],"split_conditions":[5.7401232E-2,5E-1,9.156004E-1,1.1342344E-2,2.7025547E-2,8.992697E-1,1.0608954E-1,-9.552745E-3,2.0336623E-3,4.5183636E-2,8.960462E-1,1.2729372E-1,8.591517E-2,5E-1,1.7003268E-1,9.09835E-1,8.9892715E-1,9.095005E-1,4.4545513E3,8.432343E-1,6.2102333E-2,9.1170704E-1,2.5E0,1.5444776E0,-3.0999815E-1,1.7868353E3,1.5E0,-6.001738E-3,9.1284525E-1,-3.7540037E-3,-3.0094075E-1,-3.3958822E-1,-1.16495624E-1,1.8994378E-1,2.8917167E-1,-2.375674E-1,1.9141592E-2,-2.1632804E-1,-3.6724722E-1,-2.6990443E-1,2.2535345E-1,-1.2335183E-2,-2.816221E-1,-2.9335734E-1,-1.330833E-1,-1.4828944E-1,3.6401603E-2,-2.3414195E-1,-3.034146E-1,7.997218E-2,-3.1141865E-1,-1.5025337E-1,-2.9413956E-1,-3.3344042E-1,2.2316554E-1,-2.8626275E-1,-4.9271856E-2,-3.391853E-1,-5.3926833E-2],"split_indices":[0,2,3,6,5,3,0,6,0,11,3,0,0,2,0,3,4,3,14,3,11,4,9,12,0,7,8,6,4,6,0,0,0,0,0,0,0,0,0,0,0,0,0,0,0,0,0,0,0,0,0,0,0,0,0,0,0,0,0],"split_type":[0,0,0,0,0,0,0,0,0,0,0,0,0,0,0,0,0,0,0,0,0,0,0,0,0,0,0,0,0,0,0,0,0,0,0,0,0,0,0,0,0,0,0,0,0,0,0,0,0,0,0,0,0,0,0,0,0,0,0],"sum_hessian":[3.089625E4,2.6012254E4,4.8839966E3,2.2218848E4,3.7934072E3,4.316975E3,5.6702155E2,2.1992701E4,2.2614592E2,9.1711786E2,2.8762893E3,3.9825264E3,3.3444846E2,2.8728705E2,2.7973453E2,2.3448174E2,2.1758219E4,5.8177025E1,1.679689E2,8.6655945E2,5.055842E1,3.9839417E2,2.477895E3,7.402817E2,3.2422449E3,6.9737206E1,2.6471124E2,2.3515906E2,5.2127983E1,8.314556E1,1.9658896E2,1.6139246E2,7.308927E1,3.1093523E3,1.8648867E4,2.9303408E1,2.8873617E1,2.7001612E1,1.4096729E2,1.828023E1,8.4827924E2,2.2695482E1,2.7862936E1,3.0974905E2,8.864511E1,6.838879E2,1.7940072E3,1.6354594E2,5.767358E2,5.1141342E1,1.8595861E1,2.5178185E1,2.3953307E2,1.5157528E1,2.2000153E2,2.4824902E1,2.730308E1,2.5199718E1,5.794584E1],"tree_param":{"num_deleted":"0","num_feature":"15","num_nodes":"59","size_leaf_vector":"0"}},{"base_weights":[6.087267E-1,9.363548E-1,-1.128801E0,1.1445702E0,2.1962857E-1,-1.2695173E0,-8.32681E-2,1.1654195E0,-9.875599E-1,-4.7078466E-1,4.8402318E-1,-1.3098736E0,-8.9109856E-1,5.943622E-1,-1.0294652E0,-1.1003554E0,1.1852356E0,-1.3198111E0,-1.6260009E-1,-1.6780072E-1,-9.130279E-1,-7.922054E-1,5.699903E-1,-1.3260503E0,-1.2033597E0,-2.7743524E-1,-1.2384847E0,7.822332E-1,-1.1933721E0,-2.9899403E-1,-1.2074417E0,-6.219419E-1,-1.5013692E0,1.2073699E0,1.4469428E-2,-6.872895E-1,-1.4654132E0,3.4383544E-1,-1.452738E0,-2.4093831E-2,-1.3517916E0,-1.1902188E0,-5.633257E-1,-3.3417147E-1,-1.3114107E0,6.813318E-1,-1.9674759E-1,-6.779536E-1,-1.2684882E0,1.4983244E-1,-1.6115429E0,-9.12212E-1,-1.3098369E0,-1.0444545E0,9.571434E-1,-1.860136E-2,-1.8122041E0,4.361722E-1,-9.540073E-1,-8.4714913E-1,-1.2833406E0],"categories":[],"categories_nodes":[],"categories_segments":[],"categories_sizes":[],"default_left":[1,1,1,1,1,1,1,1,1,1,1,1,1,1,1,1,1,1,1,1,1,1,1,0,1,1,1,1,1,1,1,0,0,0,0,0,0,0,0,0,0,0,0,0,0,0,0,0,0,0,0,0,0,0,0,0,0,0,0,0,0],"id":3,"left_children":[1,3,5,7,9,11,13,15,17,19,21,23,25,27,29,31,33,35,37,39,41,43,45,-1,47,49,51,53,55,57,59,-1,-1,-1,-1,-1,-1,-1,-1,-1,-1,-1,-1,-1,-1,-1,-1,-1,-1,-1,-1,-1,-1,-1,-1,-1,-1,-1,-1,-1,-1],"loss_changes":[1.5947815E4,3.5170918E3,6.537988E2,8.130176E2,9.689742E2,5.865625E1,3.3934338E2,8.133926E2,4.841014E1,1.9682382E2,4.2152496E2,4.4995117E0,8.079785E1,1.0453808E2,2.8348114E1,2.9250824E1,4.6464062E2,1.0627075E1,3.452382E1,1.4860983E2,5.724292E1,5.726181E1,3.0714978E2,0E0,1.5470947E1,7.94016E1,4.4565125E0,9.0379105E1,2.157977E1,2.1889194E1,3.759491E0,0E0,0E0,0E0,0E0,0E0,0E0,0E0,0E0,0E0,0E0,0E0,0E0,0E0,0E0,0E0,0E0,0E0,0E0,0E0,0E0,0E0,0E0,0E0,0E0,0E0,0E0,0E0,0E0,0E0,0E0],"parents":[2147483647,0,0,1,1,2,2,3,3,4,4,5,5,6,6,7,7,8,8,9,9,10,10,11,11,12,12,13,13,14,14,15,15,16,16,17,17,18,18,19,19,20,20,21,21,22,22,24,24,25,25,26,26,27,27,28,28,29,29,30,30],"right_children":[2,4,6,8,10,12,14,16,18,20,22,24,26,28,30,32,34,36,38,40,42,44,46,-1,48,50,52,54,56,58,60,-1,-1,-1,-1,-1,-1,-1,-1,-1,-1,-1,-1,-1,-1,-1,-1,-1,-1,-1,-1,-1,-1,-1,-1,-1,-1,-1,-1,-1,-1],"split_conditions":[5.358452E-2,3.5993915E-2,9.186007E-1,7.880665E-3,5E-1,8.992697E-1,1.0608954E-1,-9.971462E-3,9.1440666E-1,1.3867191E4,8.913034E-1,9.065635E-1,1.0740599E-1,4.0727817E-3,1.3940746E-1,1.3646662E-2,5.5921793E-2,1.5506322E0,1.8146759E-2,2.4419443E3,2.5E0,1.5717432E-2,1.969575E4,-2.8267452E-1,8.052842E-2,3.7301783E-3,1.476211E-1,-6.1366325E-3,4.580509E3,1.6798375E0,1.799699E-1,-1.3257954E-1,-3.2004732E-1,2.573754E-1,3.0844521E-3,-1.4650969E-1,-3.1238255E-1,7.3295504E-2,-3.0968058E-1,-5.136089E-3,-2.881618E-1,-2.537193E-1,-1.200843E-1,-7.123543E-2,-2.795538E-1,1.452397E-1,-4.194074E-2,-1.4451957E-1,-2.7040398E-1,3.1939827E-2,-3.4353307E-1,-1.944565E-1,-2.7921832E-1,-2.2264665E-1,2.0403454E-1,-3.965257E-3,-3.8630807E-1,9.2978954E-2,-2.0336601E-1,-1.8058702E-1,-2.735701E-1],"split_indices":[0,5,3,6,1,3,0,6,3,14,3,4,0,6,0,0,11,12,0,7,9,0,14,0,0,6,0,6,14,12,0,0,0,0,0,0,0,0,0,0,0,0,0,0,0,0,0,0,0,0,0,0,0,0,0,0,0,0,0,0,0],"split_type":[0,0,0,0,0,0,0,0,0,0,0,0,0,0,0,0,0,0,0,0,0,0,0,0,0,0,0,0,0,0,0,0,0,0,0,0,0,0,0,0,0,0,0,0,0,0,0,0,0,0,0,0,0,0,0,0,0,0,0,0,0],"sum_hessian":[2.8011992E4,2.3568398E4,4.443595E3,1.8262408E4,5.3059907E3,3.9162944E3,5.2730066E2,1.8086006E4,1.7640172E2,1.469059E3,3.8369316E3,3.536667E3,3.7962738E2,3.0747247E2,2.1982822E2,1.5633385E2,1.7929672E4,1.2532674E2,5.1074978E1,8.726083E2,5.964506E2,2.4162718E2,3.5953044E3,3.0604167E3,4.7625037E2,1.3787231E2,2.4175507E2,2.7874222E2,2.8730257E1,4.3592182E1,1.7623604E2,7.245056E1,8.388328E1,1.7596955E4,3.327161E2,2.4521458E1,1.0080528E2,3.7204197E1,1.3870784E1,7.7906915E2,9.353916E1,3.3137955E2,2.6507108E2,1.2924928E2,1.12377884E2,3.1395127E3,4.5579175E2,5.378261E1,4.2246777E2,1.0510013E2,3.277218E1,4.5855545E1,1.9589952E2,2.3923553E1,2.5481866E2,1.0267957E1,1.84623E1,2.0696823E1,2.2895359E1,3.278185E1,1.4345418E2],"tree_param":{"num_deleted":"0","num_feature":"15","num_nodes":"61","size_leaf_vector":"0"}},{"base_weights":[5.41264E-1,8.1455433E-1,-1.1263462E0,9.846608E-1,-3.8909994E-2,-1.2136157E0,-5.1970613E-1,3.96483E-1,1.0895796E0,6.456695E-1,-2.0743477E-1,-8.6940944E-1,-1.2271873E0,5.696134E-2,-1.131614E0,5.594585E-1,-7.120744E-1,1.1033534E0,-8.628153E-1,-2.3177077E-1,7.842596E-1,-7.445088E-1,-8.173087E-3,-1.1673663E0,-1.0398797E-1,-1.142516E0,-1.2461784E0,3.9639482E-1,-1.1829102E0,-7.961213E-1,-1.2063819E0,-5.1936156E-1,6.447389E-1,-1.6898118E-1,-1.2402643E0,1.1929909E0,8.662084E-1,-3.2656914E-1,-1.3793778E0,6.493107E-2,-9.102855E-1,8.482912E-1,-4.999606E-1,-3.633571E-1,-8.3774656E-1,-7.4320805E-1,1.882553E-1,-1.1777143E0,-1.4750493E-1,-9.795452E-1,5.938347E-1,-1.2152107E0,-8.732464E-1,6.3600296E-1,-1.1841557E0,-1.2772933E0,-3.194391E-1,-4.2025727E-1,-1.273922E0],"categories":[],"categories_nodes":[],"categories_segments":[],"categories_sizes":[],"default_left":[1,1,1,1,1,1,1,1,1,1,1,1,1,1,1,1,1,1,1,1,1,1,1,1,1,1,0,1,1,1,0,0,0,0,0,0,0,0,0,0,0,0,0,0,0,0,0,0,0,0,0,0,0,0,0,0,0,0,0],"id":4,"left_children":[1,3,5,7,9,11,13,15,17,19,21,23,25,27,29,31,33,35,37,39,41,43,45,47,49,51,-1,53,55,57,-1,-1,-1,-1,-1,-1,-1,-1,-1,-1,-1,-1,-1,-1,-1,-1,-1,-1,-1,-1,-1,-1,-1,-1,-1,-1,-1,-1,-1],"loss_changes":[1.1458955E4,3.1362158E3,1.8680664E2,1.1111113E3,4.1442102E2,1.3388672E1,1.578028E2,4.93292E2,4.1198828E2,8.647443E1,3.0846005E2,2.743161E1,3.3598633E0,9.772333E1,4.481079E0,2.1921375E2,1.00223785E2,3.2161328E2,2.9365715E1,1.9700788E1,5.0835754E1,2.7414795E1,3.038288E2,7.429962E-1,2.1935253E1,9.841553E0,0E0,6.974342E1,3.6601486E0,7.0926285E0,0E0,0E0,0E0,0E0,0E0,0E0,0E0,0E0,0E0,0E0,0E0,0E0,0E0,0E0,0E0,0E0,0E0,0E0,0E0,0E0,0E0,0E0,0E0,0E0,0E0,0E0,0E0,0E0,0E0],"parents":[2147483647,0,0,1,1,2,2,3,3,4,4,5,5,6,6,7,7,8,8,9,9,10,10,11,11,12,12,13,13,14,14,15,15,16,16,17,17,18,18,19,19,20,20,21,21,22,22,23,23,24,24,25,25,27,27,28,28,29,29],"right_children":[2,4,6,8,10,12,14,16,18,20,22,24,26,28,30,32,34,36,38,40,42,44,46,48,50,52,-1,54,56,58,-1,-1,-1,-1,-1,-1,-1,-1,-1,-1,-1,-1,-1,-1,-1,-1,-1,-1,-1,-1,-1,-1,-1,-1,-1,-1,-1,-1,-1],"split_conditions":[6.654891E-2,5E-1,9.109404E-1,8.948077E-1,2.5102075E-2,7.862674E-2,1.3950862E-1,1.9816338E3,1.2208734E-2,-5.2473573E-3,-1.4350424E-3,8.795625E-1,1.4353877E-1,1.6038489E3,1.8040566E-1,6.9300944E-1,1.6285656E-2,2.4352144E-2,1.582344E-2,1.649471E0,4.353971E-2,3.9089978E-2,8.756434E-1,7.852921E-2,1.6110967E4,8.946297E-1,-2.6564822E-1,1.1815434E-2,5.5E0,1.9711324E-3,-2.5716478E-1,-1.1071245E-1,1.3743918E-1,-3.6021765E-2,-2.643875E-1,2.5431022E-1,1.8464988E-1,-6.9614835E-2,-2.9404238E-1,1.3841376E-2,-1.9404581E-1,1.8083048E-1,-1.0657675E-1,-7.7456936E-2,-1.7858268E-1,-1.5842988E-1,4.0130436E-2,-2.5105372E-1,-3.1443667E-2,-2.0880993E-1,1.2658791E-1,-2.5904682E-1,-1.8615018E-1,1.3557693E-1,-2.524268E-1,-2.72281E-1,-6.809493E-2,-8.958636E-2,-2.715623E-1],"split_indices":[0,2,3,4,5,0,0,7,6,10,10,3,0,7,0,12,0,5,0,12,11,5,4,0,13,4,0,10,9,6,0,0,0,0,0,0,0,0,0,0,0,0,0,0,0,0,0,0,0,0,0,0,0,0,0,0,0,0,0],"split_type":[0,0,0,0,0,0,0,0,0,0,0,0,0,0,0,0,0,0,0,0,0,0,0,0,0,0,0,0,0,0,0,0,0,0,0,0,0,0,0,0,0,0,0,0,0,0,0,0,0,0,0,0,0,0,0,0,0,0,0],"sum_hessian":[2.5140518E4,2.1601023E4,3.5394946E3,1.8011037E4,3.589986E3,3.093476E3,4.4601877E2,2.727178E3,1.5283858E4,7.0861725E2,2.881369E3,1.1981332E2,2.9736626E3,2.3008835E2,2.1593044E2,2.3780608E3,3.4911728E2,1.5177221E4,1.0663783E2,9.6566154E1,6.120511E2,7.789941E2,2.1023748E3,8.586383E1,3.3949486E1,5.5598254E2,2.4176802E3,1.811705E2,4.8917854E1,4.1474995E1,1.7445543E2,1.7384059E2,2.2042202E3,1.7278102E2,1.7633626E2,1.1011136E4,4.1660854E3,5.3122887E1,5.351495E1,6.781585E1,2.8750303E1,5.833067E2,2.8744398E1,1.5406802E2,6.24926E2,4.427649E2,1.6596099E3,8.4848145E1,1.0156873E0,1.487816E1,1.9071325E1,4.3502567E2,1.2095685E2,1.578399E2,2.3330591E1,4.3665653E1,5.2522006E0,2.426578E1,1.7209213E1],"tree_param":{"num_deleted":"0","num_feature":"15","num_nodes":"59","size_leaf_vector":"0"}},{"base_weights":[4.8389053E-1,7.3932964E-1,-9.727446E-1,9.573719E-1,1.4777301E-1,-1.1314136E0,-1.8328619E-1,5.9598017E-1,1.0962338E0,-5.9354675E-1,2.9037756E-1,-1.1690581E0,-8.587099E-1,2.4019194E-1,-1.0392703E0,-8.338771E-1,6.701398E-1,-7.846462E-1,1.1042955E0,-3.194839E-1,-9.6742153E-1,4.1743734E-1,-3.5464495E-1,-1.1022925E0,-1.1916963E0,-3.596089E-1,-1.1103729E0,4.6184385E-1,-1.1617038E0,-6.751657E-1,-1.1350086E0,-1.8457615E-1,-1.1036408E0,-5.627322E-1,7.306931E-1,-1.8271042E0,-7.4375324E-2,1.1149577E0,-2.2867568E-1,-8.449099E-1,-1.12817965E-1,-1.215024E0,-7.134646E-1,-7.2156686E-1,5.114089E-1,-2.3420045E-2,-6.4156085E-1,-8.8310957E-1,-1.16364E0,-9.393092E-1,3.7232482E-1,-8.448467E-1,-1.1529562E0,-9.482343E-1,7.739987E-1,-2.2426005E-1,-1.4832088E0,-2.454715E-1,-1.1511722E0,-1.1581944E0,-8.332848E-1],"categories":[],"categories_nodes":[],"categories_segments":[],"categories_sizes":[],"default_left":[1,1,1,1,1,1,1,1,1,1,1,1,1,1,1,1,1,1,1,1,1,1,1,1,0,1,1,1,1,1,1,0,0,0,0,0,0,0,0,0,0,0,0,0,0,0,0,0,0,0,0,0,0,0,0,0,0,0,0,0,0],"id":5,"left_children":[1,3,5,7,9,11,13,15,17,19,21,23,25,27,29,31,33,35,37,39,41,43,45,47,-1,49,51,53,55,57,59,-1,-1,-1,-1,-1,-1,-1,-1,-1,-1,-1,-1,-1,-1,-1,-1,-1,-1,-1,-1,-1,-1,-1,-1,-1,-1,-1,-1,-1,-1],"loss_changes":[8.367738E3,2.467663E3,4.2010742E2,7.008926E2,5.4503015E2,2.7675781E1,2.0423415E2,4.1227002E2,1.5397949E2,8.492444E1,3.5445938E2,2.392334E0,4.2638153E1,1.177728E2,5.732773E0,3.340767E1,2.7602063E2,3.220606E1,1.4316406E2,5.218718E1,2.1226227E1,3.869945E2,6.7648445E1,7.5006104E0,0E0,4.9711052E1,1.5960693E0,1.444454E2,1.5277489E1,8.161715E0,5.7357788E-2,0E0,0E0,0E0,0E0,0E0,0E0,0E0,0E0,0E0,0E0,0E0,0E0,0E0,0E0,0E0,0E0,0E0,0E0,0E0,0E0,0E0,0E0,0E0,0E0,0E0,0E0,0E0,0E0,0E0,0E0],"parents":[2147483647,0,0,1,1,2,2,3,3,4,4,5,5,6,6,7,7,8,8,9,9,10,10,11,11,12,12,13,13,14,14,15,15,16,16,17,17,18,18,19,19,20,20,21,21,22,22,23,23,25,25,26,26,27,27,28,28,29,29,30,30],"right_children":[2,4,6,8,10,12,14,16,18,20,22,24,26,28,30,32,34,36,38,40,42,44,46,48,-1,50,52,54,56,58,60,-1,-1,-1,-1,-1,-1,-1,-1,-1,-1,-1,-1,-1,-1,-1,-1,-1,-1,-1,-1,-1,-1,-1,-1,-1,-1,-1,-1,-1,-1],"split_conditions":[5.3461693E-2,3.445285E-2,9.1150504E-1,9.2104965E-1,2.5E0,8.8891935E-1,1.367329E-1,8.45021E-1,-7.8452036E-2,1.1572219E4,1.9679516E4,1.0880896E3,1.1270468E-1,3.8417892E-3,1.8040566E-1,5.0156764E-3,6.0239017E-1,-1.117212E-3,6.886992E-2,1.4250214E-1,1.5E0,-1.2994695E-2,4.636065E-2,1.2353375E-1,-2.5403425E-1,9.0350664E-1,1.4746878E-1,-2.9101376E-3,4.580509E3,9.860021E2,9.544956E-1,-3.934615E-2,-2.3526342E-1,-1.1995779E-1,1.5576206E-1,-3.8948435E-1,-1.585461E-2,2.3767586E-1,-4.874686E-2,-1.801097E-1,-2.4049439E-2,-2.59007E-1,-1.5208946E-1,-1.5381661E-1,1.09017186E-1,-4.992458E-3,-1.3676171E-1,-1.8825272E-1,-2.4805348E-1,-2.002328E-1,7.936859E-2,-1.8009622E-1,-2.4577601E-1,-2.0213538E-1,1.6499352E-1,-4.7805578E-2,-3.1617606E-1,-5.232723E-2,-2.453957E-1,-2.4689265E-1,-1.7763156E-1],"split_indices":[0,5,3,4,9,3,0,3,11,14,14,7,0,6,0,0,12,10,11,5,9,6,5,0,0,4,0,6,14,7,4,0,0,0,0,0,0,0,0,0,0,0,0,0,0,0,0,0,0,0,0,0,0,0,0,0,0,0,0,0,0],"split_type":[0,0,0,0,0,0,0,0,0,0,0,0,0,0,0,0,0,0,0,0,0,0,0,0,0,0,0,0,0,0,0,0,0,0,0,0,0,0,0,0,0,0,0,0,0,0,0,0,0,0,0,0,0,0,0,0,0,0,0,0,0],"sum_hessian":[2.2486057E4,1.9131588E4,3.3544695E3,1.3978591E4,5.1529966E3,2.792739E3,5.617306E2,3.8816897E3,1.00969E4,8.3082886E2,4.3221675E3,2.4510984E3,3.4164066E2,3.7628952E2,1.8544106E2,1.9089207E2,3.6907979E3,4.2680103E1,1.0054221E4,4.8047726E2,3.503516E2,3.6111733E3,7.109943E2,6.332344E2,1.817864E3,1.153353E2,2.2630536E2,3.2549628E2,5.0793236E1,4.028489E1,1.4515616E2,5.6524952E1,1.3436713E2,1.72401E2,3.5183967E3,1.6658365E1,2.6021736E1,9.974599E3,7.9621796E1,1.3476454E2,3.457127E2,1.75479E2,1.7487259E2,2.7471756E2,3.3364558E3,3.305168E2,3.804775E2,1.4184473E2,4.9138962E2,6.4202675E1,5.1132618E1,3.415757E1,1.921478E2,5.8626884E1,2.6686942E2,1.3404868E1,3.7388367E1,2.196901E1,1.831588E1,1.321617E2,1.2994464E1],"tree_param":{"num_deleted":"0","num_feature":"15","num_nodes":"61","size_leaf_vector":"0"}},{"base_weights":[4.3259254E-1,-8.765459E-1,6.682992E-1,-4.429293E-2,-1.0984002E0,8.2485044E-1,-1.8400248E-2,4.7284967E-1,-7.7268857E-1,-9.570643E-1,-1.152717E0,8.6085105E-1,-8.574846E-1,-5.6787723E-1,1.2116646E-1,-8.707371E-1,6.222499E-1,-3.3856398E-1,-1.1148793E0,-7.0865035E-1,-1.1121867E0,-9.2645377E-1,-1.1562022E0,1.011806E0,5.4126847E-1,-2.551181E-1,-1.0469551E0,3.2941347E-1,-6.511315E-1,-1.9658105E-1,3.2376632E-1,4.405954E-1,-9.979183E-1,7.301946E-1,-8.422901E-1,-6.8415546E-1,2.613386E-1,-1.1830031E0,-6.133412E-1,-1.5747885E-1,-1.0249058E0,-1.1185656E0,-7.5300074E-1,3.6957926E-1,-1.1504683E0,-1.260615E0,-1.1408783E0,-2.2859853E-2,1.0378004E0,7.620672E-1,1.6481562E-1,-1.175632E0,1.8729441E-1,-7.450146E-1,-1.1088991E0,6.023137E-1,-9.411325E-1,-6.925134E-1,7.329089E-2,5.749757E-2,-5.6846255E-1,4.3521196E-1,-6.331943E-1],"categories":[],"categories_nodes":[],"categories_segments":[],"categories_sizes":[],"default_left":[1,1,1,1,1,1,1,1,1,1,1,1,1,1,1,1,1,1,1,1,1,1,1,1,1,1,1,1,1,1,1,0,0,0,0,0,0,0,0,0,0,0,0,0,0,0,0,0,0,0,0,0,0,0,0,0,0,0,0,0,0,0,0],"id":6,"left_children":[1,3,5,7,9,11,13,15,17,19,21,23,25,27,29,31,33,35,37,39,41,43,45,47,49,51,53,55,57,59,61,-1,-1,-1,-1,-1,-1,-1,-1,-1,-1,-1,-1,-1,-1,-1,-1,-1,-1,-1,-1,-1,-1,-1,-1,-1,-1,-1,-1,-1,-1,-1,-1],"loss_changes":[6.2082744E3,5.667693E2,1.8327964E3,2.441359E2,1.7503906E1,8.415928E2,2.4287111E2,7.663437E1,3.9594223E1,2.5367676E1,3.0541992E-1,6.552197E2,3.2987366E1,4.813434E1,1.6265117E2,6.835581E0,5.4638092E1,2.5065697E1,4.400528E0,4.580046E1,1.11083984E-1,9.575781E0,1.3066406E0,2.4829883E2,3.6252893E2,2.9151642E1,3.3135223E0,1.968176E1,1.7658035E1,9.3006165E1,1.6479536E2,0E0,0E0,0E0,0E0,0E0,0E0,0E0,0E0,0E0,0E0,0E0,0E0,0E0,0E0,0E0,0E0,0E0,0E0,0E0,0E0,0E0,0E0,0E0,0E0,0E0,0E0,0E0,0E0,0E0,0E0,0E0,0E0],"parents":[2147483647,0,0,1,1,2,2,3,3,4,4,5,5,6,6,7,7,8,8,9,9,10,10,11,11,12,12,13,13,14,14,15,15,16,16,17,17,18,18,19,19,20,20,21,21,22,22,23,23,24,24,25,25,26,26,27,27,28,28,29,29,30,30],"right_children":[2,4,6,8,10,12,14,16,18,20,22,24,26,28,30,32,34,36,38,40,42,44,46,48,50,52,54,56,58,60,62,-1,-1,-1,-1,-1,-1,-1,-1,-1,-1,-1,-1,-1,-1,-1,-1,-1,-1,-1,-1,-1,-1,-1,-1,-1,-1,-1,-1,-1,-1,-1,-1],"split_conditions":[8.9130604E-1,2.1507766E-2,5E-1,2.4373827E0,1.0629976E3,1.0567717E-1,-3.701237E-3,-4.1376017E-3,9.7524225E2,1.2353375E-1,2.6116785E-2,2.5202356E-2,1.4731055E-1,1.7961778E-2,5E-1,-8.203148E-2,4.93168E-2,9.1314274E-1,8.795289E-1,1.7349148E0,9.4888145E-1,1.4420149E0,6.136296E-2,5.5378014E-1,3.5E0,-2.0723834E-3,1.943143E-1,2.1295317E-2,3.9554375E-1,1.4163963E4,3.6353722E-2,9.392185E-2,-2.1272653E-1,1.556558E-1,-1.7955123E-1,-1.4584161E-1,5.5709623E-2,-2.521811E-1,-1.3074613E-1,-3.3569813E-2,-2.1847947E-1,-2.3844494E-1,-1.6051738E-1,7.878332E-2,-2.4524567E-1,-2.6872566E-1,-2.4320136E-1,-4.8730415E-3,2.2122821E-1,1.6245009E-1,3.5133794E-2,-2.5060982E-1,3.9925605E-2,-1.5881498E-1,-2.3638435E-1,1.2839538E-1,-2.0062149E-1,-1.4762329E-1,1.5623441E-2,1.2256773E-2,-1.2117933E-1,9.277426E-2,-1.3497822E-1],"split_indices":[3,0,2,12,7,0,10,6,7,0,0,5,0,5,1,6,11,4,3,12,4,12,0,12,8,6,0,0,5,14,10,0,0,0,0,0,0,0,0,0,0,0,0,0,0,0,0,0,0,0,0,0,0,0,0,0,0,0,0,0,0,0,0],"split_type":[0,0,0,0,0,0,0,0,0,0,0,0,0,0,0,0,0,0,0,0,0,0,0,0,0,0,0,0,0,0,0,0,0,0,0,0,0,0,0,0,0,0,0,0,0,0,0,0,0,0,0,0,0,0,0,0,0,0,0,0,0,0,0],"sum_hessian":[2.0116426E4,3.0688738E3,1.704755E4,6.461479E2,2.422726E3,1.3882475E4,3.165077E3,3.7807498E2,2.6807288E2,6.777619E2,1.7449641E3,1.3592103E4,2.9037195E2,6.4046893E2,2.524608E3,3.735006E1,3.407249E2,1.190403E2,1.490326E2,2.6267728E2,4.1508463E2,3.0517878E1,1.7144463E3,9.230098E3,4.362005E3,7.004156E1,2.2033038E2,5.4128708E1,5.863402E2,9.829803E2,1.5416277E3,3.084302E0,3.426576E1,3.1780252E2,2.292239E1,7.544027E1,4.3600025E1,1.3001405E2,1.9018538E1,9.631574E1,1.6636154E2,4.0576437E2,9.320252E0,4.4017587E0,2.611612E1,2.0901454E2,1.5054316E3,2.2621213E2,9.003886E3,2.7487637E3,1.6132411E3,2.2197855E1,4.7843704E1,3.972449E1,1.8060588E2,4.4991035E1,9.137672E0,5.5469775E2,3.164249E1,5.8448865E2,3.9849167E2,1.3813086E3,1.603191E2],"tree_param":{"num_deleted":"0","num_feature":"15","num_nodes":"63","size_leaf_vector":"0"}},{"base_weights":[3.864331E-1,5.9738886E-1,-8.290595E-1,8.8571876E-1,1.9987316E-1,-1.0204339E0,-4.8135012E-2,-1.0893959E0,9.0815157E-1,-2.9209676E-1,3.4634253E-1,-1.0875455E0,-7.4068725E-1,1.9436403E-1,-1.0799181E0,-3.6395687E-1,-1.6510534E0,5.8743185E-1,1.0232147E0,-5.573524E-1,5.3971243E-4,6.6956586E-1,1.3511495E-1,-1.0077806E0,-1.1209427E0,-3.5414535E-1,-1.0624499E0,-9.96386E-1,5.5831486E-1,-1.8360136E-1,-1.2797673E0,6.1293465E-1,-9.182525E-1,-2.6586204E0,-1.1772476E0,6.355853E-1,-1.1121926E0,1.0329536E0,-4.4690195E-1,-4.6206486E-1,-1.153015E0,1.6492559E-1,-7.975171E-1,7.5497127E-1,-8.6191195E-1,-3.4974217E-2,4.7300103E-1,-8.3418864E-1,-1.1093025E0,-1.3419342E0,-1.1113722E0,2.3407124E-1,-9.6549463E-1,-9.523046E-1,-1.1108559E0,-3.6904103E-1,-1.1644582E0,-9.0898496E-1,6.899807E-1,5.729273E-1,-5.943307E-1,-1.2990155E0,5.238985E-2],"categories":[],"categories_nodes":[],"categories_segments":[],"categories_sizes":[],"default_left":[1,1,1,1,1,1,1,1,1,1,1,1,1,1,1,1,1,1,1,1,1,1,1,1,1,1,1,1,1,1,1,0,0,0,0,0,0,0,0,0,0,0,0,0,0,0,0,0,0,0,0,0,0,0,0,0,0,0,0,0,0,0,0],"id":7,"left_children":[1,3,5,7,9,11,13,15,17,19,21,23,25,27,29,31,33,35,37,39,41,43,45,47,49,51,53,55,57,59,61,-1,-1,-1,-1,-1,-1,-1,-1,-1,-1,-1,-1,-1,-1,-1,-1,-1,-1,-1,-1,-1,-1,-1,-1,-1,-1,-1,-1,-1,-1,-1,-1],"loss_changes":[4.6213267E3,1.7599058E3,3.9830847E2,3.9533594E2,4.6539224E2,3.9386475E1,1.317416E2,4.0309364E1,3.2417725E2,1.15032295E2,3.3965338E2,3.4641113E0,5.153148E1,1.8539035E2,1.7712448E1,2.4982533E1,2.3751312E1,1.9108209E2,9.3177246E1,4.358777E1,9.269799E1,2.5785687E2,1.7304633E2,8.218384E0,1.060669E0,6.8943054E1,1.538086E-1,1.0135422E1,6.3859E1,6.379319E0,2.1644745E0,0E0,0E0,0E0,0E0,0E0,0E0,0E0,0E0,0E0,0E0,0E0,0E0,0E0,0E0,0E0,0E0,0E0,0E0,0E0,0E0,0E0,0E0,0E0,0E0,0E0,0E0,0E0,0E0,0E0,0E0,0E0,0E0],"parents":[2147483647,0,0,1,1,2,2,3,3,4,4,5,5,6,6,7,7,8,8,9,9,10,10,11,11,12,12,13,13,14,14,15,15,16,16,17,17,18,18,19,19,20,20,21,21,22,22,23,23,24,24,25,25,26,26,27,27,28,28,29,29,30,30],"right_children":[2,4,6,8,10,12,14,16,18,20,22,24,26,28,30,32,34,36,38,40,42,44,46,48,50,52,54,56,58,60,62,-1,-1,-1,-1,-1,-1,-1,-1,-1,-1,-1,-1,-1,-1,-1,-1,-1,-1,-1,-1,-1,-1,-1,-1,-1,-1,-1,-1,-1,-1,-1,-1],"split_conditions":[4.687821E-2,2.6279781E-2,9.1569126E-1,-5.4235063E-2,3.5E0,9.032204E-1,3.128862E-3,1.9549998E4,9.209435E-1,9.2553234E-1,2.5E0,1.442904E3,1.4739728E-1,-3.3577234E-3,3.6956548E3,2.5E0,-9.131698E-2,6.4418158E-3,6.3269675E-2,2.4419443E3,2.4498943E4,1.8910551E-2,9.263176E-1,2.7163076E4,5.6667604E-2,1.9865608E0,1.1811227E0,4.1165522E3,5E-1,1.2996793E-2,9.6318144E-1,1.3065946E-1,-1.9574416E-1,-5.6673884E-1,-2.509542E-1,1.354879E-1,-2.3708643E-1,2.2019503E-1,-9.5266216E-2,-9.84985E-2,-2.4578854E-1,3.5157237E-2,-1.7000696E-1,1.6093744E-1,-1.8373401E-1,-7.455464E-3,1.00829765E-1,-1.7782423E-1,-2.3647034E-1,-2.860605E-1,-2.3691154E-1,4.9897034E-2,-2.0581476E-1,-2.0300305E-1,-2.3680148E-1,-7.866858E-2,-2.4822788E-1,-1.9376859E-1,1.4708339E-1,1.2213108E-1,-1.2669365E-1,-2.7691153E-1,1.1167959E-2],"split_indices":[0,5,3,11,9,4,6,14,4,4,8,7,0,6,14,8,11,6,11,7,14,6,4,14,0,12,12,14,1,6,3,0,0,0,0,0,0,0,0,0,0,0,0,0,0,0,0,0,0,0,0,0,0,0,0,0,0,0,0,0,0,0,0],"split_type":[0,0,0,0,0,0,0,0,0,0,0,0,0,0,0,0,0,0,0,0,0,0,0,0,0,0,0,0,0,0,0,0,0,0,0,0,0,0,0,0,0,0,0,0,0,0,0,0,0,0,0,0,0,0,0,0,0,0,0,0,0,0,0],"sum_hessian":[1.8019898E4,1.5355392E4,2.6645083E3,8.899264E3,6.456128E3,2.1398154E3,5.246928E2,9.9406006E1,8.799857E3,1.4809227E3,4.975205E3,1.7234661E3,4.1634937E2,4.2549963E2,9.919316E1,4.409751E1,5.5308495E1,2.325107E3,6.4747505E3,7.76328E2,7.045948E2,1.9654606E3,3.0097444E3,5.178426E2,1.2056235E3,1.9008997E2,2.262594E2,9.92014E1,3.2629822E2,1.843436E1,8.07588E1,1.5925174E1,2.8172338E1,1.6215143E1,3.9093353E1,2.261656E3,6.3450817E1,6.4324355E3,4.231518E1,6.70797E2,1.0553102E2,5.8490735E2,1.1968742E2,1.8621232E3,1.0333737E2,2.0025654E3,1.007179E3,1.9449432E2,3.233483E2,4.426563E1,1.1613579E3,9.719237E1,9.2897606E1,7.53889E1,1.508705E2,2.1636578E1,7.756482E1,2.6382692E1,2.9991553E2,6.347642E0,1.20867195E1,7.9633064E1,1.1257311E0],"tree_param":{"num_deleted":"0","num_feature":"15","num_nodes":"63","size_leaf_vector":"0"}},{"base_weights":[3.4309286E-1,-8.337653E-1,5.2502525E-1,-1.6245168E-1,-1.0221852E0,8.229204E-1,2.0490125E-1,-7.571615E-1,2.4195924E-1,-8.687022E-1,-1.0841464E0,8.713708E-1,-6.3081247E-1,-4.698251E-1,2.9863372E-1,-9.024618E-1,3.5954244E-2,-1.1295635E0,3.847274E-1,-6.312488E-1,-1.0471374E0,-1.0848902E0,-2.3590855E-1,-1.9059055E-1,9.0619415E-1,-1.6031803E-1,-1.0191222E0,-8.868021E-1,-3.2251692E-1,4.2854497E-1,-2.5903177E-1,-7.0857304E-1,-1.1919346E0,-7.3142153E-1,4.070055E-1,-1.3046709E0,9.7856306E-2,5.418445E-1,-6.182949E-1,-1.2117165E0,-3.7949616E-1,-1.0505095E0,-5.5337597E-2,-1.164894E0,6.397764E-2,-6.172983E-1,9.243848E-1,2.501186E-1,-9.753264E-1,-1.0259287E0,-2.5758728E-1,-1.2530597E0,-4.7548157E-1,-7.3505855E-1,-4.3722738E-2,5.852226E-1,-1.5515932E-1,-3.308203E-2,-5.9692675E-1],"categories":[],"categories_nodes":[],"categories_segments":[],"categories_sizes":[],"default_left":[1,1,1,1,1,1,1,1,1,1,1,1,1,1,1,1,1,1,1,1,1,0,0,1,1,1,1,1,1,1,1,0,0,0,0,0,0,0,0,0,0,0,0,0,0,0,0,0,0,0,0,0,0,0,0,0,0,0,0],"id":8,"left_children":[1,3,5,7,9,11,13,15,17,19,21,23,25,27,29,31,33,35,37,39,41,-1,-1,43,45,47,49,51,53,55,57,-1,-1,-1,-1,-1,-1,-1,-1,-1,-1,-1,-1,-1,-1,-1,-1,-1,-1,-1,-1,-1,-1,-1,-1,-1,-1,-1,-1],"loss_changes":[3.4802944E3,2.7513904E2,1.3422849E3,1.15192764E2,1.5218628E1,5.141157E2,4.2936246E2,2.2365974E1,5.6317898E1,2.0259247E1,5.0549316E-1,2.6113623E2,4.2908257E1,5.0585724E1,4.3186505E2,8.350525E0,9.115633E0,5.9654694E0,4.11883E1,3.0865456E1,8.796387E-1,0E0,0E0,5.585056E1,1.8993066E2,3.6298416E1,4.042511E-1,3.1889236E1,7.053727E1,4.421723E2,8.599548E1,0E0,0E0,0E0,0E0,0E0,0E0,0E0,0E0,0E0,0E0,0E0,0E0,0E0,0E0,0E0,0E0,0E0,0E0,0E0,0E0,0E0,0E0,0E0,0E0,0E0,0E0,0E0,0E0],"parents":[2147483647,0,0,1,1,2,2,3,3,4,4,5,5,6,6,7,7,8,8,9,9,10,10,11,11,12,12,13,13,14,14,15,15,16,16,17,17,18,18,19,19,20,20,23,23,24,24,25,25,26,26,27,27,28,28,29,29,30,30],"right_children":[2,4,6,8,10,12,14,16,18,20,22,24,26,28,30,32,34,36,38,40,42,-1,-1,44,46,48,50,52,54,56,58,-1,-1,-1,-1,-1,-1,-1,-1,-1,-1,-1,-1,-1,-1,-1,-1,-1,-1,-1,-1,-1,-1,-1,-1,-1,-1,-1,-1],"split_conditions":[8.86094E-1,1.9653093E-2,2.4142817E-2,1.2947856E4,1.0629976E3,8.160213E-2,-5.3789383E-3,9.293765E-1,-8.54975E-3,1.2353375E-1,3.1685742E4,-7.331115E-3,1.8028209E-1,3.5E0,1.1770773E-2,2.2539822E-3,-4.1964315E-3,2.6623704E-2,4.3825423E-3,-4.1120052E-3,8.857397E-1,-2.3126636E-1,-5.0288696E-2,-1.4901154E-2,-4.998293E-2,1.4043096E3,1.2206544E5,1.0934627E-1,-1.2708185E-2,2.2395328E4,5.2418486E3,-1.5104672E-1,-2.5408503E-1,-1.5591735E-1,8.6761475E-2,-2.781171E-1,2.0860057E-2,1.15505144E-1,-1.318021E-1,-2.5830197E-1,-8.089731E-2,-2.239374E-1,-1.1796332E-2,-2.4832079E-1,1.3638131E-2,-1.3158967E-1,1.9705138E-1,5.3317856E-2,-2.0791061E-1,-2.1869753E-1,-5.4909956E-2,-2.6711512E-1,-1.0135855E-1,-1.5669264E-1,-9.320389E-3,1.24752074E-1,-3.307536E-2,-7.052106E-3,-1.2724705E-1],"split_indices":[3,0,5,13,7,0,10,4,6,0,7,10,0,9,10,6,6,10,6,6,3,0,0,10,11,7,13,5,10,14,14,0,0,0,0,0,0,0,0,0,0,0,0,0,0,0,0,0,0,0,0,0,0,0,0,0,0,0,0],"split_type":[0,0,0,0,0,0,0,0,0,0,0,0,0,0,0,0,0,0,0,0,0,0,0,0,0,0,0,0,0,0,0,0,0,0,0,0,0,0,0,0,0,0,0,0,0,0,0,0,0,0,0,0,0,0,0,0,0,0,0],"sum_hessian":[1.6251761E4,2.1755156E3,1.4076245E4,4.77196E2,1.6983196E3,7.290456E3,6.785789E3,1.9280006E2,2.8439597E2,4.927513E2,1.2055684E3,7.055702E3,2.3475378E2,8.272048E2,5.9585845E3,1.628312E2,2.9968855E1,2.6161348E1,2.5823462E2,2.1335968E2,2.7939163E2,1.2042333E3,1.3350923E0,2.2387918E2,6.831823E3,1.0678314E2,1.27970634E2,2.1463354E2,6.125712E2,4.832953E3,1.1256312E3,9.95802E1,6.3251003E1,9.451296E0,2.051756E1,2.2839989E1,3.3213606E0,2.2365956E2,3.4575058E1,6.3389336E1,1.4997035E2,2.7838593E2,1.0057034E0,4.5637142E1,1.7824203E2,8.022154E1,6.7516016E3,7.147938E1,3.5303764E1,1.2649287E2,1.4777682E0,1.1245356E2,1.02179985E2,2.463709E2,3.6620032E2,3.8102144E3,1.0227387E3,6.752145E2,4.5041678E2],"tree_param":{"num_deleted":"0","num_feature":"15","num_nodes":"59","size_leaf_vector":"0"}},{"base_weights":[3.0270192E-1,4.6723482E-1,-7.4145025E-1,8.3364224E-1,1.9704635E-1,-9.8122895E-1,-1.975885E-1,2.6053286E-1,9.1619056E-1,2.8666574E-1,-4.7182992E-1,-7.9272175E-1,-1.052401E0,4.779421E-2,-1.1019897E0,-1.2722517E0,3.416059E-1,-4.4755062E-1,9.375213E-1,4.4339022E-1,-8.512972E-2,-4.2224902E-1,-1.1398094E0,-4.6406054E-1,-1.0658412E0,-1.1029421E0,2.1616837E-1,-5.655926E-2,-1.1169008E0,-1.3415202E0,-4.2429358E-2,-8.61378E-1,4.420585E-1,-1.3309648E0,9.139768E-2,9.5203656E-1,-6.0195893E-1,2.2236605E-1,7.171967E-1,-4.8896906E-1,7.910736E-2,-3.1595907E-1,-6.7254186E-1,3.3219123E-1,-1.1829219E0,-1.1666943E-1,-1.1301446E0,-1.2748628E0,-1.006558E0,-1.1958305E0,1.4528587E-1,4.613157E-1,-9.285233E-1,-1.1554017E0,-6.971991E-1],"categories":[],"categories_nodes":[],"categories_segments":[],"categories_sizes":[],"default_left":[1,1,1,1,1,1,1,1,1,1,1,1,0,1,1,1,1,1,1,1,1,1,1,1,1,1,1,0,1,0,0,0,0,0,0,0,0,0,0,0,0,0,0,0,0,0,0,0,0,0,0,0,0,0,0],"id":9,"left_children":[1,3,5,7,9,11,13,15,17,19,21,23,-1,25,27,29,31,33,35,37,39,41,43,45,47,49,51,-1,53,-1,-1,-1,-1,-1,-1,-1,-1,-1,-1,-1,-1,-1,-1,-1,-1,-1,-1,-1,-1,-1,-1,-1,-1,-1,-1],"loss_changes":[2.5328938E3,1.2606284E3,2.61542E2,2.554646E2,4.396145E2,1.7850952E1,1.366203E2,8.517105E1,1.3784033E2,3.767989E2,2.8220306E1,3.4132553E1,0E0,9.421028E1,1.984726E0,2.8792229E0,7.8737785E1,3.5082466E1,1.0451807E2,2.7511542E2,1.27263084E2,2.1291977E1,4.155731E0,4.078945E1,1.3178864E0,7.370613E0,1.19392006E2,0E0,1.2865906E0,0E0,0E0,0E0,0E0,0E0,0E0,0E0,0E0,0E0,0E0,0E0,0E0,0E0,0E0,0E0,0E0,0E0,0E0,0E0,0E0,0E0,0E0,0E0,0E0,0E0,0E0],"parents":[2147483647,0,0,1,1,2,2,3,3,4,4,5,5,6,6,7,7,8,8,9,9,10,10,11,11,13,13,14,14,15,15,16,16,17,17,18,18,19,19,20,20,21,21,22,22,23,23,24,24,25,25,26,26,28,28],"right_children":[2,4,6,8,10,12,14,16,18,20,22,24,-1,26,28,30,32,34,36,38,40,42,44,46,48,50,52,-1,54,-1,-1,-1,-1,-1,-1,-1,-1,-1,-1,-1,-1,-1,-1,-1,-1,-1,-1,-1,-1,-1,-1,-1,-1,-1,-1],"split_conditions":[4.6421103E-2,2.161001E-2,9.0297455E-1,8.917946E-1,3.5E0,1.2729372E-1,1.7868353E3,-7.3768464E-3,4.6322805E-1,6.2362846E-2,5.8580693E-3,1.7555333E3,-2.2434062E-1,-7.961785E-3,9.0355027E-1,9.425168E-1,7.4722195E-1,4.5E0,5.029146E-2,9.2830503E-1,9.0874994E-1,5.4103598E-2,-1.0985952E1,3.4039612E-3,5.6891125E-2,5.1651523E-2,3.607417E-3,-1.2056754E-2,5.5E0,-2.8597224E-1,-9.044679E-3,-1.836202E-1,9.423374E-2,-2.8372216E-1,1.948327E-2,2.029459E-1,-1.2831976E-1,4.7401834E-2,1.5288503E-1,-1.04233675E-1,1.6863339E-2,-6.7353085E-2,-1.4336595E-1,7.08133E-2,-2.521638E-1,-2.4870457E-2,-2.4091326E-1,-2.7176288E-1,-2.1456824E-1,-2.5491554E-1,3.0970631E-2,9.83388E-2,-1.9793358E-1,-2.4629731E-1,-1.4862214E-1],"split_indices":[0,5,3,4,2,0,7,6,12,5,6,7,0,6,3,3,12,9,11,4,4,11,11,6,0,10,6,0,9,0,0,0,0,0,0,0,0,0,0,0,0,0,0,0,0,0,0,0,0,0,0,0,0,0,0],"split_type":[0,0,0,0,0,0,0,0,0,0,0,0,0,0,0,0,0,0,0,0,0,0,0,0,0,0,0,0,0,0,0,0,0,0,0,0,0,0,0,0,0,0,0,0,0,0,0,0,0,0,0,0,0,0,0],"sum_hessian":[1.4740479E4,1.27344E4,2.0060781E3,5.4039375E3,7.3304624E3,1.3916992E3,6.143789E2,6.808872E2,4.7230503E3,6.4648423E3,8.656205E2,3.8475888E2,1.0069403E3,4.8400543E2,1.3037349E2,3.3466656E1,6.4742053E2,7.242942E1,4.650621E3,4.5476567E3,1.9171853E3,8.0732855E2,5.8291954E1,1.7584865E2,2.0891023E2,6.1071033E1,4.229344E2,1.9007827E0,1.2847272E2,3.1596209E1,1.8704488E0,4.9311306E1,5.981092E2,2.6887445E1,4.5541973E1,4.6075596E3,4.3061646E1,2.5173745E3,2.0302823E3,5.537075E2,1.3634778E3,5.682686E2,2.3905995E2,1.467901E0,5.682405E1,1.1634497E2,5.9503685E1,4.162919E1,1.6728104E2,5.6880203E1,4.19083E0,3.4882663E2,7.4107765E1,1.1607206E2,1.2400653E1],"tree_param":{"num_deleted":"0","num_feature":"15","num_nodes":"55","size_leaf_vector":"0"}},{"base_weights":[2.654863E-1,-7.7578825E-1,4.051132E-1,-2.3246711E-1,-9.6035075E-1,7.515715E-1,1.6905487E-1,-9.425998E-1,-6.3446346E-3,-7.875057E-1,-1.0313596E0,7.8699565E-1,-1.1164764E0,2.8063673E-1,-2.408973E-1,-9.7054076E-1,7.46431E-1,3.300722E-1,-7.990026E-1,-1.0854952E0,-6.258185E-1,-8.543322E-1,-1.044244E0,-1.0534767E0,8.2055634E-1,-2.5067353E-1,-1.2898576E0,4.879876E-1,-1.4223392E-2,-8.521305E-1,-1.3187177E-1,-3.646861E-1,-1.0341666E0,5.770425E-1,-1.8303333E-1,-2.0375505E-1,-9.958463E-1,-4.8873594E-1,-1.1145493E0,-1.4560348E-2,-1.0536276E0,-3.9319775E-1,-1.1052874E0,-1.0454534E0,-3.205029E-1,-7.799654E-2,-1.3392663E0,-1.9880192E-1,8.6035687E-1,4.1727316E-1,-1.0697402E0,-1.575226E0,-1.0494791E0,-9.8174834E-1,5.3766966E-1,3.7242968E-2,-8.645137E-1,-9.534101E-1,8.083366E-3,7.297773E-2,-6.661448E-1],"categories":[],"categories_nodes":[],"categories_segments":[],"categories_sizes":[],"default_left":[1,1,1,1,1,1,1,1,1,1,1,1,1,1,1,1,0,1,1,1,1,1,1,1,1,1,1,1,1,1,1,0,0,0,0,0,0,0,0,0,0,0,0,0,0,0,0,0,0,0,0,0,0,0,0,0,0,0,0,0,0],"id":10,"left_children":[1,3,5,7,9,11,13,15,17,19,21,23,25,27,29,31,-1,33,35,37,39,41,43,45,47,49,51,53,55,57,59,-1,-1,-1,-1,-1,-1,-1,-1,-1,-1,-1,-1,-1,-1,-1,-1,-1,-1,-1,-1,-1,-1,-1,-1,-1,-1,-1,-1,-1,-1],"loss_changes":[1.9571034E3,1.5938623E2,9.705071E2,6.50131E1,1.3766113E1,3.1912085E2,3.2301675E2,5.339287E0,8.24289E1,1.6189087E1,1.020813E0,2.9242334E2,1.3173927E1,3.3933203E2,1.0058268E2,3.3477325E0,0E0,2.7607176E1,1.0588524E1,1.566803E0,5.995215E1,6.786392E0,3.4521484E-1,2.3583534E1,1.8826953E2,9.332643E0,3.4689865E0,2.3846722E2,1.00352425E2,1.9918716E1,1.4052072E2,0E0,0E0,0E0,0E0,0E0,0E0,0E0,0E0,0E0,0E0,0E0,0E0,0E0,0E0,0E0,0E0,0E0,0E0,0E0,0E0,0E0,0E0,0E0,0E0,0E0,0E0,0E0,0E0,0E0,0E0],"parents":[2147483647,0,0,1,1,2,2,3,3,4,4,5,5,6,6,7,7,8,8,9,9,10,10,11,11,12,12,13,13,14,14,15,15,17,17,18,18,19,19,20,20,21,21,22,22,23,23,24,24,25,25,26,26,27,27,28,28,29,29,30,30],"right_children":[2,4,6,8,10,12,14,16,18,20,22,24,26,28,30,32,-1,34,36,38,40,42,44,46,48,50,52,54,56,58,60,-1,-1,-1,-1,-1,-1,-1,-1,-1,-1,-1,-1,-1,-1,-1,-1,-1,-1,-1,-1,-1,-1,-1,-1,-1,-1,-1,-1,-1,-1],"split_conditions":[8.828062E-1,2.0413607E-2,2.161001E-2,-4.0802862E-3,9.8316736E2,6.228381E-3,2.2973465E4,9.598043E-1,4.0254416E-3,-4.1120052E-3,3.3476654E-2,-6.73561E-3,4.981497E-1,5.450903E-2,-5.536126E-2,-8.854941E-2,1.5911691E-1,1.2547516E3,2.5E0,3.0778115E3,2.743259E-3,2.2544637E0,8.824137E-1,1.6642712E-2,6.1097074E-1,1.7709889E-2,8.104491E-2,-6.4520827E-3,2.2256821E3,8.830189E0,3.2279357E-2,-7.7740245E-2,-2.2045359E-1,1.2300832E-1,-3.9017268E-2,-4.3434523E-2,-2.1228483E-1,-1.0418398E-1,-2.375888E-1,-3.1038336E-3,-2.246021E-1,-8.381808E-2,-2.3561445E-1,-2.228596E-1,-6.83217E-2,-1.6626544E-2,-2.854918E-1,-4.2378664E-2,1.8340252E-1,8.895024E-2,-2.2803682E-1,-3.3579138E-1,-2.2371776E-1,-2.0927958E-1,1.14615194E-1,7.939094E-3,-1.8428864E-1,-2.0323871E-1,1.7231335E-3,1.5556684E-2,-1.4200228E-1],"split_indices":[3,0,5,6,7,6,14,4,6,6,0,6,7,5,11,6,0,7,8,14,6,12,3,0,12,0,0,6,7,12,11,0,0,0,0,0,0,0,0,0,0,0,0,0,0,0,0,0,0,0,0,0,0,0,0,0,0,0,0,0,0],"split_type":[0,0,0,0,0,0,0,0,0,0,0,0,0,0,0,0,0,0,0,0,0,0,0,0,0,0,0,0,0,0,0,0,0,0,0,0,0,0,0,0,0,0,0,0,0,0,0,0,0,0,0,0,0,0,0,0,0,0,0,0,0],"sum_hessian":[1.3457904E4,1.5906907E3,1.1867213E4,4.0390918E2,1.1867815E3,4.80817E3,7.0590435E3,9.678609E1,3.0712308E2,3.4910422E2,8.376773E2,4.7192563E3,8.891346E1,5.5490137E3,1.5100299E3,9.562951E1,1.1565776E0,2.1602303E2,9.110007E1,1.2078463E2,2.283196E2,6.139831E1,7.76279E2,8.396954E1,4.6352866E3,1.5242705E1,7.367075E1,3.2575745E3,2.2914392E3,2.2754141E2,1.2824885E3,9.728167E0,8.590134E1,1.4574686E2,7.027615E1,2.3145147E1,6.795492E1,6.4349437E0,1.14349686E2,9.4430435E1,1.3388916E2,2.2542639E1,3.885567E1,7.745402E2,1.7387925E0,1.9314983E1,6.465456E1,1.7403218E2,4.4612544E3,8.666085E0,6.5766196E0,3.1144297E1,4.2526455E1,1.05902954E2,3.1516716E3,2.1615603E3,1.2987871E2,2.0347624E2,2.4065163E1,9.2766797E2,3.5482053E2],"tree_param":{"num_deleted":"0","num_feature":"15","num_nodes":"61","size_leaf_vector":"0"}},{"base_weights":[2.3066154E-1,-1.3758236E-1,5.594094E-1,4.9949724E-2,-8.5373634E-1,7.5482434E-1,1.6099541E-1,1.310799E-1,-6.042816E-1,-6.034485E-1,-1.0142266E0,8.0492157E-1,-4.0164793E-1,-2.4033493E-1,3.3319402E-1,-3.9379907E-1,2.4344018E-1,-1.5974759E0,-4.8149517E-1,-3.5624096E-1,-9.506072E-1,-1.0188369E0,-4.2084936E-2,-5.228376E-2,8.717455E-1,6.5464795E-2,-7.73711E-1,-1.6414742E-1,-8.7856907E-1,5.719207E-1,-1.9552797E-1,-2.0725553E-1,-1.0915011E0,-4.585099E-1,3.1576726E-1,-1.6636506E0,5.707684E-1,-8.4985137E-1,-3.2538334E-1,-1.4965351E-1,-1.0216728E0,-9.761681E-1,3.254684E-1,-9.075903E-1,-1.0504878E0,4.2294976E-1,-4.0103617E-1,-1.0873737E0,1.4248037E-1,-2.0300739E-1,8.909283E-1,4.2789197E-1,-1.0309681E0,-3.4559944E-1,-1.3477746E0,-6.001509E-1,-5.0407853E-2,-1.0657784E0,1.317038E-1,-9.5478475E-1,6.3321364E-1,-7.2070396E-1,-5.1027134E-2],"categories":[],"categories_nodes":[],"categories_segments":[],"categories_sizes":[],"default_left":[1,1,1,1,1,1,1,1,1,1,1,1,1,1,1,1,1,1,1,1,1,1,1,1,1,1,1,1,1,1,1,0,0,0,0,0,0,0,0,0,0,0,0,0,0,0,0,0,0,0,0,0,0,0,0,0,0,0,0,0,0,0,0],"id":11,"left_children":[1,3,5,7,9,11,13,15,17,19,21,23,25,27,29,31,33,35,37,39,41,43,45,47,49,51,53,55,57,59,61,-1,-1,-1,-1,-1,-1,-1,-1,-1,-1,-1,-1,-1,-1,-1,-1,-1,-1,-1,-1,-1,-1,-1,-1,-1,-1,-1,-1,-1,-1,-1,-1],"loss_changes":[1.4987781E3,7.843629E2,5.0912708E2,2.457778E2,4.8071045E1,2.5455664E2,1.4892084E2,2.430241E2,6.1533478E1,4.051013E1,3.2601929E0,2.4099072E2,3.183186E1,3.1327354E1,1.9038878E2,9.435281E1,1.7243031E2,8.952881E0,2.595166E1,3.828521E1,6.755417E0,1.6290283E0,9.2439413E-1,6.166975E1,8.06311E1,3.302552E1,2.4569386E1,2.8704285E1,1.31511E1,9.781387E1,3.5606224E1,0E0,0E0,0E0,0E0,0E0,0E0,0E0,0E0,0E0,0E0,0E0,0E0,0E0,0E0,0E0,0E0,0E0,0E0,0E0,0E0,0E0,0E0,0E0,0E0,0E0,0E0,0E0,0E0,0E0,0E0,0E0,0E0],"parents":[2147483647,0,0,1,1,2,2,3,3,4,4,5,5,6,6,7,7,8,8,9,9,10,10,11,11,12,12,13,13,14,14,15,15,16,16,17,17,18,18,19,19,20,20,21,21,22,22,23,23,24,24,25,25,26,26,27,27,28,28,29,29,30,30],"right_children":[2,4,6,8,10,12,14,16,18,20,22,24,26,28,30,32,34,36,38,40,42,44,46,48,50,52,54,56,58,60,62,-1,-1,-1,-1,-1,-1,-1,-1,-1,-1,-1,-1,-1,-1,-1,-1,-1,-1,-1,-1,-1,-1,-1,-1,-1,-1,-1,-1,-1,-1,-1,-1],"split_conditions":[9.234351E-1,4.3155394E-2,3.445285E-2,9.1007546E-2,1.1701687E3,7.330113E-3,1.0870605E3,-6.070352E-2,3.6326855E-2,1.4460348E-1,9.499377E-1,-4.1861716E-3,2.0355064E-2,5.1927388E-2,1.3526367E4,1.823242E4,7.2713125E-1,5.473189E4,1.3756284E-3,2.8754645E-3,9.44199E-1,2.6113774E3,7.51703E-2,-1.1507759E-2,4.509999E-1,4.26578E-2,1.9898768E4,-2.4760649E-2,3.3127293E-1,-3.1971693E-2,2.5E0,-4.418072E-2,-2.3267561E-1,-9.774069E-2,6.7312196E-2,-3.546409E-1,1.2167087E-1,-1.8116306E-1,-6.936206E-2,-3.1901684E-2,-2.1779029E-1,-2.0809004E-1,6.9380194E-2,-1.934713E-1,-2.2393277E-1,9.0160325E-2,-8.5489E-2,-2.3179577E-1,3.0372582E-2,-4.3275144E-2,1.8991946E-1,9.121385E-2,-2.1977176E-1,-7.3671535E-2,-2.873055E-1,-1.2793434E-1,-1.0745456E-2,-2.2719228E-1,2.8075336E-2,-2.0353174E-1,1.3498233E-1,-1.5363267E-1,-1.0877469E-2],"split_indices":[4,0,5,11,7,10,14,11,5,0,3,10,5,6,14,13,12,14,10,6,3,7,0,10,12,0,14,6,5,6,9,0,0,0,0,0,0,0,0,0,0,0,0,0,0,0,0,0,0,0,0,0,0,0,0,0,0,0,0,0,0,0,0],"split_type":[0,0,0,0,0,0,0,0,0,0,0,0,0,0,0,0,0,0,0,0,0,0,0,0,0,0,0,0,0,0,0,0,0,0,0,0,0,0,0,0,0,0,0,0,0,0,0,0,0,0,0,0,0,0,0,0,0,0,0,0,0,0,0],"sum_hessian":[1.2378881E4,5.8389814E3,6.5399E3,4.6280186E3,1.2109628E3,4.3871743E3,2.1527253E3,4.118135E3,5.0988364E2,4.7498068E2,7.3598206E2,4.2053086E3,1.8186565E2,6.46224E2,1.5065015E3,7.256825E2,3.3924524E3,5.4778816E1,4.5510483E2,2.7861118E2,1.963695E2,7.324604E2,3.5216534E0,3.0413547E2,3.9011733E3,8.0998634E1,1.0086702E2,5.784324E2,6.779163E1,1.0378247E3,4.686767E2,5.736134E2,1.520691E2,3.1639825E2,3.0760542E3,5.338231E1,1.3965062E0,1.3414262E2,3.2096222E2,2.1354095E2,6.507022E1,1.9274371E2,3.6257973E0,1.6880814E2,5.636523E2,1.4564608E0,2.0651925E0,4.7438206E1,2.5669727E2,6.824118E1,3.8329321E3,6.1334267E1,1.9664371E1,5.869607E1,4.2170944E1,1.1879047E2,4.596419E2,5.7147026E1,1.064461E1,3.9494892E1,9.9832983E2,1.0026921E2,3.6840747E2],"tree_param":{"num_deleted":"0","num_feature":"15","num_nodes":"63","size_leaf_vector":"0"}},{"base_weights":[1.9923393E-1,-5.352654E-1,3.3208576E-1,-9.9824294E-2,-8.596746E-1,7.205696E-1,1.5105967E-1,-8.5736006E-1,7.029776E-2,-6.3941956E-1,-1.0242503E0,5.421209E-2,8.023372E-1,6.378664E-1,5.8007754E-2,-3.9512467E-1,-9.979768E-1,3.1182635E-1,-7.0954573E-1,-3.6421412E-1,-9.529009E-1,-1.0258943E0,-4.424171E-2,-9.8718387E-1,1.6797699E-1,8.224222E-1,-1.0175439E0,-3.799529E-1,7.8014165E-1,1.3534041E-1,-4.0941867E-1,-8.387091E-1,1.7159553E-1,-1.0972737E0,-5.60234E-1,5.9397596E-1,1.404032E-2,-8.669299E-1,-1.0890014E-1,8.171676E-2,-8.026245E-1,-7.893595E-1,-1.0224293E0,-1.0115788E0,-1.2624416E0,-1.0694003E0,6.674874E-1,-1.6670338E0,2.3389933E-1,-9.965581E-1,8.386076E-1,-2.8818554E-1,-1.3122339E0,7.737768E-2,-6.2855774E-1,-8.082504E-1,8.2068413E-1,1.8009196E-1,-7.2743064E-1,-6.4601016E-1,-2.839282E-1],"categories":[],"categories_nodes":[],"categories_segments":[],"categories_sizes":[],"default_left":[1,1,1,1,1,1,1,1,1,1,1,1,1,1,1,1,1,1,1,1,1,1,0,1,1,1,1,1,1,1,1,0,0,0,0,0,0,0,0,0,0,0,0,0,0,0,0,0,0,0,0,0,0,0,0,0,0,0,0,0,0],"id":12,"left_children":[1,3,5,7,9,11,13,15,17,19,21,23,25,27,29,31,33,35,37,39,41,43,-1,45,47,49,51,53,55,57,59,-1,-1,-1,-1,-1,-1,-1,-1,-1,-1,-1,-1,-1,-1,-1,-1,-1,-1,-1,-1,-1,-1,-1,-1,-1,-1,-1,-1,-1,-1],"loss_changes":[1.1219219E3,2.4869928E2,6.845481E2,9.710765E1,3.592462E1,1.6855359E2,3.0084436E2,8.586807E0,1.16222755E2,3.711415E1,8.825073E-1,4.0360435E1,1.0157605E2,1.5463547E2,2.0166428E2,8.662258E0,3.9618835E0,3.955891E1,1.3701836E1,4.5587273E1,1.4940948E0,6.6973877E-1,0E0,5.2790756E0,3.749215E1,8.110596E1,6.1841316E0,1.4986216E1,6.0901733E1,1.8493613E2,2.3331207E1,0E0,0E0,0E0,0E0,0E0,0E0,0E0,0E0,0E0,0E0,0E0,0E0,0E0,0E0,0E0,0E0,0E0,0E0,0E0,0E0,0E0,0E0,0E0,0E0,0E0,0E0,0E0,0E0,0E0,0E0],"parents":[2147483647,0,0,1,1,2,2,3,3,4,4,5,5,6,6,7,7,8,8,9,9,10,10,11,11,12,12,13,13,14,14,15,15,16,16,17,17,18,18,19,19,20,20,21,21,23,23,24,24,25,25,26,26,27,27,28,28,29,29,30,30],"right_children":[2,4,6,8,10,12,14,16,18,20,22,24,26,28,30,32,34,36,38,40,42,44,-1,46,48,50,52,54,56,58,60,-1,-1,-1,-1,-1,-1,-1,-1,-1,-1,-1,-1,-1,-1,-1,-1,-1,-1,-1,-1,-1,-1,-1,-1,-1,-1,-1,-1,-1,-1],"split_conditions":[9.0043044E-1,2.6142161E-2,1.9963697E-2,-4.101307E-3,1.6957092E3,-3.9639845E-3,1.5E0,1.1999302E1,3.6529945E-3,1.2351217E-1,3.0749816E4,-1.4892514E-2,6.6343276E-3,1.4286555E3,3.5E0,-1.2757635E-2,8.623152E3,3.5E0,2.2451598E4,2.093589E0,2.3413855E-1,8.940717E-1,-9.4310185E-3,9.5959723E-1,-5.6714147E-2,-7.644306E-3,1.8125776E-2,-2.5111488E-1,-2.2623993E-2,8.122782E4,-1.3092612E-3,-1.7878787E-1,3.657907E-2,-2.3390615E-1,-1.19425245E-1,1.2661803E-1,2.992979E-3,-1.848037E-1,-2.3214273E-2,1.7419586E-2,-1.710957E-1,-1.68268E-1,-2.1795157E-1,-2.1563855E-1,-2.6911506E-1,-2.2796437E-1,1.4228848E-1,-3.553621E-1,4.9860388E-2,-2.1243659E-1,1.7876622E-1,-6.1432596E-2,-2.7972928E-1,1.6494622E-2,-1.3398984E-1,-1.7229497E-1,1.7494547E-1,3.8390256E-2,-1.550666E-1,-1.3771017E-1,-6.0525052E-2],"split_indices":[3,0,5,6,7,10,8,7,6,0,7,10,6,13,2,6,7,8,13,12,0,3,0,3,11,6,0,11,6,13,10,0,0,0,0,0,0,0,0,0,0,0,0,0,0,0,0,0,0,0,0,0,0,0,0,0,0,0,0,0,0],"split_type":[0,0,0,0,0,0,0,0,0,0,0,0,0,0,0,0,0,0,0,0,0,0,0,0,0,0,0,0,0,0,0,0,0,0,0,0,0,0,0,0,0,0,0,0,0,0,0,0,0,0,0,0,0,0,0,0,0,0,0,0,0],"sum_hessian":[1.14946875E4,1.7601725E3,9.734515E3,7.520434E2,1.00812915E3,3.0932935E3,6.641221E3,1.3717549E2,6.148679E2,4.3322308E2,5.7490607E2,3.3826862E2,2.755025E3,1.0648002E3,5.576421E3,3.2885193E1,1.04290306E2,4.6992545E2,1.4494244E2,2.318466E2,2.0137648E2,5.738964E2,1.0095985E0,3.2557957E1,3.0571066E2,2.7254932E3,2.9531593E1,1.3038338E2,9.344168E2,4.7854155E3,7.910054E2,1.8177402E1,1.470779E1,8.377927E1,2.0511036E1,2.4078714E2,2.291383E2,1.1449782E2,3.0444618E1,1.15340836E2,1.1650577E2,6.375897E1,1.3761751E2,5.461223E2,2.777411E1,3.1353773E1,1.2041823E0,9.759443E0,2.9595123E2,2.350344E1,2.7019897E3,9.067481E0,2.0464111E1,4.615885E1,8.422453E1,2.2785383E1,9.116315E2,4.5501904E3,2.352251E2,2.7270932E2,5.18296E2],"tree_param":{"num_deleted":"0","num_feature":"15","num_nodes":"61","size_leaf_vector":"0"}},{"base_weights":[1.7024821E-1,-4.2095152E-1,3.1067967E-1,-1.716671E-1,-8.786156E-1,3.7074348E-1,-6.2519306E-1,-1.2580334E-1,-9.596373E-1,-9.376849E-1,-2.6252052E-1,-4.4331065E-1,4.3777034E-1,-3.0906808E-1,-1.0242485E0,-6.304076E-2,-6.696228E-1,-2.2216792E-1,-1.0863594E0,-7.7611357E-1,-1.0250342E0,-7.804496E-2,-1.2899421E0,-2.2278546E-1,-9.845761E-1,2.4755268E-1,7.323671E-1,-1.5238456E-1,-6.5882087E-1,-1.1015836E0,-1.4696768E-2,-6.1809224E-1,2.3970107E-2,-1.4913611E0,-5.5738336E-1,2.6621628E-1,-9.5232606E-1,-1.115356E0,2.7319846E-1,-1.081616E0,-5.752559E-1,-1.0282258E0,1.6820835E-1,-1.76558E0,2.0443953E-3,-4.1248012E-1,-1.504613E0,-7.438441E-1,-5.206641E-2,-4.5537892E-1,-1.1415274E0,3.2186502E-1,-3.1423646E-1,8.772925E-2,7.895928E-1,-5.3810143E-1,5.3279575E-2,-8.2512957E-1,3.705305E-1,-1.131932E0,-4.9936622E-1,4.241295E-1,-6.280615E-1],"categories":[],"categories_nodes":[],"categories_segments":[],"categories_sizes":[],"default_left":[1,1,1,1,1,1,1,1,1,1,1,1,1,1,1,1,1,1,1,1,1,1,1,1,1,1,1,1,1,1,1,0,0,0,0,0,0,0,0,0,0,0,0,0,0,0,0,0,0,0,0,0,0,0,0,0,0,0,0,0,0,0,0],"id":13,"left_children":[1,3,5,7,9,11,13,15,17,19,21,23,25,27,29,31,33,35,37,39,41,43,45,47,49,51,53,55,57,59,61,-1,-1,-1,-1,-1,-1,-1,-1,-1,-1,-1,-1,-1,-1,-1,-1,-1,-1,-1,-1,-1,-1,-1,-1,-1,-1,-1,-1,-1,-1,-1,-1],"loss_changes":[8.927711E2,2.3534393E2,4.886349E2,4.821651E1,2.623346E1,4.4571606E2,6.583353E1,4.3137833E1,6.6198044E0,8.569458E0,1.2227949E1,7.398269E1,4.2259656E2,1.6012033E1,1.804625E1,5.48453E1,1.1232227E1,4.540828E0,2.764473E0,1.3919006E1,1.8013916E0,7.6005774E0,1.2323437E0,3.9367004E1,1.4402832E1,1.9155463E2,1.0911035E2,1.623981E1,1.5826553E1,3.361908E0,4.9699063E0,0E0,0E0,0E0,0E0,0E0,0E0,0E0,0E0,0E0,0E0,0E0,0E0,0E0,0E0,0E0,0E0,0E0,0E0,0E0,0E0,0E0,0E0,0E0,0E0,0E0,0E0,0E0,0E0,0E0,0E0,0E0,0E0],"parents":[2147483647,0,0,1,1,2,2,3,3,4,4,5,5,6,6,7,7,8,8,9,9,10,10,11,11,12,12,13,13,14,14,15,15,16,16,17,17,18,18,19,19,20,20,21,21,22,22,23,23,24,24,25,25,26,26,27,27,28,28,29,29,30,30],"right_children":[2,4,6,8,10,12,14,16,18,20,22,24,26,28,30,32,34,36,38,40,42,44,46,48,50,52,54,56,58,60,62,-1,-1,-1,-1,-1,-1,-1,-1,-1,-1,-1,-1,-1,-1,-1,-1,-1,-1,-1,-1,-1,-1,-1,-1,-1,-1,-1,-1,-1,-1,-1,-1],"split_conditions":[8.7032497E-1,2.7743064E-2,1.0041863E-2,9.200358E-3,9.3349135E-1,-6.3360664E-3,1.51903555E-2,1.01710856E-1,1.6205752E0,1.0892047E3,7.5272426E-2,2.8904775E-2,9.4050765E-1,4.962086E-2,4.390027E1,-8.4695265E-2,3.4078486E-2,3.622082E-3,6.024379E0,1.6859958E2,3.1513092E4,3.0117645E1,3.5E0,-4.851757E-2,3.0577065E3,3.5E0,5E-1,1.0142195E1,3.3127293E-1,2.481809E0,5.5354834E2,-1.317589E-1,5.109715E-3,-3.179139E-1,-1.18817575E-1,5.67494E-2,-2.0300762E-1,-2.3776075E-1,5.8237795E-2,-2.3056841E-1,-1.2262746E-1,-2.1918719E-1,3.585702E-2,-3.763692E-1,4.3580434E-4,-8.7928504E-2,-3.207388E-1,-1.5856546E-1,-1.1099013E-2,-9.707326E-2,-2.4333973E-1,6.861206E-2,-6.6985875E-2,1.870127E-2,1.6831772E-1,-1.1470724E-1,1.1357622E-2,-1.7589311E-1,7.898609E-2,-2.4129428E-1,-1.0645004E-1,9.0411805E-2,-1.3388404E-1],"split_indices":[4,0,6,6,3,6,0,11,12,7,5,0,4,6,12,11,5,10,11,7,7,7,8,6,14,2,1,12,5,11,7,0,0,0,0,0,0,0,0,0,0,0,0,0,0,0,0,0,0,0,0,0,0,0,0,0,0,0,0,0,0,0,0],"split_type":[0,0,0,0,0,0,0,0,0,0,0,0,0,0,0,0,0,0,0,0,0,0,0,0,0,0,0,0,0,0,0,0,0,0,0,0,0,0,0,0,0,0,0,0,0,0,0,0,0,0,0,0,0,0,0,0,0,0,0,0,0,0,0],"sum_hessian":[1.0750718E4,2.063141E3,8.687577E3,1.3365259E3,7.2661536E2,8.1642065E3,5.2337067E2,1.2641082E3,7.241771E1,6.6256836E2,6.404696E1,6.20652E2,7.543554E3,2.9301978E2,2.3035086E2,1.1343124E3,1.2979584E2,1.1022801E1,6.139491E1,2.3597217E2,4.265962E2,5.520988E1,8.83708E0,4.419869E2,1.7866502E2,4.5849478E3,2.9586064E3,2.0335553E2,8.966425E1,2.1387605E2,1.6474804E1,1.5289235E2,9.8142E2,1.4121412E1,1.15674416E2,6.9856663E0,4.0371356E0,6.0288692E1,1.1062164E0,9.186361E1,1.4410855E2,4.2559613E2,1.0000602E0,1.5479718E0,5.3661907E1,2.31127E0,6.52581E0,1.0824642E2,3.337405E2,4.1760708E1,1.3690431E2,4.0496902E3,5.352577E2,2.4143344E2,2.717173E3,7.015866E1,1.3319687E2,7.736333E1,1.2300925E1,2.0277757E2,1.109848E1,9.783679E0,6.691125E0],"tree_param":{"num_deleted":"0","num_feature":"15","num_nodes":"63","size_leaf_vector":"0"}},{"base_weights":[1.445375E-1,2.2707617E-1,-6.469688E-1,5.862726E-1,8.283373E-2,-1.9115366E-1,-8.9147764E-1,6.6154647E-1,-6.0551214E-1,-3.7035054E-1,1.6606505E-1,-2.5625046E-2,-9.0892947E-1,-9.492626E-1,-4.145085E-1,-1.9027416E-1,7.2064084E-1,7.032447E-3,-1.0911684E0,-2.561688E-1,-7.548592E-1,6.326605E-1,8.537401E-2,-8.6997384E-1,1.09333366E-1,1.8092598E-1,-1.0842905E0,-1.088903E0,-8.548142E-1,-8.38576E-2,-1.3623192E0,-8.1472665E-1,3.2329914E-1,7.5060284E-1,-1.2761328E0,-1.9272985E-1,1.9260656E0,-1.8052493E0,-1.0429243E0,-6.053284E-1,-7.584544E-2,-1.4476981E0,-5.8689845E-1,7.4426806E-1,-3.4525928E-1,2.1234205E-1,-1.8906711E-1,2.5535455E-1,-1.0579443E0,-1.8069106E-1,5.515985E-1,-3.3366123E-1,7.014734E-1,-8.176779E-1,-1.5981752E0,-1.1030751E0,2.7103475E-1,-3.846481E-1,-1.0254135E0,2.9843882E-1,-6.0933554E-1,-1.5066801E0,-1.3409072E-1],"categories":[],"categories_nodes":[],"categories_segments":[],"categories_sizes":[],"default_left":[1,1,1,1,1,1,1,1,1,1,1,1,1,1,1,1,1,1,1,1,1,1,1,1,1,1,1,1,1,1,1,0,0,0,0,0,0,0,0,0,0,0,0,0,0,0,0,0,0,0,0,0,0,0,0,0,0,0,0,0,0,0,0],"id":14,"left_children":[1,3,5,7,9,11,13,15,17,19,21,23,25,27,29,31,33,35,37,39,41,43,45,47,49,51,53,55,57,59,61,-1,-1,-1,-1,-1,-1,-1,-1,-1,-1,-1,-1,-1,-1,-1,-1,-1,-1,-1,-1,-1,-1,-1,-1,-1,-1,-1,-1,-1,-1,-1,-1],"loss_changes":[6.5854504E2,4.728387E2,1.0592633E2,2.3498212E2,2.4573431E2,3.961698E1,1.6676147E1,1.2396875E2,4.637617E1,4.4189636E1,2.0714569E2,3.1106436E1,1.2139851E1,6.344452E0,2.1415516E1,5.1697918E1,1.3859851E2,2.7176172E1,1.1125412E0,4.9124916E1,2.6025726E1,8.879855E1,1.6357104E2,8.226969E0,3.0310297E1,2.7838058E0,6.0882072E0,4.5181885E0,2.6372543E1,1.0627346E1,2.9366875E0,0E0,0E0,0E0,0E0,0E0,0E0,0E0,0E0,0E0,0E0,0E0,0E0,0E0,0E0,0E0,0E0,0E0,0E0,0E0,0E0,0E0,0E0,0E0,0E0,0E0,0E0,0E0,0E0,0E0,0E0,0E0,0E0],"parents":[2147483647,0,0,1,1,2,2,3,3,4,4,5,5,6,6,7,7,8,8,9,9,10,10,11,11,12,12,13,13,14,14,15,15,16,16,17,17,18,18,19,19,20,20,21,21,22,22,23,23,24,24,25,25,26,26,27,27,28,28,29,29,30,30],"right_children":[2,4,6,8,10,12,14,16,18,20,22,24,26,28,30,32,34,36,38,40,42,44,46,48,50,52,54,56,58,60,62,-1,-1,-1,-1,-1,-1,-1,-1,-1,-1,-1,-1,-1,-1,-1,-1,-1,-1,-1,-1,-1,-1,-1,-1,-1,-1,-1,-1,-1,-1,-1,-1],"split_conditions":[2.0629978E3,1.9963697E-2,1.1770695E-2,8.161257E-2,-4.361533E-3,5.5E0,9.277315E-1,7.051184E-1,4.152608E4,5.1470727E-2,1.5E0,-6.567476E-2,2.4420024E3,-2.4226133E-3,1.4350178E-2,4.5E0,4.6555057E-2,4.1686863E4,9.733668E-2,-3.7707083E-2,3.2099724E-2,4.2353697E-2,6.8038236E-3,1.5E0,9.2072666E-1,1.774739E4,7.5E0,2.6475113E4,1.3295913E-3,3.9033465E-2,9.4946754E-1,-1.7367552E-1,6.891777E-2,1.6000623E-1,-2.720336E-1,-4.108428E-2,4.1057995E-1,-3.8482553E-1,-2.2232047E-1,-1.2903802E-1,-1.6167995E-2,-3.0860624E-1,-1.2510931E-1,1.5865584E-1,-7.359902E-2,4.526502E-2,-4.030349E-2,5.4434005E-2,-2.255223E-1,-3.8517967E-2,1.1758441E-1,-7.112666E-2,1.4953329E-1,-1.7430463E-1,-3.4068346E-1,-2.3514284E-1,5.7776555E-2,-8.199555E-2,-2.185877E-1,6.361829E-2,-1.2989223E-1,-3.2117945E-1,-2.8584158E-2],"split_indices":[7,5,0,0,10,8,3,12,14,11,8,11,7,6,10,9,11,13,0,11,5,10,10,8,3,13,8,7,6,0,4,0,0,0,0,0,0,0,0,0,0,0,0,0,0,0,0,0,0,0,0,0,0,0,0,0,0,0,0,0,0,0,0],"split_type":[0,0,0,0,0,0,0,0,0,0,0,0,0,0,0,0,0,0,0,0,0,0,0,0,0,0,0,0,0,0,0,0,0,0,0,0,0,0,0,0,0,0,0,0,0,0,0,0,0,0,0,0,0,0,0,0,0,0,0,0,0,0,0],"sum_hessian":[1.0077055E4,9.126095E3,9.5096063E2,2.6138787E3,6.512216E3,3.3263742E2,6.1832324E2,2.459011E3,1.5486781E2,1.0099132E3,5.5023022E3,2.7114377E2,6.1493645E1,5.5062463E2,6.769858E1,1.5938097E2,2.29963E3,6.892287E1,8.5944954E1,7.79965E2,2.2994815E2,8.10242E2,4.6920605E3,3.66158E1,2.3452797E2,8.518719E0,5.2974926E1,2.1791385E2,3.3271082E2,5.099653E1,1.670205E1,7.1661514E1,8.7719444E1,2.2662485E3,3.338145E1,6.32395E1,5.6833644E0,3.1342723E0,8.281068E1,2.6482617E2,5.1513885E2,4.3381214E1,1.8656694E2,7.2745795E2,8.2784035E1,3.208089E3,1.4839712E3,5.1894546E0,3.1426346E1,1.42E2,9.252797E1,4.4644275E0,4.0542917E0,3.6585094E1,1.6389833E1,2.1585326E2,2.060592E0,8.944847E1,2.4326233E2,2.9770163E1,2.1226368E1,1.47425585E1,1.9594898E0],"tree_param":{"num_deleted":"0","num_feature":"15","num_nodes":"63","size_leaf_vector":"0"}},{"base_weights":[1.2215415E-1,-7.363888E-2,4.164102E-1,5.339029E-3,-8.010214E-1,6.7928874E-1,1.3012281E-1,8.690491E-2,-3.4142065E-1,-5.300292E-1,-9.500772E-1,7.3407346E-1,-2.3629305E-1,-2.150011E-1,2.7631122E-1,-2.1073294E-1,2.0980607E-1,-5.40159E-2,-6.6325915E-1,-9.95803E-1,-3.1349844E-1,-9.6088845E-1,4.684985E-2,2.9091239E-2,8.1157017E-1,-7.511282E-2,-1.3482844E0,-3.1637818E-1,1.6187072E-1,4.566716E-1,-2.0261031E-1,-1.0351805E-2,-6.27003E-1,2.5369272E-1,-7.0021766E-1,-4.8657364E-1,1.4869139E-1,-7.0992327E-1,3.3635348E-1,-1.0119975E0,-1.2174669E-1,3.015247E-1,-8.72939E-1,-8.227564E-1,-9.9989974E-1,-6.9674146E-1,7.086811E-1,1.1470879E-1,-1.2111058E0,-2.0689485E0,8.220191E-1,2.4994946E-1,-4.7892785E-1,-1.5600395E0,-2.6857483E-1,-2.4586129E-1,-8.0633783E-1,-2.0131502E-1,5.3465194E-1,5.0885254E-1,-7.334677E-1,-6.121248E-1,-1.9461176E-4],"categories":[],"categories_nodes":[],"categories_segments":[],"categories_sizes":[],"default_left":[1,1,1,1,1,1,1,1,1,1,1,1,1,1,1,1,1,1,1,1,1,1,1,1,1,1,1,1,1,1,1,0,0,0,0,0,0,0,0,0,0,0,0,0,0,0,0,0,0,0,0,0,0,0,0,0,0,0,0,0,0,0,0],"id":15,"left_children":[1,3,5,7,9,11,13,15,17,19,21,23,25,27,29,31,33,35,37,39,41,43,45,47,49,51,53,55,57,59,61,-1,-1,-1,-1,-1,-1,-1,-1,-1,-1,-1,-1,-1,-1,-1,-1,-1,-1,-1,-1,-1,-1,-1,-1,-1,-1,-1,-1,-1,-1,-1,-1],"loss_changes":[5.502898E2,3.2951022E2,2.871065E2,1.4639862E2,2.2188904E1,9.994873E1,9.228528E1,1.533269E2,9.1137474E1,2.0021713E1,3.9378052E0,1.0252869E2,2.0162436E1,2.085308E1,1.1104464E2,1.02183334E2,1.1864244E2,4.5823658E1,2.1924362E1,7.7596664E-1,4.812062E1,1.1029663E0,2.869931E0,1.998909E1,5.2601196E1,1.32206335E1,2.83996E0,1.4637341E1,1.5822827E1,5.8339615E1,2.91855E1,0E0,0E0,0E0,0E0,0E0,0E0,0E0,0E0,0E0,0E0,0E0,0E0,0E0,0E0,0E0,0E0,0E0,0E0,0E0,0E0,0E0,0E0,0E0,0E0,0E0,0E0,0E0,0E0,0E0,0E0,0E0,0E0],"parents":[2147483647,0,0,1,1,2,2,3,3,4,4,5,5,6,6,7,7,8,8,9,9,10,10,11,11,12,12,13,13,14,14,15,15,16,16,17,17,18,18,19,19,20,20,21,21,22,22,23,23,24,24,25,25,26,26,27,27,28,28,29,29,30,30],"right_children":[2,4,6,8,10,12,14,16,18,20,22,24,26,28,30,32,34,36,38,40,42,44,46,48,50,52,54,56,58,60,62,-1,-1,-1,-1,-1,-1,-1,-1,-1,-1,-1,-1,-1,-1,-1,-1,-1,-1,-1,-1,-1,-1,-1,-1,-1,-1,-1,-1,-1,-1,-1,-1],"split_conditions":[9.326653E-1,7.001912E-2,2.7102306E-2,5.1365096E-2,1.468773E-1,5.787977E-3,1.0870605E3,-3.701887E-2,1.0539786E4,-2.8636507E-3,9.4753885E-1,-3.5887675E-3,1.8279247E-2,2.5829118E-1,1.8118582E4,1.737858E4,5.1411856E-3,1.1090713E3,5.1728566E4,9.458376E-1,1.4530192E-3,1.1998863E0,-3.3965954E-4,3E0,-8.510228E-2,2.7614238E4,2.4896747E-2,4.410491E-2,1.1579114E3,2.7540538E-2,5E-1,-2.2066974E-3,-1.3365841E-1,5.407975E-2,-1.492656E-1,-1.0372304E-1,3.1696584E-2,-1.5133455E-1,7.1700566E-2,-2.1572779E-1,-2.5952777E-2,6.427611E-2,-1.8608466E-1,-1.7538722E-1,-2.1314892E-1,-1.4852458E-1,1.5106976E-1,2.4452506E-2,-2.5817177E-1,-4.4103834E-1,1.7523006E-1,5.32818E-2,-1.0209319E-1,-3.3255407E-1,-5.7252176E-2,-5.2410323E-2,-1.7188726E-1,-4.291438E-2,1.1397191E-1,1.0847224E-1,-1.5635352E-1,-1.3048682E-1,-4.1485444E-5],"split_indices":[4,0,5,11,0,10,14,11,14,6,3,10,10,5,14,14,6,14,14,3,6,12,10,2,11,14,5,6,13,6,1,0,0,0,0,0,0,0,0,0,0,0,0,0,0,0,0,0,0,0,0,0,0,0,0,0,0,0,0,0,0,0,0],"split_type":[0,0,0,0,0,0,0,0,0,0,0,0,0,0,0,0,0,0,0,0,0,0,0,0,0,0,0,0,0,0,0,0,0,0,0,0,0,0,0,0,0,0,0,0,0,0,0,0,0,0,0,0,0,0,0,0,0,0,0,0,0,0,0],"sum_hessian":[9.549906E3,5.73481E3,3.8150962E3,5.174017E3,5.6079297E2,1.9881442E3,1.826952E3,4.189338E3,9.8467957E2,2.0061642E2,3.6017657E2,1.876085E3,1.1205914E2,5.434637E2,1.2834884E3,1.2241115E3,2.9652263E3,5.207832E2,4.6389642E2,6.2523914E1,1.380925E2,3.5634827E2,3.8283057E0,1.8594363E2,1.6901414E3,9.8805145E1,1.3254E1,4.2838913E2,1.1507453E2,9.3239703E2,3.510914E2,8.2702765E2,3.9708377E2,2.829493E3,1.357334E2,1.6573032E2,3.5505286E2,4.4348343E2,2.0412989E1,6.12316E1,1.2923108E0,6.599818E1,7.209432E1,8.3341385E1,2.7300687E2,1.7779579E0,2.0503478E0,1.747848E2,1.1158837E1,5.396702E0,1.6847446E3,5.4951454E1,4.385369E1,1.070888E1,2.5451198E0,3.758038E2,5.258534E1,5.8520412E1,5.6554123E1,8.937821E2,3.861489E1,1.1546529E2,2.356261E2],"tree_param":{"num_deleted":"0","num_feature":"15","num_nodes":"63","size_leaf_vector":"0"}},{"base_weights":[1.0291941E-1,-9.8942816E-2,3.1948805E-1,-2.6579112E-2,-7.978924E-1,5.779615E-1,1.1099623E-1,-5.905941E-1,1.649664E-2,-9.5130837E-1,-5.8559346E-1,6.519588E-1,-1.085634E-1,1.8275385E-1,-3.6282203E-1,-1.9322607E-1,-8.639741E-1,6.861877E-2,-4.4139364E-1,-5.335481E-1,-9.6853775E-1,-2.9245543E-1,-8.9422166E-1,6.9203717E-1,-5.235405E-1,3.6683774E-1,-1.0210129E0,-1.5236849E-1,3.2905236E-1,-5.5755687E-1,-6.86925E-2,7.2391525E-2,-4.9278584E-1,-2.8997457E-1,-9.805743E-1,-3.510797E-1,1.3831368E-1,-2.8214204E-1,-9.2434615E-1,6.6587216E-1,-8.253921E-1,-8.459865E-1,-1.0000894E0,-4.6712482E-1,1.2679231E0,1.2470503E-1,-9.28726E-1,7.340589E-1,-3.4628767E-1,-3.6458933E-1,-2.2719846E0,6.974652E-1,-5.1013064E-1,-5.8483666E-1,-1.2888019E0,-9.6966885E-2,-5.427777E-1,-9.4762415E-1,3.6455056E-1,-9.146364E-1,-3.3445683E-1,-2.379749E-1,4.2059794E-1],"categories":[],"categories_nodes":[],"categories_segments":[],"categories_sizes":[],"default_left":[1,1,1,1,1,1,1,1,1,1,1,1,1,1,1,1,1,1,1,1,1,1,1,1,1,1,1,1,1,1,1,0,0,0,0,0,0,0,0,0,0,0,0,0,0,0,0,0,0,0,0,0,0,0,0,0,0,0,0,0,0,0,0],"id":16,"left_children":[1,3,5,7,9,11,13,15,17,19,21,23,25,27,29,31,33,35,37,39,41,43,45,47,49,51,53,55,57,59,61,-1,-1,-1,-1,-1,-1,-1,-1,-1,-1,-1,-1,-1,-1,-1,-1,-1,-1,-1,-1,-1,-1,-1,-1,-1,-1,-1,-1,-1,-1,-1,-1],"loss_changes":[3.9710583E2,2.3778876E2,2.3608197E2,1.03549576E2,1.38089905E1,9.945093E1,8.257668E1,3.268505E1,9.454758E1,1.3146973E0,1.6713806E1,8.356537E1,8.331228E1,1.03413284E2,1.8262894E1,9.945471E0,1.1687134E1,1.0407711E2,3.0877975E1,4.8568864E0,9.408569E-2,2.7225273E1,3.3121796E0,7.4789734E1,1.5512531E1,3.7016968E1,6.927025E0,1.381949E1,6.6869995E1,1.4997719E1,1.0736752E1,0E0,0E0,0E0,0E0,0E0,0E0,0E0,0E0,0E0,0E0,0E0,0E0,0E0,0E0,0E0,0E0,0E0,0E0,0E0,0E0,0E0,0E0,0E0,0E0,0E0,0E0,0E0,0E0,0E0,0E0,0E0,0E0],"parents":[2147483647,0,0,1,1,2,2,3,3,4,4,5,5,6,6,7,7,8,8,9,9,10,10,11,11,12,12,13,13,14,14,15,15,16,16,17,17,18,18,19,19,20,20,21,21,22,22,23,23,24,24,25,25,26,26,27,27,28,28,29,29,30,30],"right_children":[2,4,6,8,10,12,14,16,18,20,22,24,26,28,30,32,34,36,38,40,42,44,46,48,50,52,54,56,58,60,62,-1,-1,-1,-1,-1,-1,-1,-1,-1,-1,-1,-1,-1,-1,-1,-1,-1,-1,-1,-1,-1,-1,-1,-1,-1,-1,-1,-1,-1,-1,-1,-1],"split_conditions":[9.234351E-1,7.071626E-2,2.5328673E-2,-5.3939205E-3,8.662406E-1,3.8248733E-2,2.559227E4,3.8069075E-3,3.4703943E-3,1.5E0,2.7440762E4,4.3552503E-2,3.5963016E4,1.0870605E3,4.5E0,8.129475E-3,2.875491E3,8.870963E-1,2.4669427E-2,1.24926165E-1,1.2777147E0,2.791173E4,1.5E0,7.574931E4,1.6472021E-1,1.5861886E0,2.5E0,2.1449992E4,-3.944187E-2,-1.2712958E-3,4.3316035E4,1.5431723E-2,-1.050473E-1,-6.181396E-2,-2.0902932E-1,-7.483976E-2,2.9484367E-2,-6.01443E-2,-1.9704314E-1,1.4194416E-1,-1.7594908E-1,-1.8033919E-1,-2.1318935E-1,-9.957714E-2,2.7028355E-1,2.6583407E-2,-1.979768E-1,1.5647955E-1,-7.3818244E-2,-7.7719614E-2,-4.843196E-1,1.4867885E-1,-1.08744696E-1,-1.246698E-1,-2.747343E-1,-2.0670459E-2,-1.1570408E-1,-2.0200531E-1,7.771135E-2,-1.949733E-1,-7.129626E-2,-5.0729178E-2,8.965898E-2],"split_indices":[4,0,5,6,3,0,14,0,6,8,14,11,14,14,9,10,14,12,0,0,12,13,8,13,11,12,8,13,6,10,14,0,0,0,0,0,0,0,0,0,0,0,0,0,0,0,0,0,0,0,0,0,0,0,0,0,0,0,0,0,0,0,0],"split_type":[0,0,0,0,0,0,0,0,0,0,0,0,0,0,0,0,0,0,0,0,0,0,0,0,0,0,0,0,0,0,0,0,0,0,0,0,0,0,0,0,0,0,0,0,0,0,0,0,0,0,0,0,0,0,0,0,0,0,0,0,0,0,0],"sum_hessian":[9.081828E3,4.7007925E3,4.381035E3,4.2607104E3,4.4008218E2,1.9552643E3,2.425771E3,3.014142E2,3.9592961E3,2.5344868E2,1.866335E2,1.7650664E3,1.9019789E2,2.1072517E3,3.1851935E2,1.23544464E2,1.7786974E2,3.5554282E3,4.0386792E2,1.1304985E1,2.4214369E2,9.6717705E1,8.99158E1,1.7072688E3,5.7797615E1,1.2543971E2,6.475818E1,6.4035803E2,1.4668936E3,1.911011E2,1.2741824E2,6.588396E1,5.7660507E1,3.0620092E1,1.4724965E2,5.0575653E2,3.0496716E3,3.049095E2,9.895845E1,1.9615997E0,9.343386E0,5.527194E1,1.8687177E2,8.7611115E1,9.106588E0,2.8594985E0,8.7056305E1,1.6411436E3,6.6125206E1,5.408891E1,3.7087045E0,9.124424E1,3.4195473E1,2.5845245E1,3.8912933E1,5.61873E2,7.8485054E1,3.898869E1,1.4279049E3,7.229336E1,1.1880774E2,9.504772E1,3.237053E1],"tree_param":{"num_deleted":"0","num_feature":"15","num_nodes":"63","size_leaf_vector":"0"}},{"base_weights":[8.584125E-2,2.53852E-1,-1.325094E-1,-3.2883206E-1,3.4310755E-1,-6.571642E-2,-7.48262E-1,-1.6858236E-1,-6.6190904E-1,4.767677E-1,-3.3067174E-2,-4.8157609E-1,-6.165815E-3,-5.8883744E-1,-1.014817E0,-8.804823E-2,-8.307844E-1,-4.9712366E-1,-1.1492277E0,-4.757536E-1,5.721069E-1,-2.6002777E-1,2.0816943E-1,-6.0571516E-1,8.484001E-2,7.900112E-2,-3.394193E-1,-6.1224192E-2,-8.731968E-1,-1.0575343E0,2.3732243E-1,-5.5773723E-1,-1.0198574E-3,-1.0949272E0,-7.634677E-2,-8.042309E-1,-3.9307766E-2,-1.2211721E0,3.67639E-1,-1.1942542E0,-3.2216966E-1,8.6120236E-1,4.6261436E-1,-1.409673E-1,-9.297767E-1,-1.506396E-1,4.077604E-1,-4.0121335E-1,-9.386662E-1,-8.8423675E-1,2.3298708E-1,-2.842272E-1,1.7604467E-1,-8.3212215E-1,-2.17377E-1,-1.151667E0,6.3447736E-2,-7.341808E-1,-1.1159241E0,-1.1000208E0,-2.0298158E-1,6.611235E-1,-6.148702E-1],"categories":[],"categories_nodes":[],"categories_segments":[],"categories_sizes":[],"default_left":[1,1,1,1,1,1,1,1,1,1,1,1,1,1,1,1,1,1,1,1,1,1,1,1,1,1,1,1,1,1,1,0,0,0,0,0,0,0,0,0,0,0,0,0,0,0,0,0,0,0,0,0,0,0,0,0,0,0,0,0,0,0,0],"id":17,"left_children":[1,3,5,7,9,11,13,15,17,19,21,23,25,27,29,31,33,35,37,39,41,43,45,47,49,51,53,55,57,59,61,-1,-1,-1,-1,-1,-1,-1,-1,-1,-1,-1,-1,-1,-1,-1,-1,-1,-1,-1,-1,-1,-1,-1,-1,-1,-1,-1,-1,-1,-1,-1,-1],"loss_changes":[3.190487E2,2.5572351E2,1.5550279E2,3.476203E1,2.1433191E2,8.452211E1,1.5126541E1,2.352373E1,1.644439E1,2.8588562E2,6.1288147E1,3.0112244E1,8.479324E1,3.5042053E1,7.584137E0,1.6170584E1,9.453522E0,2.2479748E1,6.209137E0,3.1252678E1,9.011206E1,4.5855198E1,3.8927414E1,2.3508316E1,1.1365578E1,8.392541E1,3.638421E1,1.1356213E1,4.307083E0,4.5968018E0,2.334963E0,0E0,0E0,0E0,0E0,0E0,0E0,0E0,0E0,0E0,0E0,0E0,0E0,0E0,0E0,0E0,0E0,0E0,0E0,0E0,0E0,0E0,0E0,0E0,0E0,0E0,0E0,0E0,0E0,0E0,0E0,0E0,0E0],"parents":[2147483647,0,0,1,1,2,2,3,3,4,4,5,5,6,6,7,7,8,8,9,9,10,10,11,11,12,12,13,13,14,14,15,15,16,16,17,17,18,18,19,19,20,20,21,21,22,22,23,23,24,24,25,25,26,26,27,27,28,28,29,29,30,30],"right_children":[2,4,6,8,10,12,14,16,18,20,22,24,26,28,30,32,34,36,38,40,42,44,46,48,50,52,54,56,58,60,62,-1,-1,-1,-1,-1,-1,-1,-1,-1,-1,-1,-1,-1,-1,-1,-1,-1,-1,-1,-1,-1,-1,-1,-1,-1,-1,-1,-1,-1,-1,-1,-1],"split_conditions":[3.5E0,-5.074397E-3,2.4380159E3,1.5438084E-2,6.794433E-3,8.187132E-1,2.9961492E4,3.5E0,2.9231176E4,5E-1,8.757592E0,5E-1,5.189622E-2,2.6168365E0,9.417731E-1,3.5E0,1.089257E-3,-1.158099E-2,-5.3139366E-3,3.691117E-2,1.5E0,2.8008033E-2,1.4183364E3,3.078036E4,1.5E0,-6.649447E-2,3.496424E-2,-6.8889216E-2,1.4494754E-2,9.329456E-1,6.8932965E-2,-1.18893005E-1,-2.1740329E-4,-2.3340595E-1,-1.6274864E-2,-1.7143814E-1,-8.379248E-3,-2.6031762E-1,7.8369714E-2,-2.545795E-1,-6.8677E-2,1.8358275E-1,9.861564E-2,-3.005004E-2,-1.9820078E-1,-3.2111887E-2,8.692241E-2,-8.5526764E-2,-2.0009576E-1,-1.88493E-1,4.9665924E-2,-6.0588792E-2,3.7527494E-2,-1.7738372E-1,-4.633832E-2,-2.4550119E-1,1.3525172E-2,-1.5650554E-1,-2.3788187E-1,-2.3449175E-1,-4.326964E-2,1.4093189E-1,-1.3107206E-1],"split_indices":[8,10,7,0,10,12,14,2,14,1,12,2,11,12,4,9,6,10,10,5,8,10,13,14,9,11,5,11,10,3,0,0,0,0,0,0,0,0,0,0,0,0,0,0,0,0,0,0,0,0,0,0,0,0,0,0,0,0,0,0,0,0,0],"split_type":[0,0,0,0,0,0,0,0,0,0,0,0,0,0,0,0,0,0,0,0,0,0,0,0,0,0,0,0,0,0,0,0,0,0,0,0,0,0,0,0,0,0,0,0,0,0,0,0,0,0,0,0,0,0,0,0,0,0,0,0,0,0,0],"sum_hessian":[8.695002E3,4.913855E3,3.7811475E3,6.523639E2,4.2614907E3,3.4121282E3,3.6901947E2,4.4147025E2,2.1089365E2,3.144086E3,1.1174052E3,4.2652063E2,2.9856074E3,2.329205E2,1.3609897E2,3.946122E2,4.6858055E1,1.5911089E2,5.178276E1,2.8570044E2,2.8583855E3,5.7569806E2,5.4170703E2,3.4978934E2,7.673129E1,2.378513E3,6.070946E2,8.1996254E1,1.5092426E2,1.3175935E2,4.3396206E0,6.084191E1,3.337703E2,3.4372337E1,1.248572E1,9.477695E1,6.433395E1,4.9624046E1,2.1587121E0,4.9121758E1,2.3657867E2,7.833155E2,2.0750698E3,4.8983176E2,8.586632E1,1.9371202E2,3.4799503E2,2.1805984E2,1.317295E2,9.515932E0,6.721536E1,5.0107806E2,1.8774348E3,1.1936841E2,4.877262E2,7.5677104E0,7.442854E1,9.852261E1,5.2401638E1,1.2524521E2,6.514142E0,3.0480258E0,1.2915947E0],"tree_param":{"num_deleted":"0","num_feature":"15","num_nodes":"63","size_leaf_vector":"0"}},{"base_weights":[7.179279E-2,1.03738286E-1,-8.734757E-1,4.9092373E-1,2.868652E-2,-9.1477674E-1,-3.738225E-1,-7.1883667E-1,5.554709E-1,9.427807E-2,-3.5580498E-1,-9.4348997E-1,-5.1802105E-1,-9.690911E-1,-9.956987E-2,-1.7022287E-2,-1.4274117E0,6.0521936E-1,-7.3414916E-1,-3.2811138E-1,1.4397386E-1,5.368048E-1,-4.0706655E-1,-7.98794E-1,-9.766449E-1,1.4516865E0,-9.1600764E-1,-2.8405014E-1,-1.046967E0,2.9850677E-1,-8.8359004E-1,-1.1471573E0,1.4495777E-1,-1.6336309E0,-1.0362941E0,-1.5865965E0,6.2966615E-1,4.8585974E-2,-1.1245862E0,-4.8911667E-1,-2.179923E-2,3.31833E-1,1.5768839E-2,-8.3090246E-1,8.140257E-1,-4.3736857E-1,4.061853E-1,-9.7836085E-2,-8.9465284E-1,3.101328E0,-6.0999966E-1,-8.6196944E-2,-9.6364963E-1,-8.696914E-1,1.0835599E0],"categories":[],"categories_nodes":[],"categories_segments":[],"categories_sizes":[],"default_left":[1,1,1,1,1,1,1,1,1,1,1,1,1,1,1,1,1,1,1,1,1,1,1,1,0,1,1,0,0,1,0,0,0,0,0,0,0,0,0,0,0,0,0,0,0,0,0,0,0,0,0,0,0,0,0],"id":18,"left_children":[1,3,5,7,9,11,13,15,17,19,21,23,25,27,29,31,33,35,37,39,41,43,45,47,-1,49,51,-1,-1,53,-1,-1,-1,-1,-1,-1,-1,-1,-1,-1,-1,-1,-1,-1,-1,-1,-1,-1,-1,-1,-1,-1,-1,-1,-1],"loss_changes":[2.5286923E2,2.3531137E2,5.307312E0,1.03068634E2,1.7113182E2,2.3839417E0,3.591729E0,3.331133E1,8.056183E1,1.21721016E2,4.5467834E1,3.4213257E-1,1.640849E1,7.6639175E-2,5.4386253E0,6.5166435E0,9.96521E-1,6.5456116E1,1.4368015E1,3.0097534E1,1.2492069E2,2.1203598E1,2.3238098E1,3.2116737E0,0E0,1.4203973E1,5.737915E-1,0E0,0E0,1.1713318E1,0E0,0E0,0E0,0E0,0E0,0E0,0E0,0E0,0E0,0E0,0E0,0E0,0E0,0E0,0E0,0E0,0E0,0E0,0E0,0E0,0E0,0E0,0E0,0E0,0E0],"parents":[2147483647,0,0,1,1,2,2,3,3,4,4,5,5,6,6,7,7,8,8,9,9,10,10,11,11,12,12,13,13,14,14,15,15,16,16,17,17,18,18,19,19,20,20,21,21,22,22,23,23,25,25,26,26,29,29],"right_children":[2,4,6,8,10,12,14,16,18,20,22,24,26,28,30,32,34,36,38,40,42,44,46,48,-1,50,52,-1,-1,54,-1,-1,-1,-1,-1,-1,-1,-1,-1,-1,-1,-1,-1,-1,-1,-1,-1,-1,-1,-1,-1,-1,-1,-1,-1],"split_conditions":[1.4728221E-1,1.7466608E-2,9.3213964E-1,-3.1887805E-3,2.9761162E4,5.4959844E4,1.490964E-2,1.7870286E-2,4.4809775E-3,-7.1633775E-3,1.5E0,2.0381114E-1,4.568696E4,3.3374414E4,1.5281779E-3,-1.5448521E-2,5.4422073E-2,-6.283921E-2,5.9571266E-3,9.3775344E-1,3.445285E-2,3.5E0,1.0593684E5,1.0339558E0,-2.0819168E-1,3.1076819E-2,1.8352148E-1,-6.055105E-2,-2.2318226E-1,-2.3514186E-3,-1.8835515E-1,-2.4453986E-1,3.0900689E-2,-3.4824157E-1,-2.209071E-1,-3.3821523E-1,1.3422611E-1,1.0357087E-2,-2.3972838E-1,-1.0426514E-1,-4.646948E-3,7.073694E-2,3.361448E-3,-1.7712371E-1,1.735261E-1,-9.323399E-2,8.658664E-2,-2.0855747E-2,-1.907134E-1,6.6111094E-1,-1.300338E-1,-1.8374627E-2,-2.0542148E-1,-1.8539236E-1,2.3098277E-1],"split_indices":[0,5,3,6,14,13,5,0,6,10,8,0,14,14,6,10,0,11,0,3,5,9,14,12,0,5,0,0,0,6,0,0,0,0,0,0,0,0,0,0,0,0,0,0,0,0,0,0,0,0,0,0,0,0,0],"split_type":[0,0,0,0,0,0,0,0,0,0,0,0,0,0,0,0,0,0,0,0,0,0,0,0,0,0,0,0,0,0,0,0,0,0,0,0,0,0,0,0,0,0,0,0,0,0,0,0,0,0,0,0,0,0,0],"sum_hessian":[8.369965E3,8.0972085E3,2.7275616E2,1.3138145E3,6.783394E3,2.5116426E2,2.1591919E1,6.603482E1,1.2477797E3,5.7954805E3,9.879135E2,2.3292915E2,1.823511E1,6.011126E0,1.5580793E1,3.369014E1,3.2344677E1,1.2019441E3,4.583561E1,6.094927E2,5.185988E3,5.31391E1,9.347744E2,4.810034E1,1.8482881E2,2.6201146E0,1.5614996E1,1.0879923E0,4.923134E0,1.074461E1,4.8361826E0,3.4609559E0,3.0229185E1,1.9098202E1,1.3246476E1,1.2553334E1,1.1893907E3,1.5545691E1,3.0289919E1,3.9911246E2,2.1038023E2,2.1029463E3,3.0830415E3,8.618971E0,4.452013E1,9.016412E2,3.3133232E1,6.029669E0,4.207067E1,1.1753778E0,1.4447367E0,1.0003603E0,1.4614635E1,4.2751546E0,6.4694557E0],"tree_param":{"num_deleted":"0","num_feature":"15","num_nodes":"55","size_leaf_vector":"0"}},{"base_weights":[5.919086E-2,-3.9189458E-2,3.3024406E-1,-6.6657263E-1,3.672963E-3,-1.3822712E-1,4.6892655E-1,-4.9289834E-1,-1.0144259E0,5.0117207E-1,-3.9903637E-2,-9.04566E-2,-8.2877946E-1,5.774373E-1,4.3298062E-2,-3.707546E-2,-7.5315046E-1,2.585792E-1,-1.035605E0,-1.5818422E-1,5.810081E-1,3.7834346E-2,-2.2651325E-1,1.6779655E-1,-1.9541268E-1,-9.915555E-1,1.2993588E-1,1.2748589E-2,6.820719E-1,-1.9909064E0,1.1573829E-1,-6.414828E-1,1.4908819E-1,-7.946166E-1,8.47967E-2,-9.8948276E-1,-1.6026067E0,9.925228E-2,-1.5016927E0,-2.3985043E-1,6.4916474E-1,-1.6606621E-1,1.8284841E-1,-8.5199624E-2,-4.261633E-1,-1.4129937E0,3.125062E-1,-7.05179E-1,-8.90896E-2,-1.2575487E0,-3.7644485E-1,9.1902816E-1,-1.0775841E0,-1.0205686E0,1.119051E-1,7.2360826E-1,-5.60828E-1,-8.515233E-1,-2.6984339E0,2.5438598E-1,-6.1904156E-1],"categories":[],"categories_nodes":[],"categories_segments":[],"categories_sizes":[],"default_left":[1,1,1,1,1,1,1,1,1,1,1,1,1,1,1,1,1,0,1,1,1,1,1,1,1,1,1,1,1,1,1,0,0,0,0,0,0,0,0,0,0,0,0,0,0,0,0,0,0,0,0,0,0,0,0,0,0,0,0,0,0],"id":19,"left_children":[1,3,5,7,9,11,13,15,17,19,21,23,25,27,29,31,33,-1,35,37,39,41,43,45,47,49,51,53,55,57,59,-1,-1,-1,-1,-1,-1,-1,-1,-1,-1,-1,-1,-1,-1,-1,-1,-1,-1,-1,-1,-1,-1,-1,-1,-1,-1,-1,-1,-1,-1],"loss_changes":[2.1619536E2,1.5997693E2,1.4033179E2,2.2483795E1,1.2076337E2,1.6218369E1,7.6923096E1,3.0305096E1,3.6580658E0,2.3707733E1,7.431009E1,1.2584736E1,5.0968113E0,7.842966E1,5.02652E1,1.0670465E1,5.7211227E0,0E0,1.6540833E0,1.7179438E1,2.2556107E1,1.06965515E2,4.246312E1,3.1175835E1,1.7808392E1,3.998188E0,6.235443E0,2.1482306E1,5.822534E1,7.158886E0,3.3655617E1,0E0,0E0,0E0,0E0,0E0,0E0,0E0,0E0,0E0,0E0,0E0,0E0,0E0,0E0,0E0,0E0,0E0,0E0,0E0,0E0,0E0,0E0,0E0,0E0,0E0,0E0,0E0,0E0,0E0,0E0],"parents":[2147483647,0,0,1,1,2,2,3,3,4,4,5,5,6,6,7,7,8,8,9,9,10,10,11,11,12,12,13,13,14,14,15,15,16,16,18,18,19,19,20,20,21,21,22,22,23,23,24,24,25,25,26,26,27,27,28,28,29,29,30,30],"right_children":[2,4,6,8,10,12,14,16,18,20,22,24,26,28,30,32,34,-1,36,38,40,42,44,46,48,50,52,54,56,58,60,-1,-1,-1,-1,-1,-1,-1,-1,-1,-1,-1,-1,-1,-1,-1,-1,-1,-1,-1,-1,-1,-1,-1,-1,-1,-1,-1,-1,-1,-1],"split_conditions":[9.4141334E-1,8.4656554E-1,1.3705544E3,3.187993E4,1.5E0,1.2802607E-1,4.0087206E-3,2.2689488E0,-1.5757294E-2,5E-1,2.5773663E-2,-2.0535922E-1,2.5266962E0,-3.4233506E-3,8.035315E-1,-2.933282E-3,9.3222517E-1,5.5121403E-2,9.2496514E-1,1.6910094E4,-6.984631E-3,-2.6277725E-2,1.624998E4,7.8914866E-2,-2.5055896E-2,3.0537503E-2,1.2483748E3,-4.0423177E-2,9.1352835E-2,-2.4560671E-3,2.6285674E-2,-1.3674507E-1,3.1781174E-2,-1.6938865E-1,1.8076137E-2,-2.1092832E-1,-3.4162813E-1,2.1157637E-2,-3.2011625E-1,-5.1128987E-2,1.3838263E-1,-3.5400383E-2,3.8977847E-2,-1.8162029E-2,-9.0845354E-2,-3.0120826E-1,6.6617034E-2,-1.5032321E-1,-1.8991256E-2,-2.68072E-1,-8.024686E-2,1.959095E-1,-2.2970892E-1,-2.1755491E-1,2.3854842E-2,1.5425178E-1,-1.1955186E-1,-1.8151946E-1,-5.7522595E-1,5.422753E-2,-1.3196127E-1],"split_indices":[4,3,14,14,8,10,10,12,0,1,11,11,11,10,12,6,4,0,4,14,6,11,14,5,6,6,13,10,11,0,0,0,0,0,0,0,0,0,0,0,0,0,0,0,0,0,0,0,0,0,0,0,0,0,0,0,0,0,0,0,0],"split_type":[0,0,0,0,0,0,0,0,0,0,0,0,0,0,0,0,0,0,0,0,0,0,0,0,0,0,0,0,0,0,0,0,0,0,0,0,0,0,0,0,0,0,0,0,0,0,0,0,0,0,0,0,0,0,0,0,0,0,0,0,0],"sum_hessian":[8.105952E3,5.9479614E3,2.1579912E3,3.7944348E2,5.5685176E3,4.929164E2,1.6650747E3,2.5469682E2,1.24746666E2,4.4762585E2,5.120892E3,4.6208185E2,3.0834568E1,1.3265295E3,3.385452E2,9.298288E1,1.6171394E2,1.8580189E0,1.2288864E2,4.8239548E1,3.993863E2,3.615529E3,1.5053628E3,1.3335416E2,3.287277E2,2.632988E1,4.504688E0,2.0755038E2,1.1189791E3,1.0730726E1,3.2781448E2,2.1319672E1,7.166321E1,1.5413806E2,7.5758705E0,1.16182976E2,6.7056704E0,4.1259693E1,6.979855E0,3.0425982E1,3.6896033E2,1.5026069E3,2.1129224E3,8.822951E2,6.230676E2,1.044877E1,1.2290539E2,5.5758934E1,2.7296875E2,1.765212E1,8.67776E0,2.8688557E0,1.6358323E0,1.7358955E1,1.9019142E2,1.0831976E3,3.5781467E1,4.954942E0,5.775784E0,2.763273E2,5.1487183E1],"tree_param":{"num_deleted":"0","num_feature":"15","num_nodes":"61","size_leaf_vector":"0"}},{"base_weights":[4.9052414E-2,9.056432E-2,-4.90721E-1,4.5045188E-1,3.7071194E-2,-2.522702E-1,-8.947781E-1,5.511351E-1,-3.269744E-1,7.277431E-2,-3.963893E-1,-6.521089E-1,-8.409868E-2,-4.8623234E-1,-9.554712E-1,-3.248081E-1,6.1650735E-1,-1.6371982E-1,-8.6086774E-1,1.3123311E-1,-3.0571198E-1,-6.725588E-1,-8.9626415E-3,-9.117308E-1,-1.3927539E-1,5.9566405E-2,-6.454729E-1,-7.5801426E-1,6.102968E-2,-9.7498906E-1,-2.0705001E-1,-6.5246767E-1,9.771768E-2,-2.6004494E-4,6.9802344E-1,-1.344392E0,-8.143855E-2,-1.0937266E0,-7.6508984E-2,1.9377184E-1,-1.7332512E-1,-7.456848E-1,-2.1879156E-1,-9.9125206E-1,-3.4956753E-1,1.9019681E-1,-6.794649E-1,-9.4624513E-1,3.3036935E-1,-1.103505E0,8.897392E-2,-9.7468585E-1,1.3324521E-1,-3.6002576E-1,-1.2900286E0,-9.346049E-1,3.8206646E-1,-7.502867E-1,6.9718015E-1,-9.986165E-1,-4.0340376E-1,1.7498885E-1,-7.057849E-1],"categories":[],"categories_nodes":[],"categories_segments":[],"categories_sizes":[],"default_left":[1,1,1,1,1,1,1,1,1,1,1,1,1,1,1,1,1,1,1,1,1,1,1,1,1,1,1,1,1,1,1,0,0,0,0,0,0,0,0,0,0,0,0,0,0,0,0,0,0,0,0,0,0,0,0,0,0,0,0,0,0,0,0],"id":20,"left_children":[1,3,5,7,9,11,13,15,17,19,21,23,25,27,29,31,33,35,37,39,41,43,45,47,49,51,53,55,57,59,61,-1,-1,-1,-1,-1,-1,-1,-1,-1,-1,-1,-1,-1,-1,-1,-1,-1,-1,-1,-1,-1,-1,-1,-1,-1,-1,-1,-1,-1,-1,-1,-1],"loss_changes":[1.7652238E2,1.407965E2,5.3980774E1,7.4260315E1,9.859442E1,2.3829731E1,4.703079E0,4.8202087E1,9.372076E0,1.3025394E2,5.1868668E1,1.3855434E1,2.029671E1,4.3584747E0,2.4335632E0,8.214203E0,3.9236298E1,8.130519E0,4.5415916E0,9.714258E1,2.9959526E1,2.8788757E1,2.7208652E1,3.2938652E0,8.126186E0,1.5440393E1,8.968311E0,4.2721825E0,5.9660726E0,1.9681091E0,1.2390965E0,0E0,0E0,0E0,0E0,0E0,0E0,0E0,0E0,0E0,0E0,0E0,0E0,0E0,0E0,0E0,0E0,0E0,0E0,0E0,0E0,0E0,0E0,0E0,0E0,0E0,0E0,0E0,0E0,0E0,0E0,0E0,0E0],"parents":[2147483647,0,0,1,1,2,2,3,3,4,4,5,5,6,6,7,7,8,8,9,9,10,10,11,11,12,12,13,13,14,14,15,15,16,16,17,17,18,18,19,19,20,20,21,21,22,22,23,23,24,24,25,25,26,26,27,27,28,28,29,29,30,30],"right_children":[2,4,6,8,10,12,14,16,18,20,22,24,26,28,30,32,34,36,38,40,42,44,46,48,50,52,54,56,58,60,62,-1,-1,-1,-1,-1,-1,-1,-1,-1,-1,-1,-1,-1,-1,-1,-1,-1,-1,-1,-1,-1,-1,-1,-1,-1,-1,-1,-1,-1,-1,-1,-1],"split_conditions":[2.4717446E3,1.5E0,3.285284E-2,6.311792E-3,6.4990195E4,7.804827E3,7.7274014E3,-2.4685536E-2,2.0449106E-2,3.5E0,4.5E0,9.20583E-1,5.5E0,4.5E0,9.4164455E-1,9.3417066E-1,5E-1,-2.7409052E-2,7.898845E-2,1.0968792E-2,2.5E0,3.093158E-2,1.1909375E-3,9.318566E-2,-2.6508534E-2,-6.3251406E-2,3.1990352E4,1.4965824E4,4.699771E-2,5.6001543E4,2.6105773E-2,-1.3908672E-1,2.0830506E-2,-5.5433855E-5,1.4879785E-1,-2.865844E-1,-1.736028E-2,-2.3315002E-1,-1.6309442E-2,4.13064E-2,-3.694777E-2,-1.5895784E-1,-4.663986E-2,-2.1130548E-1,-7.4517414E-2,4.054431E-2,-1.4484173E-1,-2.0171136E-1,7.042493E-2,-2.3523448E-1,1.8966597E-2,-2.0777406E-1,2.8403921E-2,-7.67468E-2,-2.7499577E-1,-1.9923E-1,8.144522E-2,-1.5993883E-1,1.486181E-1,-2.1287537E-1,-8.59937E-2,3.7302423E-2,-1.5045238E-1],"split_indices":[7,8,0,6,13,13,14,6,0,2,9,3,8,9,3,3,1,0,11,10,8,5,10,6,10,11,14,13,5,13,5,0,0,0,0,0,0,0,0,0,0,0,0,0,0,0,0,0,0,0,0,0,0,0,0,0,0,0,0,0,0,0,0],"split_type":[0,0,0,0,0,0,0,0,0,0,0,0,0,0,0,0,0,0,0,0,0,0,0,0,0,0,0,0,0,0,0,0,0,0,0,0,0,0,0,0,0,0,0,0,0,0,0,0,0,0,0,0,0,0,0,0,0,0,0,0,0,0,0],"sum_hessian":[7.8750107E3,7.3133975E3,5.6161316E2,9.454227E2,6.367975E3,3.542059E2,2.0740723E2,8.372791E2,1.0814363E2,5.884144E3,4.83831E2,1.040182E2,2.5018771E2,2.7992409E1,1.7941483E2,5.7871513E1,7.794076E2,8.381977E1,2.4323858E1,5.097471E3,7.8667255E2,2.820449E2,2.0178612E2,6.8541336E1,3.5476875E1,1.9991898E2,5.026873E1,1.844642E1,9.545987E0,1.745598E2,4.8550167E0,3.2288372E1,2.5583141E1,9.110269E1,6.883049E2,4.461516E0,7.935825E1,1.8451572E1,5.872287E0,4.2293667E3,8.681047E2,1.2852536E2,6.5814716E2,1.4092558E2,1.4111931E2,1.5612778E2,4.5658337E1,6.692001E1,1.6213202E0,6.056556E0,2.9420317E1,1.2481628E1,1.8743735E2,3.591987E1,1.4348863E1,1.6128462E1,2.317958E0,4.116535E0,5.4294524E0,1.6691306E2,7.6467404E0,3.1167054E0,1.7383114E0],"tree_param":{"num_deleted":"0","num_feature":"15","num_nodes":"63","size_leaf_vector":"0"}},{"base_weights":[4.0017225E-2,6.290702E-2,-8.2113403E-1,2.5405017E-1,-2.8284686E-2,-5.6519085E-1,-9.173876E-1,4.058051E-1,-7.08194E-2,-8.70611E-2,2.2917752E-1,1.2684591E-1,-7.628637E-1,-5.5170846E-1,-9.480018E-1,-5.687603E-1,4.63178E-1,-5.3176975E-1,1.4069079E-1,-5.809449E-2,-5.6751156E-1,2.8154105E-1,-6.2837696E-1,1.2397071E0,-7.7021724E-1,-8.5541123E-1,1.898362E-1,2.9369226E-1,-7.2047603E-1,-5.175051E-1,-9.676247E-1,-1.4962505E-1,-8.2039547E-1,-6.109606E-1,5.1231444E-1,-5.5412956E-2,-6.602287E-1,-7.218264E-1,1.9280806E-1,-3.6572316E-1,-5.5916035E-3,-7.749323E-1,-7.032732E-2,4.528157E-1,1.9618589E-1,-1.4230239E0,-1.7547534E-1,1.5242368E-1,2.7922306E0,-9.898334E-1,4.8288755E-2,-8.856289E-1,1.6027512E-1,6.6358024E-1,-6.155766E-1,-9.148819E-1,-6.16919E-2,2.122178E-1,-8.508567E-1,-4.383525E-1,-9.750055E-1],"categories":[],"categories_nodes":[],"categories_segments":[],"categories_sizes":[],"default_left":[1,1,1,1,1,1,1,1,1,1,1,1,1,1,1,1,1,1,1,1,1,1,1,1,1,1,1,0,1,1,1,0,0,0,0,0,0,0,0,0,0,0,0,0,0,0,0,0,0,0,0,0,0,0,0,0,0,0,0,0,0],"id":21,"left_children":[1,3,5,7,9,11,13,15,17,19,21,23,25,27,29,31,33,35,37,39,41,43,45,47,49,51,53,-1,55,57,59,-1,-1,-1,-1,-1,-1,-1,-1,-1,-1,-1,-1,-1,-1,-1,-1,-1,-1,-1,-1,-1,-1,-1,-1,-1,-1,-1,-1,-1,-1],"loss_changes":[1.5140102E2,1.3039418E2,4.380905E0,1.1914769E2,7.666925E1,7.888275E0,1.0769806E0,9.2354706E1,7.516122E1,5.7367146E1,4.2463E1,1.4443869E1,4.081093E0,2.128161E0,6.0154724E-1,9.582413E0,8.243814E1,1.4799255E1,2.3905537E1,6.284372E1,2.4119537E1,1.2895714E1,1.9365103E1,1.0401099E1,1.50349E0,1.3908272E0,2.222261E0,0E0,1.4147372E0,2.0872614E0,5.5625916E-2,0E0,0E0,0E0,0E0,0E0,0E0,0E0,0E0,0E0,0E0,0E0,0E0,0E0,0E0,0E0,0E0,0E0,0E0,0E0,0E0,0E0,0E0,0E0,0E0,0E0,0E0,0E0,0E0,0E0,0E0],"parents":[2147483647,0,0,1,1,2,2,3,3,4,4,5,5,6,6,7,7,8,8,9,9,10,10,11,11,12,12,13,13,14,14,15,15,16,16,17,17,18,18,19,19,20,20,21,21,22,22,23,23,24,24,25,25,26,26,28,28,29,29,30,30],"right_children":[2,4,6,8,10,12,14,16,18,20,22,24,26,28,30,32,34,36,38,40,42,44,46,48,50,52,54,-1,56,58,60,-1,-1,-1,-1,-1,-1,-1,-1,-1,-1,-1,-1,-1,-1,-1,-1,-1,-1,-1,-1,-1,-1,-1,-1,-1,-1,-1,-1,-1,-1],"split_conditions":[1.4728221E-1,2.5E0,2.2079274E-1,5E-1,9.470057E-1,1.0339558E0,1.5E0,-4.3771425E-3,1.1818632E-3,9.899275E-3,9.405405E4,4.0948574E4,9.412501E-1,5.589731E-1,8.510502E3,2.584984E2,5E-1,-3.8730782E-3,7.187211E2,-2.563214E-3,1.9094479E1,3.5E0,2.252886E-2,7.3210377E-4,5.4881055E4,9.5902205E-1,1.671387E-1,6.260646E-2,9.3219376E-1,8.2491565E-1,5.6280875E-1,-3.1895615E-2,-1.7488395E-1,-1.3023865E-1,1.09210216E-1,-1.1812395E-2,-1.4074115E-1,-1.5387194E-1,4.110095E-2,-7.796131E-2,-1.1919637E-3,-1.6519254E-1,-1.4991695E-2,9.6526854E-2,4.1821003E-2,-3.0334643E-1,-3.740613E-2,3.24922E-2,5.952206E-1,-2.1100308E-1,1.0293728E-2,-1.8878977E-1,3.4165893E-2,1.4145559E-1,-1.3122265E-1,-1.9502564E-1,-1.315088E-2,4.523853E-2,-1.8137738E-1,-9.344373E-2,-2.078422E-1],"split_indices":[0,8,0,2,3,12,8,6,10,6,13,14,3,12,14,7,1,6,13,6,12,8,5,10,13,4,0,0,3,4,4,0,0,0,0,0,0,0,0,0,0,0,0,0,0,0,0,0,0,0,0,0,0,0,0,0,0,0,0,0,0],"split_type":[0,0,0,0,0,0,0,0,0,0,0,0,0,0,0,0,0,0,0,0,0,0,0,0,0,0,0,0,0,0,0,0,0,0,0,0,0,0,0,0,0,0,0,0,0,0,0,0,0,0,0,0,0,0,0,0,0,0,0,0,0],"sum_hessian":[7.677197E3,7.47932E3,1.978768E2,2.4151785E3,5.0641416E3,5.595677E1,1.4192003E2,1.6460275E3,7.6915094E2,4.123454E3,9.4068744E2,1.2511904E1,4.344487E1,1.2432949E1,1.2948708E2,9.1018974E1,1.5550085E3,2.4144614E2,5.277048E2,3.8900425E3,2.3341179E2,8.871862E2,5.3501198E1,5.4137974E0,7.098106E0,3.9691284E1,3.7535865E0,1.9457855E0,1.0487164E1,6.8382754E0,1.226488E2,3.474339E1,5.6275585E1,6.752199E1,1.4874866E3,5.158562E1,1.8986052E2,2.9337212E1,4.9836758E2,5.66252E2,3.3237903E3,1.6430612E2,6.9105675E1,2.9364658E2,5.935397E2,1.8645092E1,3.4856106E1,3.8298233E0,1.583974E0,5.431456E0,1.6666499E0,3.8668896E1,1.0223883E0,2.474301E0,1.2792854E0,7.797418E0,2.689745E0,2.2582464E0,4.580029E0,2.5174048E0,1.201314E2],"tree_param":{"num_deleted":"0","num_feature":"15","num_nodes":"61","size_leaf_vector":"0"}},{"base_weights":[3.2652903E-2,-2.6232162E-1,8.670346E-2,-1.515256E-1,-6.3173914E-1,-1.731429E-1,1.4533186E-1,-1.8682583E-1,3.5518992E-1,-4.871263E-1,-9.527565E-1,-1.9325557E-1,1.0873166E0,2.801226E-1,-1.1887519E-2,-2.0105667E-1,1.2207061E0,4.9760023E-1,-5.8845466E-1,-9.9916685E-1,-3.4166816E-1,-1.0002078E0,-6.2373552E-2,-5.781978E-1,-1.4261024E-1,1.2488406E0,-6.501953E-1,3.4404078E-1,-4.7506467E-1,-7.042725E-1,2.7376855E-2,-1.3403815E-1,-4.5034185E-1,1.5554063E0,4.833748E-1,2.612063E-1,9.434215E-1,2.4851494E-1,-1.4402881E0,-3.1697038E-1,-1.0637078E0,-8.5429144E-1,-1.4767791E-1,-1.0156155E0,-2.9275814E-1,-7.6266754E-1,5.23073E-1,1.0473461E-1,-1.1404719E0,-3.3858955E-2,-4.1955906E-1,1.4131159E0,4.4541562E-1,-6.71913E-1,3.9874655E-1,-1.2427498E0,-2.7760327E-1,-1.5207704E0,-5.6496567E-1,7.0297435E-2,-3.981657E-1],"categories":[],"categories_nodes":[],"categories_segments":[],"categories_sizes":[],"default_left":[1,1,1,1,1,1,1,1,1,1,1,1,1,1,1,1,1,1,1,1,1,1,1,1,1,1,0,1,1,1,1,0,0,0,0,0,0,0,0,0,0,0,0,0,0,0,0,0,0,0,0,0,0,0,0,0,0,0,0,0,0],"id":22,"left_children":[1,3,5,7,9,11,13,15,17,19,21,23,25,27,29,31,33,35,37,39,41,43,45,47,49,51,-1,53,55,57,59,-1,-1,-1,-1,-1,-1,-1,-1,-1,-1,-1,-1,-1,-1,-1,-1,-1,-1,-1,-1,-1,-1,-1,-1,-1,-1,-1,-1,-1,-1],"loss_changes":[1.1935531E2,4.7356056E1,9.6403275E1,1.6042646E1,1.1938797E1,2.9746395E1,1.0940082E2,1.698391E1,8.156307E0,1.3529869E1,3.3991394E0,2.2291267E1,5.989895E0,1.3432698E2,6.482666E1,1.3775307E1,1.3472443E0,5.1688814E0,6.154999E0,1.454052E0,1.4448139E1,5.498047E-1,2.5357273E0,5.123183E1,3.057197E1,1.6436958E0,0E0,1.4272235E2,3.2596684E1,1.369635E1,4.124881E1,0E0,0E0,0E0,0E0,0E0,0E0,0E0,0E0,0E0,0E0,0E0,0E0,0E0,0E0,0E0,0E0,0E0,0E0,0E0,0E0,0E0,0E0,0E0,0E0,0E0,0E0,0E0,0E0,0E0,0E0],"parents":[2147483647,0,0,1,1,2,2,3,3,4,4,5,5,6,6,7,7,8,8,9,9,10,10,11,11,12,12,13,13,14,14,15,15,16,16,17,17,18,18,19,19,20,20,21,21,22,22,23,23,24,24,25,25,27,27,28,28,29,29,30,30],"right_children":[2,4,6,8,10,12,14,16,18,20,22,24,26,28,30,32,34,36,38,40,42,44,46,48,50,52,-1,54,56,58,60,-1,-1,-1,-1,-1,-1,-1,-1,-1,-1,-1,-1,-1,-1,-1,-1,-1,-1,-1,-1,-1,-1,-1,-1,-1,-1,-1,-1,-1,-1],"split_conditions":[8.552966E-1,2.8782073E-2,-3.5893903E-3,9.564742E-1,3.2419012E4,1.0596364E5,3.4739128E-3,1.0224009E5,3.395864E4,3.5E0,9.389523E-1,-8.927058E-2,4.797169E-2,7.2385885E-2,8.658991E-1,3.0705816E4,1.1211181E-2,5.97922E-3,-3.6652146E-3,3.2432728E-2,-3.4181802E-3,1.2245031E5,8.1006014E-1,5.6253228E3,3.311637E-2,9.458293E-1,-1.3860232E-1,-1.0838759E-1,3.7253127E-2,7.8554863E3,1.6136413E-2,-2.857295E-2,-9.59995E-2,3.3156642E-1,1.0304115E-1,5.5681422E-2,2.0110942E-1,5.2976E-2,-3.0702662E-1,-6.756867E-2,-2.2675091E-1,-1.8210955E-1,-3.1480543E-2,-2.1649905E-1,-6.2407337E-2,-1.6257806E-1,1.1150362E-1,2.2326307E-2,-2.4311474E-1,-7.2177234E-3,-8.943753E-2,3.012343E-1,9.494938E-2,-1.432319E-1,8.500092E-2,-2.6491734E-1,-5.917677E-2,-3.2418308E-1,-1.204339E-1,1.4985325E-2,-8.4877096E-2],"split_indices":[4,0,10,3,14,14,10,14,14,9,3,11,0,11,12,13,11,0,0,0,6,14,4,13,11,3,0,11,5,14,6,0,0,0,0,0,0,0,0,0,0,0,0,0,0,0,0,0,0,0,0,0,0,0,0,0,0,0,0,0,0],"split_type":[0,0,0,0,0,0,0,0,0,0,0,0,0,0,0,0,0,0,0,0,0,0,0,0,0,0,0,0,0,0,0,0,0,0,0,0,0,0,0,0,0,0,0,0,0,0,0,0,0,0,0,0,0,0,0,0,0,0,0,0,0],"sum_hessian":[7.483698E3,1.1583402E3,6.325358E3,8.9217004E2,2.6617023E2,1.1640831E3,5.161275E3,8.346553E2,5.7514786E1,1.8524013E2,8.0930084E1,1.1466334E3,1.7449713E1,2.7784292E3,2.3828457E3,8.2714954E2,7.505734E0,5.038379E1,7.1309967E0,3.968217E1,1.4555797E2,7.671819E1,4.211892E0,1.3210683E2,1.0145266E3,1.6222841E1,1.2268716E0,2.562119E3,2.163103E2,1.2696783E2,2.2558777E3,6.5310474E2,1.740448E2,4.3992524E0,3.1064813E0,3.3961708E1,1.6422083E1,3.954126E0,3.1768708E0,3.9406605E0,3.5741512E1,3.9026314E1,1.0653165E2,7.465663E1,2.0615625E0,1.7799991E0,2.431893E0,6.00204E1,7.2086426E1,7.2927844E2,2.852482E2,1.2838834E1,3.3840065E0,1.3033601E2,2.431783E3,4.3172356E1,1.7313794E2,1.7059998E1,1.0990783E2,2.0499526E3,2.0592514E2],"tree_param":{"num_deleted":"0","num_feature":"15","num_nodes":"61","size_leaf_vector":"0"}},{"base_weights":[2.6853688E-2,4.4326834E-2,-7.683738E-1,3.8516542E-1,3.577906E-3,-5.123624E-1,-8.9292544E-1,5.086758E-1,-3.7439036E-1,5.9885442E-2,-2.7804402E-1,9.528161E-2,-7.152364E-1,-4.499077E-1,-9.363475E-1,-1.2554895E0,5.362867E-1,-5.0396924E-3,-1.5314143E0,1.188074E-1,-1.2046408E-1,-4.0852937E-1,-1.0924203E-1,9.148301E-1,-7.338944E-1,-8.030112E-1,1.13174565E-1,9.50985E-2,-7.699983E-1,-3.9574224E-1,-9.6451706E-1,3.7097463E-1,-1.7943324E0,-9.1623686E-2,6.096988E-1,2.7215913E-1,-1.0552094E0,-1.89337E0,-4.8517042E-1,-4.049321E-2,2.1618725E-1,2.526104E-2,-4.2439058E-1,-3.2480267E-1,-8.661524E-1,-3.1671655E-1,1.7475097E-1,1.5885123E0,-7.7674466E-1,-9.5371544E-1,-7.57888E-3,-8.3367735E-1,1.4331524E-1,5.526981E-1,-6.108587E-1,-6.6840833E-1,6.887909E-1,-7.498323E-2,-8.726527E-1,3.501642E-1,-7.991936E-1,-2.9783815E-1,-9.750912E-1],"categories":[],"categories_nodes":[],"categories_segments":[],"categories_sizes":[],"default_left":[1,1,1,1,1,1,1,1,1,1,1,1,1,1,1,1,1,1,1,1,1,1,1,1,1,1,1,1,1,1,1,0,0,0,0,0,0,0,0,0,0,0,0,0,0,0,0,0,0,0,0,0,0,0,0,0,0,0,0,0,0,0,0],"id":23,"left_children":[1,3,5,7,9,11,13,15,17,19,21,23,25,27,29,31,33,35,37,39,41,43,45,47,49,51,53,55,57,59,61,-1,-1,-1,-1,-1,-1,-1,-1,-1,-1,-1,-1,-1,-1,-1,-1,-1,-1,-1,-1,-1,-1,-1,-1,-1,-1,-1,-1,-1,-1,-1,-1],"loss_changes":[1.0178828E2,9.953296E1,4.5646515E0,7.198437E1,1.0153955E2,6.7118654E0,1.5910263E0,3.275746E1,4.5980545E1,5.6720524E1,2.3456177E1,1.043791E1,3.0373306E0,2.0380044E0,1.0550308E0,9.823538E0,2.9982666E1,2.4325655E1,8.941395E0,6.2411453E1,5.8233337E1,2.2761795E1,2.7544538E1,9.978024E0,1.2219791E0,1.1863422E0,1.8519484E0,2.7528095E0,4.4863844E-1,2.1963181E0,3.368225E-1,0E0,0E0,0E0,0E0,0E0,0E0,0E0,0E0,0E0,0E0,0E0,0E0,0E0,0E0,0E0,0E0,0E0,0E0,0E0,0E0,0E0,0E0,0E0,0E0,0E0,0E0,0E0,0E0,0E0,0E0,0E0,0E0],"parents":[2147483647,0,0,1,1,2,2,3,3,4,4,5,5,6,6,7,7,8,8,9,9,10,10,11,11,12,12,13,13,14,14,15,15,16,16,17,17,18,18,19,19,20,20,21,21,22,22,23,23,24,24,25,25,26,26,27,27,28,28,29,29,30,30],"right_children":[2,4,6,8,10,12,14,16,18,20,22,24,26,28,30,32,34,36,38,40,42,44,46,48,50,52,54,56,58,60,62,-1,-1,-1,-1,-1,-1,-1,-1,-1,-1,-1,-1,-1,-1,-1,-1,-1,-1,-1,-1,-1,-1,-1,-1,-1,-1,-1,-1,-1,-1,-1,-1],"split_conditions":[1.4728221E-1,1.6375117E-2,2.3406494E-1,3.223779E-2,2.9452473E4,1.0339558E0,1.5E0,-6.264776E-2,4.456858E4,5.087643E-2,4.5E0,4.0948574E4,9.4159687E-1,3.34503E-1,8.510502E3,1.3214017E-2,7.7937067E-1,1.3827959E-3,5.4110008E4,-3.9151546E-2,1.075385E4,6.655964E4,3.4561234E4,1.8013669E-3,5.4881055E4,9.591615E-1,1.671387E-1,2.7752632E-1,4.880591E-1,8.2491565E-1,5.6280875E-1,7.908077E-2,-3.8249835E-1,-1.9531447E-2,1.2996967E-1,5.801624E-2,-2.2493929E-1,-4.0361023E-1,-1.0342392E-1,-8.631949E-3,4.60847E-2,5.3849034E-3,-9.046746E-2,-6.9238275E-2,-1.8463796E-1,-6.751456E-2,3.7251715E-2,3.386236E-1,-1.6557889E-1,-2.033038E-1,-1.615592E-3,-1.7771524E-1,3.055055E-2,1.1781881E-1,-1.3021693E-1,-1.424848E-1,1.4682975E-1,-1.5984198E-2,-1.8602364E-1,7.46446E-2,-1.7036434E-1,-6.349024E-2,-2.0786048E-1],"split_indices":[0,5,0,0,14,12,8,11,14,11,9,14,3,0,14,5,12,6,13,11,14,13,13,6,13,4,0,0,12,4,4,0,0,0,0,0,0,0,0,0,0,0,0,0,0,0,0,0,0,0,0,0,0,0,0,0,0,0,0,0,0,0,0],"split_type":[0,0,0,0,0,0,0,0,0,0,0,0,0,0,0,0,0,0,0,0,0,0,0,0,0,0,0,0,0,0,0,0,0,0,0,0,0,0,0,0,0,0,0,0,0,0,0,0,0,0,0,0,0,0,0,0,0,0,0,0,0,0,0],"sum_hessian":[7.322014E3,7.165514E3,1.565001E2,7.642876E2,6.4012266E3,5.2893375E1,1.03606735E2,6.576744E2,1.0661326E2,5.335278E3,1.065949E3,1.3372045E1,3.9521328E1,1.0262616E1,9.3344124E1,9.449335E0,6.4822504E2,8.157641E1,2.5036852E1,4.0216924E3,1.3135852E3,6.0040826E2,4.6554074E2,6.6731124E0,6.6989317E0,3.576273E1,3.7586007E0,4.0573025E0,6.205314E0,5.3683405E0,8.7975784E1,2.4290204E0,7.020314E0,6.782806E1,5.80397E2,6.512666E1,1.6449745E1,1.7999952E1,7.0368996E0,1.5259779E3,2.4957146E3,8.884923E2,4.2509286E2,5.089927E2,9.141553E1,2.689447E2,1.9659602E2,4.816023E0,1.8570899E0,4.9021864E0,1.7967451E0,3.4755497E1,1.00723E0,2.4860728E0,1.2725278E0,1.7197723E0,2.3375301E0,1.0212759E0,5.184038E0,1.9307752E0,3.437565E0,1.8289816E0,8.61468E1],"tree_param":{"num_deleted":"0","num_feature":"15","num_nodes":"63","size_leaf_vector":"0"}},{"base_weights":[2.1860726E-2,