{"learner":{"attributes":{"best_iteration":"85","best_ntree_limit":"86","best_score":"0.14646434032763583","scikit_learn":"{\"use_label_encoder\": null, \"n_estimators\": 86, \"objective\": \"binary:logistic\", \"max_depth\": 5, \"max_leaves\": null, \"max_bin\": null, \"grow_policy\": null, \"learning_rate\": 0.2131702912636896, \"verbosity\": null, \"booster\": null, \"tree_method\": null, \"gamma\": null, \"min_child_weight\": 1, \"max_delta_step\": null, \"subsample\": 1, \"sampling_method\": null, \"colsample_bytree\": 1, \"colsample_bylevel\": 1, \"colsample_bynode\": null, \"reg_alpha\": 0, \"reg_lambda\": 1, \"scale_pos_weight\": null, \"base_score\": null, \"missing\": NaN, \"num_parallel_tree\": null, \"random_state\": null, \"n_jobs\": null, \"monotone_constraints\": null, \"interaction_constraints\": null, \"importance_type\": null, \"gpu_id\": null, \"validate_parameters\": null, \"predictor\": null, \"enable_categorical\": false, \"feature_types\": null, \"max_cat_to_onehot\": null, \"max_cat_threshold\": null, \"eval_metric\": \"logloss\", \"early_stopping_rounds\": 120, \"callbacks\": null, \"kwargs\": {\"min_split_loss\": 0}, \"classes_\": [0.0, 1.0], \"n_classes_\": 2, \"evals_result_\": {\"validation_0\": {\"logloss\": [0.5474414606143266, 0.4513577479986044, 0.38331185736778456, 0.3341056395225036, 0.2971825786566123, 0.2690049417507954, 0.24715407667343434, 0.23013723523616791, 0.2166932546099027, 0.20611438217728567, 0.19748600067649133, 0.1901266656478246, 0.1842013862801668, 0.17947313941403842, 0.17553192786337474, 0.17242473430927746, 0.16932619974231108, 0.166974851964758, 0.16493410306349396, 0.16317039071361605, 0.1617959945537532, 0.16017927574536356, 0.15890544916080931, 0.15794639962211443, 0.15707855177730418, 0.15640513389811683, 0.15592469198641679, 0.15531301735304295, 0.1546183278088625, 0.15389919225781534, 0.1534413774731545, 0.15302002237891205, 0.152678481011224, 0.1521696801676224, 0.15192731425272635, 0.15155342995842846, 0.15122804135658827, 0.15089927837023906, 0.15065796021086175, 0.15047619845298632, 0.15007538306307053, 0.14992789134640958, 0.14975179089072327, 0.14924179516232852, 0.14919775517128725, 0.14922692500060328, 0.14915283597119194, 0.14892705426721428, 0.1487621737473113, 0.148660230438139, 0.14862917418880464, 0.1486501113820903, 0.1486699692745163, 0.14829529637306577, 0.14796695486655093, 0.14772397068798146, 0.14769593990977722, 0.14763036847836486, 0.14756036456032479, 0.1475461650419639, 0.14749921485179443, 0.14740022057711635, 0.14732006976543, 0.14734467957559952, 0.14722703823679573, 0.14714214679872914, 0.1471477258476424, 0.14713358899369666, 0.14716089327173204, 0.1471539167449749, 0.1471545187756802, 0.1471438777880987, 0.14701560221061682, 0.14704543501600773, 0.1470632097937157, 0.14697166897134353, 0.14686211367958324, 0.14672600544756076, 0.1465941672764644, 0.1465559678521614, 0.14654700782128693, 0.14657626042394065, 0.14656202439096166, 0.14647895934395336, 0.14646691730154524, 0.14646434032763583]}}, \"_estimator_type\": \"classifier\"}"},"feature_names":["p_Rhad","p_numberOfInnermostPixelHits","p_ambiguityType","p_Reta","p_Rphi","p_sigmad0","p_deltaEta1","p_e2ts1","p_nTracks","p_numberOfPixelHits","p_deltaPhiRescaled2","p_d0","p_EptRatio","p_pt_track","p_ptconecoreTrackPtrCorrection"],"feature_types":["float","float","float","float","float","float","float","float","float","float","float","float","float","float","float"],"gradient_booster":{"model":{"gbtree_model_param":{"num_parallel_tree":"1","num_trees":"86","size_leaf_vector":"0"},"tree_info":[0,0,0,0,0,0,0,0,0,0,0,0,0,0,0,0,0,0,0,0,0,0,0,0,0,0,0,0,0,0,0,0,0,0,0,0,0,0,0,0,0,0,0,0,0,0,0,0,0,0,0,0,0,0,0,0,0,0,0,0,0,0,0,0,0,0,0,0,0,0,0,0,0,0,0,0,0,0,0,0,0,0,0,0,0,0],"trees":[{"base_weights":[9.916672E-1,1.5145376E0,-1.8229369E0,-6.0441333E-1,1.6588761E0,-1.937679E0,-5.1343626E-1,5.8511424E-1,-8.695509E-1,-6.3780856E-1,1.722816E0,-1.9748689E0,-1.5065749E0,6.934225E-1,-1.7757009E0,-8.1894153E-1,1.0858283E0,-1.8357772E0,-6.7351776E-1,4.47564E-1,-1.3874285E0,1.8269367E0,9.8939395E-1,-1.7392374E0,-1.9853673E0,-4.401914E-1,-1.8782755E0,1.2457496E0,-7.2440946E-1,-9.6183205E-1,-1.9122086E0,-4.9275362E-1,-1.8160919E0,-1.027027E0,1.3430167E0,-1.8502463E0,-0E0,-1.3090909E0,-3.6555362E-1,1.15E0,-9.108434E-1,-4.6300715E-1,-1.6734083E0,1.3892905E0,1.8928438E0,-7.696268E-1,1.0990585E0,-1.8626374E0,-6.516854E-1,6.1452514E-1,-1.2098765E0,-1.5140187E0,-1.9506681E0,-1.7647059E0,1.4035656E0,-2.6086956E-1,-1.8378378E0,-1.4166666E0,2.5641027E-1],"categories":[],"categories_nodes":[],"categories_segments":[],"categories_sizes":[],"default_left":[1,1,1,1,1,1,1,1,1,1,1,1,1,1,1,1,1,1,1,1,1,1,1,1,0,1,1,1,1,1,0,0,0,0,0,0,0,0,0,0,0,0,0,0,0,0,0,0,0,0,0,0,0,0,0,0,0,0,0],"id":0,"left_children":[1,3,5,7,9,11,13,15,17,19,21,23,25,27,29,31,33,35,37,39,41,43,45,47,-1,49,51,53,55,57,-1,-1,-1,-1,-1,-1,-1,-1,-1,-1,-1,-1,-1,-1,-1,-1,-1,-1,-1,-1,-1,-1,-1,-1,-1,-1,-1,-1,-1],"loss_changes":[5.0822945E4,8.908086E3,8.1195703E2,5.8650055E2,4.0050625E3,7.677734E1,6.6732715E2,2.3939233E2,2.8662292E2,6.020873E2,2.0239453E3,7.8671875E0,1.5742609E2,1.7651419E2,2.1936035E1,2.8297058E1,1.375015E2,6.793274E0,2.471247E2,2.8992978E2,1.14885254E2,6.673828E2,6.3742334E2,2.606311E1,0E0,8.557656E1,4.845459E0,7.9323975E1,3.2294086E1,1.8509983E1,0E0,0E0,0E0,0E0,0E0,0E0,0E0,0E0,0E0,0E0,0E0,0E0,0E0,0E0,0E0,0E0,0E0,0E0,0E0,0E0,0E0,0E0,0E0,0E0,0E0,0E0,0E0,0E0,0E0],"parents":[2147483647,0,0,1,1,2,2,3,3,4,4,5,5,6,6,7,7,8,8,9,9,10,10,11,11,12,12,13,13,14,14,15,15,16,16,17,17,18,18,19,19,20,20,21,21,22,22,23,23,25,25,26,26,27,27,28,28,29,29],"right_children":[2,4,6,8,10,12,14,16,18,20,22,24,26,28,30,32,34,36,38,40,42,44,46,48,-1,50,52,54,56,58,-1,-1,-1,-1,-1,-1,-1,-1,-1,-1,-1,-1,-1,-1,-1,-1,-1,-1,-1,-1,-1,-1,-1,-1,-1,-1,-1,-1,-1],"split_conditions":[6.2523276E-2,5E-1,9.2085385E-1,5E-1,8.719186E-1,9.019214E-1,1.24975294E-1,2.5E0,8.900099E-1,1.7852577E0,4.104315E-2,7.866551E-2,1.0666213E-1,2.4657955E0,1.6049778E-1,1.0750764E3,9.037341E-1,9.608159E-1,-7.5215695E-4,2.1483954E-2,4.225645E-3,8.988366E-1,-1.32897375E-2,8.886548E-1,-4.2322132E-1,1.5848877E0,1.476211E-1,-4.4640265E-3,1.7159883E3,9.3479955E-1,-4.0762606E-1,-1.0504043E-1,-3.8713685E-1,-2.1893165E-1,2.8629127E-1,-3.9441755E-1,-0E0,-2.790593E-1,-7.792517E-2,2.4514583E-1,-1.9416475E-1,-9.869937E-2,-3.5672092E-1,2.9615545E-1,4.0349808E-1,-1.6406156E-1,2.3428662E-1,-3.9705896E-1,-1.3891996E-1,1.309985E-1,-2.5790974E-1,-3.227438E-1,-4.1582447E-1,-3.7618285E-1,2.991985E-1,-5.560964E-2,-3.9177242E-1,-3.0199122E-1,5.465905E-2],"split_indices":[0,1,3,2,3,3,0,9,3,12,5,0,0,12,0,7,3,4,10,0,0,4,10,3,0,12,0,6,7,4,0,0,0,0,0,0,0,0,0,0,0,0,0,0,0,0,0,0,0,0,0,0,0,0,0,0,0,0,0],"split_type":[0,0,0,0,0,0,0,0,0,0,0,0,0,0,0,0,0,0,0,0,0,0,0,0,0,0,0,0,0,0,0,0,0,0,0,0,0,0,0,0,0,0,0,0,0,0,0,0,0,0,0,0,0,0,0,0,0,0,0],"sum_hessian":[3.453125E4,2.912175E4,5.4095E3,1.857E3,2.726475E4,4.97325E3,4.3625E2,3.3825E2,1.51875E3,7.3825E2,2.65265E4,4.575E3,3.9825E2,2.2325E2,2.13E2,8.875E1,2.495E2,2.5475E2,1.264E3,3.0175E2,4.365E2,2.32275E4,3.299E3,2.0225E2,4.37275E3,1.035E2,2.9475E2,1.6075E2,6.25E1,3.175E1,1.8125E2,6.8E1,2.075E1,2.675E1,2.2275E2,2.5275E2,2E0,4.115E2,8.525E2,1.99E2,1.0275E2,1.0375E2,3.3275E2,3.043E3,2.01845E4,1.9325E2,3.10575E3,1.81E2,2.125E1,4.375E1,5.975E1,5.25E1,2.4225E2,7.5E0,1.5325E2,4.5E1,1.75E1,2.3E1,8.75E0],"tree_param":{"num_deleted":"0","num_feature":"15","num_nodes":"59","size_leaf_vector":"0"}},{"base_weights":[8.100785E-1,1.2440245E0,-1.4609623E0,1.4346642E0,6.7959584E-2,-1.6036988E0,-3.2713896E-1,-2.1326694E-1,1.4801378E0,-6.8516093E-1,5.2631205E-1,-1.6319605E0,-1.2546681E0,7.298155E-1,-1.3848715E0,5.998532E-1,-1.1102886E0,1.5780388E0,1.1834244E0,-1.3944137E0,-5.0616693E-1,-8.737299E-1,6.741909E-1,-1.486724E0,-1.6399766E0,-2.3876275E-1,-1.5015043E0,1.0909255E0,-5.726821E-1,-8.0800694E-1,-1.6053685E0,-1.3774179E0,9.072962E-1,-2.89638E-1,-1.5214697E0,1.5834273E0,-1.284788E0,1.3656794E0,8.4934103E-1,-1.5718585E0,-1.0293934E0,-1.0349851E0,-2.5468633E-1,-1.2979742E0,-5.958972E-1,-1.0514774E0,7.692207E-1,-1.579828E0,-8.9214885E-1,6.8799335E-1,-1.1814893E0,-1.1612605E0,-1.6183867E0,1.1940244E0,-1.8594011E0,-1.6876216E-1,-1.5468596E0,-3.330687E-1,-1.5915604E0],"categories":[],"categories_nodes":[],"categories_segments":[],"categories_sizes":[],"default_left":[1,1,1,1,1,1,1,1,1,1,1,1,1,1,1,1,1,1,1,1,1,1,1,1,0,1,1,1,1,1,0,0,0,0,0,0,0,0,0,0,0,0,0,0,0,0,0,0,0,0,0,0,0,0,0,0,0,0,0],"id":1,"left_children":[1,3,5,7,9,11,13,15,17,19,21,23,25,27,29,31,33,35,37,39,41,43,45,47,-1,49,51,53,55,57,-1,-1,-1,-1,-1,-1,-1,-1,-1,-1,-1,-1,-1,-1,-1,-1,-1,-1,-1,-1,-1,-1,-1,-1,-1,-1,-1,-1,-1],"loss_changes":[3.288045E4,6.2799883E3,8.657217E2,1.8065625E3,1.3494492E3,4.4844727E1,6.7150903E2,4.7340268E2,6.795E2,1.8706561E2,5.0371344E2,2.678711E0,9.002045E1,1.4202779E2,3.687549E1,2.0830765E2,1.0366388E2,2.740625E2,3.534121E2,1.7650269E1,1.570061E2,2.6642212E1,3.6134528E2,1.1907043E1,0E0,6.3404972E1,9.644653E0,7.39216E1,2.5675169E1,3.1102802E1,0E0,0E0,0E0,0E0,0E0,0E0,0E0,0E0,0E0,0E0,0E0,0E0,0E0,0E0,0E0,0E0,0E0,0E0,0E0,0E0,0E0,0E0,0E0,0E0,0E0,0E0,0E0,0E0,0E0],"parents":[2147483647,0,0,1,1,2,2,3,3,4,4,5,5,6,6,7,7,8,8,9,9,10,10,11,11,12,12,13,13,14,14,15,15,16,16,17,17,18,18,19,19,20,20,21,21,22,22,23,23,25,25,26,26,27,27,28,28,29,29],"right_children":[2,4,6,8,10,12,14,16,18,20,22,24,26,28,30,32,34,36,38,40,42,44,46,48,-1,50,52,54,56,58,-1,-1,-1,-1,-1,-1,-1,-1,-1,-1,-1,-1,-1,-1,-1,-1,-1,-1,-1,-1,-1,-1,-1,-1,-1,-1,-1,-1,-1],"split_conditions":[5.7223797E-2,5E-1,9.156809E-1,8.7792516E-1,5E-1,8.992697E-1,1.0608954E-1,1.4746885E3,2.6361383E-2,9.0078753E-1,-9.82197E-3,7.711154E-2,8.591517E-2,3.010846E0,1.7003268E-1,-5.3932704E-3,1.0098702E-2,1.5866218E-2,3.5E0,8.7771904E-1,-7.5215695E-4,9.219254E-1,8.803633E-1,8.821717E-1,-3.495943E-1,1.9783568E0,1.4729354E-1,4.0727817E-3,1.7159883E3,1.4733899E3,-3.4221688E-1,-2.9362458E-1,1.934086E-1,-6.174222E-2,-3.2433215E-1,3.3753967E-1,-2.7387863E-1,2.9112226E-1,1.8105428E-1,-3.3507353E-1,-2.194361E-1,-2.2062807E-1,-5.4291558E-2,-2.7668953E-1,-1.2702757E-1,-2.2414374E-1,1.63975E-1,-3.367724E-1,-1.9017963E-1,1.4665975E-1,-2.518584E-1,-2.4754624E-1,-3.4499198E-1,2.5453055E-1,-3.9636907E-1,-3.597508E-2,-3.2974452E-1,-7.100035E-2,-3.392734E-1],"split_indices":[0,2,3,3,1,3,0,7,5,3,10,0,0,12,0,6,0,6,8,3,10,3,3,3,0,12,0,6,7,7,0,0,0,0,0,0,0,0,0,0,0,0,0,0,0,0,0,0,0,0,0,0,0,0,0,0,0,0,0],"split_type":[0,0,0,0,0,0,0,0,0,0,0,0,0,0,0,0,0,0,0,0,0,0,0,0,0,0,0,0,0,0,0,0,0,0,0,0,0,0,0,0,0,0,0,0,0,0,0,0,0,0,0,0,0,0,0,0,0,0,0],"sum_hessian":[3.3361074E4,2.8009521E4,5.3515527E3,2.4102326E4,3.9071968E3,4.752809E3,5.987435E2,6.471293E2,2.3455195E4,1.4780737E3,2.429123E3,4.393392E3,3.5941705E2,2.99637E2,2.9910654E2,3.3961288E2,3.0751642E2,1.7632887E4,5.8223086E3,2.9648398E2,1.1815898E3,2.3159462E2,2.1975286E3,2.3955542E2,4.1538364E3,7.064212E1,2.8877493E2,2.3472365E2,6.491334E1,8.4002785E1,2.1510376E2,4.523175E1,2.9438113E2,1.032168E2,2.042996E2,1.7600207E4,3.268084E1,3.7651755E3,2.057133E3,1.9727692E2,9.920706E1,3.7980762E2,8.0178217E2,9.019582E1,1.413988E2,1.1417282E2,2.0833557E3,2.056896E2,3.3865818E1,3.5759056E1,3.4883064E1,7.663282E1,2.121421E2,2.2737338E2,7.3502593E0,4.671662E1,1.819672E1,5.3188507E1,3.0814278E1],"tree_param":{"num_deleted":"0","num_feature":"15","num_nodes":"59","size_leaf_vector":"0"}},{"base_weights":[6.94741E-1,1.0642707E0,-1.2777683E0,1.2367334E0,5.456635E-2,-1.4007442E0,-2.1610351E-1,-1.297581E0,1.2631867E0,9.166138E-1,-2.2029744E-1,-1.4361593E0,-1.0390409E0,6.5587395E-1,-1.1660267E0,-4.287555E-1,-1.5270625E0,1.291125E0,-1.202219E0,1.0182396E0,-5.721079E-1,-8.1821513E-1,1.826363E-2,-1.2897923E0,-1.4459876E0,-2.3307103E-1,-1.3382342E0,9.4192827E-1,-7.705444E-1,-5.652225E-1,-1.3784736E0,9.5300704E-1,-7.449442E-1,-7.618204E-1,-1.6930746E0,9.417102E-1,1.3720572E0,-1.5479395E0,-3.8655666E-1,-7.826326E-1,1.0730796E0,-8.7816805E-2,-1.2404782E0,-4.411932E-1,-1.232919E0,-1.0767875E0,1.7176579E-1,-8.0642694E-1,-1.4076973E0,2.4841315E-1,-1.6251619E0,-1.0155393E0,-1.4288653E0,-1.5882893E0,1.0798998E0,-1.324032E0,-1.1290599E-1,-1.5537965E0,-1.823754E-1,1.6267197E-1,-1.3889657E0],"categories":[],"categories_nodes":[],"categories_segments":[],"categories_sizes":[],"default_left":[1,1,1,1,1,1,1,1,1,1,1,1,1,1,1,1,1,1,1,1,1,1,1,1,0,1,1,1,1,1,1,0,0,0,0,0,0,0,0,0,0,0,0,0,0,0,0,0,0,0,0,0,0,0,0,0,0,0,0,0,0],"id":2,"left_children":[1,3,5,7,9,11,13,15,17,19,21,23,25,27,29,31,33,35,37,39,41,43,45,47,-1,49,51,53,55,57,59,-1,-1,-1,-1,-1,-1,-1,-1,-1,-1,-1,-1,-1,-1,-1,-1,-1,-1,-1,-1,-1,-1,-1,-1,-1,-1,-1,-1,-1,-1],"loss_changes":[2.2520373E4,4.531039E3,6.361763E2,1.4915703E3,8.999058E2,5.4470703E1,4.209273E2,4.521747E1,1.516582E3,1.3949817E2,4.1080328E2,3.8554688E0,9.451044E1,1.0890219E2,3.0254364E1,2.2319977E1,2.1782043E1,6.137578E2,6.904782E1,8.576117E1,1.9090239E1,1.2787756E2,3.4637836E2,1.3652588E1,0E0,7.2568794E1,6.9296875E0,7.8963974E1,1.6170425E1,2.4396671E1,3.1191406E0,0E0,0E0,0E0,0E0,0E0,0E0,0E0,0E0,0E0,0E0,0E0,0E0,0E0,0E0,0E0,0E0,0E0,0E0,0E0,0E0,0E0,0E0,0E0,0E0,0E0,0E0,0E0,0E0,0E0,0E0],"parents":[2147483647,0,0,1,1,2,2,3,3,4,4,5,5,6,6,7,7,8,8,9,9,10,10,11,11,12,12,13,13,14,14,15,15,16,16,17,17,18,18,19,19,20,20,21,21,22,22,23,23,25,25,26,26,27,27,28,28,29,29,30,30],"right_children":[2,4,6,8,10,12,14,16,18,20,22,24,26,28,30,32,34,36,38,40,42,44,46,48,-1,50,52,54,56,58,60,-1,-1,-1,-1,-1,-1,-1,-1,-1,-1,-1,-1,-1,-1,-1,-1,-1,-1,-1,-1,-1,-1,-1,-1,-1,-1,-1,-1,-1,-1],"split_conditions":[5.7223797E-2,5E-1,9.186001E-1,-9.552745E-3,2.7025547E-2,8.992697E-1,1.0608954E-1,-1.7250825E-3,9.906678E-3,4.2554885E-2,2.5E0,8.067374E-2,9.6369855E-2,5E-1,1.6049778E-1,1.2802279E1,1.1555043E2,9.0945697E-1,9.1453993E-1,-5.5102088E-2,6.858734E-2,1.0838766E4,8.961139E-1,1.5468761E0,-3.082416E-1,2.8366598E-3,1.4729354E-1,-5.5588353E-3,5E-1,-3.7540037E-3,9.186614E-1,2.0315279E-1,-1.5879998E-1,-1.6239747E-1,-3.609132E-1,2.0074463E-1,2.9248184E-1,-3.299747E-1,-8.240239E-2,-1.6683401E-1,2.2874868E-1,-1.8719934E-2,-2.644331E-1,-9.404928E-2,-2.628217E-1,-2.295391E-1,3.6615364E-2,-1.7190626E-1,-3.0007926E-1,5.29543E-2,-3.4643623E-1,-2.164828E-1,-3.0459163E-1,-3.3857608E-1,2.3020256E-1,-2.8224427E-1,-2.4068203E-2,-3.3122325E-1,-3.8877018E-2,3.467683E-2,-2.9608622E-1],"split_indices":[0,2,3,6,5,3,0,0,6,11,9,0,0,2,0,7,7,4,3,11,11,14,3,12,0,6,0,6,1,6,3,0,0,0,0,0,0,0,0,0,0,0,0,0,0,0,0,0,0,0,0,0,0,0,0,0,0,0,0,0,0],"split_type":[0,0,0,0,0,0,0,0,0,0,0,0,0,0,0,0,0,0,0,0,0,0,0,0,0,0,0,0,0,0,0,0,0,0,0,0,0,0,0,0,0,0,0,0,0,0,0,0,0,0,0,0,0,0,0,0,0,0,0,0,0],"sum_hessian":[3.0893479E4,2.6019455E4,4.8740225E3,2.2223365E4,3.79609E3,4.367771E3,5.0625177E2,2.2907463E2,2.1994291E4,9.171921E2,2.878898E3,3.9755469E3,3.9222403E2,2.641167E2,2.4213509E2,4.8462456E1,1.8061217E2,2.174831E4,2.4598E2,8.5887787E2,5.8314236E1,8.2035956E2,2.0585383E3,2.5847488E2,3.7170718E3,1.0666575E2,2.855583E2,2.2028111E2,4.383558E1,6.420957E1,1.779255E2,8.649521E0,3.9812935E1,3.3193535E1,1.4741864E2,4.0924138E3,1.7655896E4,1.7212613E2,7.3853874E1,2.4989346E1,8.338885E2,3.4469524E1,2.3844713E1,4.3078323E2,3.8957635E2,2.523455E2,1.8061929E3,5.2222466E1,2.0625243E2,7.986448E1,2.6801271E1,6.5291405E1,2.2026688E2,1.0847134E1,2.0943398E2,2.3252386E1,2.0583195E1,1.7070976E1,4.71386E1,1.1050445E0,1.7682047E2],"tree_param":{"num_deleted":"0","num_feature":"15","num_nodes":"61","size_leaf_vector":"0"}},{"base_weights":[6.1052656E-1,9.2380923E-1,-1.204427E0,1.0876215E0,-1.3265297E-2,-1.3015364E0,-5.170582E-1,-1.2304306E0,1.1146402E0,2.6683253E-1,-6.711622E-1,-9.972429E-1,-1.315283E0,1.4788665E-1,-1.2148298E0,-3.7878603E-1,-1.4084754E0,1.144099E0,-1.0188212E0,3.6945727E-1,-1.0366176E0,-1.1145017E0,-4.3212697E-1,-1.23558E0,-1.5984373E-1,-1.2474157E0,-1.3310788E0,4.8255408E-1,-1.178033E0,-8.850702E-1,-1.2886231E0,-1.1773391E0,1.9194856E-1,-1.4389976E0,8.561688E-1,8.593613E-1,1.2544259E0,-4.7793186E-1,-1.529351E0,-1.0825873E-1,6.66604E-1,-1.3361278E0,-4.3594104E-1,-1.295743E0,-8.970378E-1,-7.1611667E-1,4.4516213E-2,-1.0250652E0,-1.3444774E0,9.393277E-1,-8.908605E-1,-1.2863786E0,-8.482484E-1,-1.2912608E0,6.96365E-1,-1.2891986E0,-1.1327349E-1,-5.481488E-1,-1.3613358E0,-2.508234E-1,-1.29328E0],"categories":[],"categories_nodes":[],"categories_segments":[],"categories_sizes":[],"default_left":[1,1,1,1,1,1,1,1,1,1,1,1,1,1,1,1,1,1,1,1,1,1,1,1,1,1,0,1,1,1,1,0,0,0,0,0,0,0,0,0,0,0,0,0,0,0,0,0,0,0,0,0,0,0,0,0,0,0,0,0,0],"id":3,"left_children":[1,3,5,7,9,11,13,15,17,19,21,23,25,27,29,31,33,35,37,39,41,43,45,47,49,51,-1,53,55,57,59,-1,-1,-1,-1,-1,-1,-1,-1,-1,-1,-1,-1,-1,-1,-1,-1,-1,-1,-1,-1,-1,-1,-1,-1,-1,-1,-1,-1,-1,-1],"loss_changes":[1.5931178E4,3.6676992E3,2.746416E2,1.2751426E3,6.5551447E2,1.3802246E1,2.3784529E2,3.506903E1,1.2646855E3,3.3413544E2,1.1208771E2,3.1798325E1,2.0424805E0,1.17351425E2,4.944336E0,1.9352913E1,1.4629883E1,6.218867E2,7.5026245E1,3.2850244E2,3.222705E1,1.3478485E1,9.367111E1,1.4792786E0,3.0299303E1,9.298706E0,0E0,8.086534E1,6.166374E0,7.1033745E0,6.5252686E-1,0E0,0E0,0E0,0E0,0E0,0E0,0E0,0E0,0E0,0E0,0E0,0E0,0E0,0E0,0E0,0E0,0E0,0E0,0E0,0E0,0E0,0E0,0E0,0E0,0E0,0E0,0E0,0E0,0E0,0E0],"parents":[2147483647,0,0,1,1,2,2,3,3,4,4,5,5,6,6,7,7,8,8,9,9,10,10,11,11,12,12,13,13,14,14,15,15,16,16,17,17,18,18,19,19,20,20,21,21,22,22,23,23,24,24,25,25,27,27,28,28,29,29,30,30],"right_children":[2,4,6,8,10,12,14,16,18,20,22,24,26,28,30,32,34,36,38,40,42,44,46,48,50,52,-1,54,56,58,60,-1,-1,-1,-1,-1,-1,-1,-1,-1,-1,-1,-1,-1,-1,-1,-1,-1,-1,-1,-1,-1,-1,-1,-1,-1,-1,-1,-1,-1,-1],"split_conditions":[6.430147E-2,5.1079616E-2,9.109404E-1,-9.971462E-3,1.0764266E4,7.866551E-2,1.3653728E-1,-1.2703757E-3,7.893546E-3,2.2555063E3,2.5E0,9.046464E-1,1.4781442E-1,1.6038489E3,1.8040566E-1,8.966963E-1,2.1837104E4,9.2110956E-1,1.8763978E-2,1.0647991E3,9.1388667E-1,1.5E0,9.189166E-1,1.7657908E3,1.5971959E0,9.228977E-1,-2.8374645E-1,-4.3113055E-3,5.5E0,3.0210856E-3,9.111588E-1,-2.509737E-1,4.091773E-2,-3.0675155E-1,1.8250975E-1,1.831903E-1,2.674063E-1,-1.0188087E-1,-3.260122E-1,-2.3077546E-2,1.4210017E-1,-2.8482273E-1,-9.2929676E-2,-2.762139E-1,-1.912218E-1,-1.526548E-1,9.489534E-3,-2.1851344E-1,-2.8660265E-1,2.0023677E-1,-1.8990499E-1,-2.742177E-1,-1.8082136E-1,-2.7525845E-1,1.4844432E-1,-2.7481884E-1,-2.4146542E-2,-1.1684904E-1,-2.9019633E-1,-5.3468097E-2,-2.756889E-1],"split_indices":[0,5,3,6,14,0,0,0,6,7,9,4,0,7,0,3,7,4,0,14,3,9,4,7,12,4,0,6,9,6,3,0,0,0,0,0,0,0,0,0,0,0,0,0,0,0,0,0,0,0,0,0,0,0,0,0,0,0,0,0,0],"split_type":[0,0,0,0,0,0,0,0,0,0,0,0,0,0,0,0,0,0,0,0,0,0,0,0,0,0,0,0,0,0,0,0,0,0,0,0,0,0,0,0,0,0,0,0,0,0,0,0,0,0,0,0,0,0,0,0,0,0,0,0,0],"sum_hessian":[2.8015615E4,2.3892053E4,4.123563E3,2.0336771E4,3.5552808E3,3.61233E3,5.1123282E2,2.3379729E2,2.0102975E4,2.494043E3,1.0612377E3,1.5931311E2,3.453017E3,2.6217755E2,2.4905528E2,4.0966927E1,1.9283035E2,1.982963E4,2.733433E2,2.3126753E3,1.8136765E2,3.7046756E2,6.9077014E2,1.2364599E2,3.5667114E1,6.670376E2,2.7859795E3,2.098473E2,5.233024E1,4.7918045E1,2.0113724E2,1.6632471E1,2.4334455E1,1.9062575E2,2.2046142E0,5.5401333E3,1.4289498E4,1.3366537E2,1.3967792E2,8.871156E2,1.4255597E3,1.20206E2,6.1161644E1,1.9935799E2,1.7110957E2,4.3254953E2,2.582206E2,4.570487E1,7.7941124E1,1.4132397E1,2.1534716E1,6.0569275E2,6.1344814E1,2.2031406E1,1.878159E2,4.719236E1,5.137877E0,2.9324287E1,1.8593758E1,1.1435956E0,1.9999364E2],"tree_param":{"num_deleted":"0","num_feature":"15","num_nodes":"61","size_leaf_vector":"0"}},{"base_weights":[5.4246944E-1,8.3022803E-1,-1.0433412E0,9.9729717E-1,-9.356362E-3,-1.1904995E0,-1.2600558E-1,4.474682E-1,1.093265E0,-4.5289633E-1,2.68035E-1,-1.2279626E0,-8.6544895E-1,4.737405E-1,-9.5882964E-1,-9.363184E-1,5.585544E-1,1.184503E0,8.337152E-1,-1.9465648E-1,-8.169374E-1,-8.9293575E-1,3.7171954E-1,-1.2424245E0,-1.1200249E0,-3.263413E-1,-1.1443771E0,6.5199697E-1,-1.1107278E0,-4.927335E-1,-1.1858793E0,-3.028568E-1,-1.157259E0,8.3955705E-1,2.3787251E-1,1.36071E-1,1.1964155E0,9.024388E-1,-7.8354485E-2,-8.260559E-1,4.103754E-3,-6.297643E-1,-1.0674242E0,5.4052933E-3,-1.108526E0,4.895106E-1,-9.0353125E-1,-6.887409E-1,-1.1795362E0,9.235622E-2,-1.2926768E0,-8.5346377E-1,-1.2099473E0,-1.1868886E0,8.318479E-1,-4.3435436E-2,-1.5875386E0,-1.2627895E-1,-1.4281127E0,-1.1918724E0,-2.9376328E-1],"categories":[],"categories_nodes":[],"categories_segments":[],"categories_sizes":[],"default_left":[1,1,1,1,1,1,1,1,1,1,1,1,1,1,1,1,1,1,1,1,1,1,1,0,1,1,1,1,1,1,1,0,0,0,0,0,0,0,0,0,0,0,0,0,0,0,0,0,0,0,0,0,0,0,0,0,0,0,0,0,0],"id":4,"left_children":[1,3,5,7,9,11,13,15,17,19,21,23,25,27,29,31,33,35,37,39,41,43,45,-1,47,49,51,53,55,57,59,-1,-1,-1,-1,-1,-1,-1,-1,-1,-1,-1,-1,-1,-1,-1,-1,-1,-1,-1,-1,-1,-1,-1,-1,-1,-1,-1,-1,-1,-1],"loss_changes":[1.1484026E4,2.9876973E3,5.216494E2,9.3688477E2,4.3517062E2,3.9498535E1,2.6791534E2,4.0658923E2,3.5716406E2,1.2778027E2,2.622782E2,3.2666016E0,5.189737E1,8.883696E1,2.3174667E1,2.7175629E1,2.2020892E2,1.3957227E2,2.468501E2,1.0008252E2,2.5791718E1,3.4616196E1,3.006262E2,0E0,8.498077E0,4.8641045E1,3.3295593E0,9.393773E1,1.6173908E1,2.5613941E1,4.5321655E-1,0E0,0E0,0E0,0E0,0E0,0E0,0E0,0E0,0E0,0E0,0E0,0E0,0E0,0E0,0E0,0E0,0E0,0E0,0E0,0E0,0E0,0E0,0E0,0E0,0E0,0E0,0E0,0E0,0E0,0E0],"parents":[2147483647,0,0,1,1,2,2,3,3,4,4,5,5,6,6,7,7,8,8,9,9,10,10,11,11,12,12,13,13,14,14,15,15,16,16,17,17,18,18,19,19,20,20,21,21,22,22,24,24,25,25,26,26,27,27,28,28,29,29,30,30],"right_children":[2,4,6,8,10,12,14,16,18,20,22,24,26,28,30,32,34,36,38,40,42,44,46,-1,48,50,52,54,56,58,60,-1,-1,-1,-1,-1,-1,-1,-1,-1,-1,-1,-1,-1,-1,-1,-1,-1,-1,-1,-1,-1,-1,-1,-1,-1,-1,-1,-1,-1,-1],"split_conditions":[5.358452E-2,5E-1,9.156809E-1,8.944957E-1,5E-1,8.9558315E-1,1.0608954E-1,8.4504116E-1,2.5121208E-2,3.5E0,-2.3486113E-2,9.089247E-1,1.0666213E-1,4.0564574E-3,1.7003268E-1,3.773558E-3,2.6868E-2,4.224148E-1,9.211913E-3,8.826711E-1,2.1781398E4,-2.5111488E-1,2.547615E-2,-2.64848E-1,8.081103E-2,1.8272593E3,1.4729354E-1,-6.1366325E-3,4.580509E3,3.5996782E-3,9.6370214E-1,-6.456007E-2,-2.4669324E-1,1.7896862E-1,5.070735E-2,2.9006293E-2,2.5504026E-1,1.9237314E-1,-1.6702848E-2,-1.7609057E-1,8.7479845E-4,-1.3424705E-1,-2.2754312E-1,1.1522479E-3,-2.363048E-1,1.04349114E-1,-1.9260602E-1,-1.468191E-1,-2.5144207E-1,1.9687602E-2,-2.755603E-1,-1.8193312E-1,-2.5792482E-1,-2.5300938E-1,1.7732526E-1,-9.259145E-3,-3.3841607E-1,-2.6918922E-2,-3.044312E-1,-2.5407177E-1,-6.26216E-2],"split_indices":[0,2,3,4,1,3,0,3,5,2,6,4,0,6,0,0,5,12,10,4,14,11,6,0,0,7,0,6,14,6,3,0,0,0,0,0,0,0,0,0,0,0,0,0,0,0,0,0,0,0,0,0,0,0,0,0,0,0,0,0,0],"split_type":[0,0,0,0,0,0,0,0,0,0,0,0,0,0,0,0,0,0,0,0,0,0,0,0,0,0,0,0,0,0,0,0,0,0,0,0,0,0,0,0,0,0,0,0,0,0,0,0,0,0,0,0,0,0,0,0,0,0,0,0,0],"sum_hessian":[2.5163123E4,2.1298762E4,3.8643618E3,1.7763758E4,3.5350034E3,3.3298857E3,5.3447595E2,2.640604E3,1.5123153E4,1.3599131E3,2.1750903E3,2.9832766E3,3.4660928E2,3.1096802E2,2.235079E2,1.9567511E2,2.444929E3,1.1187071E4,3.9360825E3,7.9646173E2,5.6345135E2,1.7770378E2,1.9973866E3,2.6215251E3,3.6175146E2,1.1892434E2,2.2768495E2,2.8005023E2,3.0917809E1,7.425159E1,1.4925632E2,5.1212856E1,1.4446227E2,1.3022198E3,1.1427091E3,1.2582186E2,1.1061249E4,3.6602932E3,2.7578937E2,1.8993651E2,6.065252E2,3.2449258E2,2.3895879E2,3.458148E1,1.431223E2,1.8290582E3,1.6832841E2,4.5388645E1,3.163628E2,8.3604355E1,3.531999E1,4.4457523E1,1.8322743E2,2.4451069E1,2.5559915E2,9.884179E0,2.103363E1,5.416594E1,2.0085648E1,1.4792657E2,1.3297459E0],"tree_param":{"num_deleted":"0","num_feature":"15","num_nodes":"61","size_leaf_vector":"0"}},{"base_weights":[4.8551023E-1,7.462688E-1,-9.35234E-1,9.787585E-1,1.8902811E-1,-1.1289027E0,-9.0333715E-2,-5.099227E-2,1.0164094E0,3.433513E-1,-5.2165926E-1,-1.1673057E0,-8.30012E-1,2.856117E-1,-1.0349928E0,-5.819539E-1,3.071376E-1,-7.378561E-1,1.0310109E0,6.2042826E-1,-3.3347093E-2,-1.162511E0,-3.9030147E-1,-1.0945963E0,-1.192178E0,-3.2662758E-1,-1.1126187E0,4.8482037E-1,-1.1460936E0,-6.670235E-1,-1.1295991E0,-1.3431891E0,-3.4379116E-1,4.5360148E-1,-1.1985769E0,-1.17723145E-1,-1.513517E0,1.0497167E0,-2.8417453E-1,7.066878E-1,-3.5924658E-1,-7.2779864E-1,1.1223236E-1,-1.7397486E0,-9.7122806E-1,-1.5777405E-1,-9.159254E-1,-8.679066E-1,-1.1622801E0,3.279351E-1,-9.164555E-1,-7.042331E-1,-1.1453284E0,-9.808974E-1,7.52841E-1,-3.0141476E-1,-1.4402245E0,-1.204056E0,-3.2278907E-1,-1.1354299E0,-2.6412928E-1],"categories":[],"categories_nodes":[],"categories_segments":[],"categories_sizes":[],"default_left":[1,1,1,1,1,1,1,1,1,1,1,1,1,1,1,1,1,1,1,1,1,1,1,1,0,1,1,1,1,1,1,0,0,0,0,0,0,0,0,0,0,0,0,0,0,0,0,0,0,0,0,0,0,0,0,0,0,0,0,0,0],"id":5,"left_children":[1,3,5,7,9,11,13,15,17,19,21,23,25,27,29,31,33,35,37,39,41,43,45,47,-1,49,51,53,55,57,59,-1,-1,-1,-1,-1,-1,-1,-1,-1,-1,-1,-1,-1,-1,-1,-1,-1,-1,-1,-1,-1,-1,-1,-1,-1,-1,-1,-1,-1,-1],"loss_changes":[8.329024E3,2.4606396E3,5.704092E2,5.1968555E2,6.1360913E2,3.1587646E1,2.3158136E2,9.025596E1,3.3195898E2,4.7971387E2,8.357956E1,3.2355957E0,4.6069397E1,1.3364499E2,5.7080994E0,3.419465E1,6.307605E1,5.1442055E1,3.157793E2,2.2403955E2,1.9709467E2,1.7003983E1,1.0129286E2,8.998474E0,0E0,4.615602E1,1.9802551E0,1.6193915E2,1.3800652E1,7.080553E0,4.379425E-1,0E0,0E0,0E0,0E0,0E0,0E0,0E0,0E0,0E0,0E0,0E0,0E0,0E0,0E0,0E0,0E0,0E0,0E0,0E0,0E0,0E0,0E0,0E0,0E0,0E0,0E0,0E0,0E0,0E0,0E0],"parents":[2147483647,0,0,1,1,2,2,3,3,4,4,5,5,6,6,7,7,8,8,9,9,10,10,11,11,12,12,13,13,14,14,15,15,16,16,17,17,18,18,19,19,20,20,21,21,22,22,23,23,25,25,26,26,27,27,28,28,29,29,30,30],"right_children":[2,4,6,8,10,12,14,16,18,20,22,24,26,28,30,32,34,36,38,40,42,44,46,48,-1,50,52,54,56,58,60,-1,-1,-1,-1,-1,-1,-1,-1,-1,-1,-1,-1,-1,-1,-1,-1,-1,-1,-1,-1,-1,-1,-1,-1,-1,-1,-1,-1,-1,-1],"split_conditions":[4.895553E-2,3.1819332E-2,9.1150504E-1,-7.3733944E-3,2.0034637E4,8.911005E-1,1.367329E-1,-1.1852491E-2,-6.655091E-2,5E-1,-9.060679E-2,1.0880896E3,1.1147489E-1,3.5271076E-3,1.8040566E-1,-3.4410697E-3,4.9612764E-2,1.9092723E4,5.5921793E-2,1.1758419E-2,8.759109E-1,5E-1,5.559541E-2,1.2362198E-1,-2.5413692E-1,1.9555204E0,1.5E0,-2.940799E-3,3.7209666E3,-2.0882743E-3,9.634172E-1,-2.8632802E-1,-7.3286064E-2,9.669436E-2,-2.55501E-1,-2.5095077E-2,-3.2263687E-1,2.2376841E-1,-6.0577568E-2,1.5064484E-1,-7.6580696E-2,-1.5514505E-1,2.3924604E-2,-3.7086272E-1,-2.0703697E-1,-3.363274E-2,-1.9524808E-1,-1.850119E-1,-2.4776359E-1,6.990602E-2,-1.953611E-1,-1.5012157E-1,-2.4414998E-1,-2.0909819E-1,1.6048333E-1,-6.4252675E-2,-3.070131E-1,-2.5666898E-1,-6.880904E-2,-2.4203992E-1,-5.6304514E-2],"split_indices":[0,5,3,10,14,3,0,10,11,2,11,7,0,6,0,6,11,13,11,10,4,2,11,0,0,12,8,6,14,6,3,0,0,0,0,0,0,0,0,0,0,0,0,0,0,0,0,0,0,0,0,0,0,0,0,0,0,0,0,0,0],"split_type":[0,0,0,0,0,0,0,0,0,0,0,0,0,0,0,0,0,0,0,0,0,0,0,0,0,0,0,0,0,0,0,0,0,0,0,0,0,0,0,0,0,0,0,0,0,0,0,0,0,0,0,0,0,0,0,0,0,0,0,0,0],"sum_hessian":[2.2479355E4,1.8993777E4,3.4855789E3,1.3401643E4,5.5921343E3,2.8353271E3,6.5025183E2,4.7270862E2,1.2928934E4,4.594888E3,9.9724634E2,2.5099326E3,3.2539444E2,4.656393E2,1.8461252E2,1.9015732E2,2.825513E2,1.0631571E2,1.2822618E4,2.6471528E3,1.9477352E3,1.6830266E2,8.2894366E2,6.512213E2,1.8587113E3,1.1777216E2,2.0762227E2,4.0934418E2,5.629513E1,3.9403572E1,1.4520895E2,4.4209976E1,1.4594734E2,2.5814023E2,2.4411074E1,5.9721085E1,4.6594627E1,1.2642999E4,1.796191E2,2.433191E3,2.1396187E2,3.3685425E2,1.610881E3,3.987528E1,1.2842738E2,5.756054E2,2.5333826E2,1.5291042E2,4.9831088E2,5.6033215E1,6.173895E1,1.7067074E1,1.9055519E2,6.286981E1,3.4647437E2,1.50628195E1,4.123231E1,1.4415886E1,2.4987686E1,1.4392737E2,1.2815781E0],"tree_param":{"num_deleted":"0","num_feature":"15","num_nodes":"61","size_leaf_vector":"0"}},{"base_weights":[4.3365705E-1,-8.8396907E-1,6.7084E-1,-4.3165155E-2,-1.0963874E0,8.931925E-1,1.9258243E-1,-7.272114E-1,4.7276756E-1,-9.340536E-1,-1.159275E0,9.375738E-1,-6.8910867E-1,-5.5084926E-1,3.1641075E-1,-3.0424368E-1,-1.1009798E0,5.8159167E-1,-9.759948E-1,-5.793656E-1,-1.0752699E0,-1.2904168E0,-1.1409618E0,6.403483E-1,1.0485892E0,-1.2821719E-1,-1.0493149E0,-8.368539E-1,-2.2696728E-1,4.5137948E-1,-2.8568852E-1,-1.0608262E0,-6.1263762E-2,-1.2151922E0,-5.819116E-1,-6.882562E-1,6.924043E-1,-1.18848E0,5.608929E-1,-8.842856E-2,-1.0673141E0,-8.909503E-1,-1.122113E0,-8.232118E-1,-1.3535229E0,7.036521E-1,-7.0519435E-1,1.0582006E0,-6.998195E-1,-7.2397876E-1,4.9578887E-1,-1.0635418E0,5.6193504E-2,-1.1508049E0,-5.5900824E-1,-7.0152855E-1,2.5186028E-2,-4.7334325E-1,5.4647034E-1,-2.0940267E-1,-1.133975E0],"categories":[],"categories_nodes":[],"categories_segments":[],"categories_sizes":[],"default_left":[1,1,1,1,1,1,1,1,1,1,1,1,1,1,1,1,1,1,1,1,1,1,0,1,1,1,1,1,1,1,1,0,0,0,0,0,0,0,0,0,0,0,0,0,0,0,0,0,0,0,0,0,0,0,0,0,0,0,0,0,0],"id":6,"left_children":[1,3,5,7,9,11,13,15,17,19,21,23,25,27,29,31,33,35,37,39,41,43,-1,45,47,49,51,53,55,57,59,-1,-1,-1,-1,-1,-1,-1,-1,-1,-1,-1,-1,-1,-1,-1,-1,-1,-1,-1,-1,-1,-1,-1,-1,-1,-1,-1,-1,-1,-1],"loss_changes":[6.292542E3,5.485625E2,1.81427E3,2.1935007E2,2.3950684E1,8.1855176E2,4.9879224E2,4.1907394E1,5.6434616E1,3.392993E1,2.762207E0,3.7316797E2,6.418277E1,7.1480835E1,3.7749197E2,2.3232788E1,7.6797028E0,4.6943535E1,8.873487E0,4.748374E1,3.2502441E0,5.0309753E0,0E0,2.631433E2,1.3933105E2,4.7063663E1,3.1065063E0,3.516568E1,4.3599213E1,3.33849E2,5.482847E1,0E0,0E0,0E0,0E0,0E0,0E0,0E0,0E0,0E0,0E0,0E0,0E0,0E0,0E0,0E0,0E0,0E0,0E0,0E0,0E0,0E0,0E0,0E0,0E0,0E0,0E0,0E0,0E0,0E0,0E0],"parents":[2147483647,0,0,1,1,2,2,3,3,4,4,5,5,6,6,7,7,8,8,9,9,10,10,11,11,12,12,13,13,14,14,15,15,16,16,17,17,18,18,19,19,20,20,21,21,23,23,24,24,25,25,26,26,27,27,28,28,29,29,30,30],"right_children":[2,4,6,8,10,12,14,16,18,20,22,24,26,28,30,32,34,36,38,40,42,44,-1,46,48,50,52,54,56,58,60,-1,-1,-1,-1,-1,-1,-1,-1,-1,-1,-1,-1,-1,-1,-1,-1,-1,-1,-1,-1,-1,-1,-1,-1,-1,-1,-1,-1,-1,-1],"split_conditions":[8.9130604E-1,1.9059625E-2,3.1141631E-2,1.616042E4,1.0629976E3,8.160213E-2,2.5E0,9.661002E2,4.960061E-2,7.374932E-2,5.0991468E-2,9.224551E-1,1.604944E-1,1.7489913E-1,1.9660848E4,-2.685376E-3,9.108642E-1,-4.2886097E-2,2.0684543E0,2.3935366E0,1.4356843E-1,1.8457917E3,-2.4321915E-1,6.4503273E4,7.461887E-2,9.2266124E-1,1.1417141E5,1.5E0,9.0515363E-1,-7.1796444E-3,4.672809E-2,-2.2613662E-1,-1.3059614E-2,-2.5904286E-1,-1.24046266E-1,-1.4671578E-1,1.4760002E-1,-2.5334862E-1,1.19565696E-1,-1.8850341E-2,-2.2751966E-1,-1.8992414E-1,-2.3920116E-1,-1.754843E-1,-2.8853086E-1,1.4999773E-1,-1.5032649E-1,2.2557692E-1,-1.4918073E-1,-1.5433076E-1,1.05687454E-1,-2.267155E-1,1.19787855E-2,-2.4531741E-1,-1.19163945E-1,-1.4954504E-1,5.368913E-3,-1.0090272E-1,1.1649124E-1,-4.4638425E-2,-2.4172978E-1],"split_indices":[3,0,5,13,7,0,9,7,11,0,0,4,0,5,14,10,4,11,12,12,0,7,0,13,11,4,13,9,4,10,0,0,0,0,0,0,0,0,0,0,0,0,0,0,0,0,0,0,0,0,0,0,0,0,0,0,0,0,0,0,0],"split_type":[0,0,0,0,0,0,0,0,0,0,0,0,0,0,0,0,0,0,0,0,0,0,0,0,0,0,0,0,0,0,0,0,0,0,0,0,0,0,0,0,0,0,0,0,0,0,0,0,0,0,0,0,0,0,0,0,0,0,0,0,0],"sum_hessian":[2.0132047E4,3.070687E3,1.706136E4,6.1955176E2,2.4511353E3,1.1646007E4,5.415352E3,2.662011E2,3.5335062E2,6.888472E2,1.762288E3,1.1328662E4,3.17345E2,7.7271735E2,4.642635E3,1.2573244E2,1.4046867E2,3.292198E2,2.413085E1,1.976129E2,4.9123434E2,2.0742859E2,1.5548594E3,3.0825132E3,8.246149E3,1.24631775E2,1.9271323E2,4.0951257E2,3.632048E2,3.7926997E3,8.499349E2,2.9745626E1,9.598681E1,1.1403586E2,2.643282E1,2.600515E1,3.0321463E2,2.139899E1,2.7318587E0,9.909361E1,9.851929E1,1.036011E2,3.8763324E2,2.635495E1,1.8107364E2,2.9444622E3,1.3805104E2,8.201459E3,4.469033E1,6.367689E1,6.095488E1,1.9030215E2,2.4110687E0,1.9078908E2,2.1872348E2,1.2540538E2,2.3779942E2,3.532733E2,3.4394265E3,7.809513E2,6.8983604E1],"tree_param":{"num_deleted":"0","num_feature":"15","num_nodes":"61","size_leaf_vector":"0"}},{"base_weights":[3.872781E-1,-7.633246E-1,6.0729736E-1,-1.302252E-2,-1.041782E0,8.882204E-1,2.3942848E-1,-6.5993154E-1,3.862648E-1,-1.0850669E0,-7.496202E-1,9.2699337E-1,-5.8958906E-1,4.6224436E-1,-1.317685E-1,-8.952529E-1,-1.1298188E-1,6.145542E-1,-3.5285118E-1,-1.0090005E0,-1.1361356E0,-3.8612565E-1,-1.0334271E0,-7.037273E-1,9.475769E-1,-1.09347016E-1,-1.0314329E0,5.8446985E-1,-1.660467E-1,-5.802117E-1,2.0901619E-2,-7.090117E-1,-1.2563459E0,-8.5271496E-1,1.7985234E-1,6.896075E-1,-1.0486326E0,-1.176447E0,-1.2731957E-1,-7.9920065E-1,-1.0894905E0,-1.3188823E0,-1.1106685E0,2.6757687E-1,-1.0089657E0,-6.6049683E-1,-1.1120625E0,-1.5623059E0,-3.1741324E-1,9.699556E-1,-2.4828108E-1,-1.143784E0,2.116445E-1,-1.046927E0,-5.4331657E-2,6.683823E-1,-1.374346E-1,-3.4324712E-1,4.0037525E-1,-5.002857E-1,-9.8703915E-1,1.8107417E-1,-3.7813145E-1],"categories":[],"categories_nodes":[],"categories_segments":[],"categories_sizes":[],"default_left":[1,1,1,1,1,1,1,1,1,1,1,1,1,1,1,1,1,1,1,1,1,1,1,1,1,1,1,1,1,1,1,0,0,0,0,0,0,0,0,0,0,0,0,0,0,0,0,0,0,0,0,0,0,0,0,0,0,0,0,0,0,0,0],"id":7,"left_children":[1,3,5,7,9,11,13,15,17,19,21,23,25,27,29,31,33,35,37,39,41,43,45,47,49,51,53,55,57,59,61,-1,-1,-1,-1,-1,-1,-1,-1,-1,-1,-1,-1,-1,-1,-1,-1,-1,-1,-1,-1,-1,-1,-1,-1,-1,-1,-1,-1,-1,-1,-1,-1],"loss_changes":[4.5663955E3,6.049757E2,1.5645469E3,2.0297049E2,2.5894043E1,4.924541E2,5.424242E2,3.849771E1,8.220497E1,5.9904785E0,2.8047607E1,2.8147217E2,4.6589203E1,3.1479547E2,1.6846906E2,1.3200531E1,1.9943165E1,4.7109894E1,2.126683E1,1.1742065E1,3.6136475E0,5.0144714E1,3.7889404E0,3.4282066E1,2.2134668E2,3.563232E1,1.6767349E0,2.0792078E2,6.720067E1,1.9827286E1,1.1745108E2,0E0,0E0,0E0,0E0,0E0,0E0,0E0,0E0,0E0,0E0,0E0,0E0,0E0,0E0,0E0,0E0,0E0,0E0,0E0,0E0,0E0,0E0,0E0,0E0,0E0,0E0,0E0,0E0,0E0,0E0,0E0,0E0],"parents":[2147483647,0,0,1,1,2,2,3,3,4,4,5,5,6,6,7,7,8,8,9,9,10,10,11,11,12,12,13,13,14,14,15,15,16,16,17,17,18,18,19,19,20,20,21,21,22,22,23,23,24,24,25,25,26,26,27,27,28,28,29,29,30,30],"right_children":[2,4,6,8,10,12,14,16,18,20,22,24,26,28,30,32,34,36,38,40,42,44,46,48,50,52,54,56,58,60,62,-1,-1,-1,-1,-1,-1,-1,-1,-1,-1,-1,-1,-1,-1,-1,-1,-1,-1,-1,-1,-1,-1,-1,-1,-1,-1,-1,-1,-1,-1,-1,-1],"split_conditions":[8.962996E-1,2.3966657E-2,2.511869E-2,1.4197556E4,9.133669E-1,8.160213E-2,5E-1,9.1048664E-1,1.7626116E3,2.4571377E3,1.6600277E0,-5.0192475E-2,1.803037E-1,2.2973465E4,-1.4350424E-3,4.0094894E-3,-4.268854E-3,8.931028E-3,-3.9628325E-3,1.02368854E-1,5.614651E-2,1.4413548E-1,3.9455272E-2,-8.616825E-2,4.645923E-2,-2.9415581E-3,1.1417141E5,9.211913E-3,9.408597E-1,2.674111E-2,3.5E0,-1.5114023E-1,-2.6781562E-1,-1.817735E-1,3.8339175E-2,1.4700383E-1,-2.2353733E-1,-2.5078356E-1,-2.7140751E-2,-1.7036584E-1,-2.3224701E-1,-2.8114653E-1,-2.3676154E-1,5.703944E-2,-2.1508151E-1,-1.407983E-1,-2.3705867E-1,-3.330372E-1,-6.766307E-2,2.0676573E-1,-5.292615E-2,-2.4382077E-1,4.511632E-2,-2.2317372E-1,-1.1581895E-2,1.4247924E-1,-2.9296974E-2,-7.317009E-2,8.534811E-2,-1.06646046E-1,-2.1040742E-1,3.8599633E-2,-8.060639E-2],"split_indices":[3,0,5,13,4,0,2,4,7,7,12,11,0,14,10,6,6,6,6,0,0,0,0,11,11,6,13,10,4,0,2,0,0,0,0,0,0,0,0,0,0,0,0,0,0,0,0,0,0,0,0,0,0,0,0,0,0,0,0,0,0,0,0],"split_type":[0,0,0,0,0,0,0,0,0,0,0,0,0,0,0,0,0,0,0,0,0,0,0,0,0,0,0,0,0,0,0,0,0,0,0,0,0,0,0,0,0,0,0,0,0,0,0,0,0,0,0,0,0,0,0,0,0,0,0,0,0,0,0],"sum_hessian":[1.803513E4,2.894695E3,1.5140437E4,7.83799E2,2.1108962E3,8.583915E3,6.556521E3,2.988926E2,4.849064E2,1.8361497E3,2.747465E2,8.364822E3,2.1909315E2,4.0969985E3,2.4595227E3,2.0853503E2,9.035758E1,3.7060638E2,1.1430001E2,7.4589844E2,1.0902512E3,1.2149656E2,1.5324994E2,1.0385361E2,8.260969E3,1.0558251E2,1.1351064E2,3.4298394E3,6.6715894E2,6.239557E2,1.8355671E3,1.3953204E2,6.9003E1,2.5083023E1,6.527456E1,3.5516452E2,1.5441854E1,2.3664759E1,9.063525E1,2.0984915E2,5.3604926E2,1.2713905E2,9.631122E2,5.9557896E1,6.1938663E1,2.832365E1,1.24926285E2,3.128311E1,7.2570496E1,8.1094014E3,1.515669E2,2.439693E1,8.118558E1,1.11668434E2,1.8422126E0,3.0727454E3,3.5709418E2,5.084794E2,1.5867957E2,5.2336444E2,1.0059128E2,1.3101978E3,5.253694E2],"tree_param":{"num_deleted":"0","num_feature":"15","num_nodes":"63","size_leaf_vector":"0"}},{"base_weights":[3.445292E-1,5.342981E-1,-7.6374054E-1,8.490928E-1,1.9951312E-1,-9.649161E-1,7.849011E-3,2.8037122E-1,9.277531E-1,-2.8984132E-1,3.3491814E-1,-1.0491693E0,-6.323886E-1,2.1042782E-1,-1.108088E0,4.2336434E-1,-6.123675E-1,9.5034105E-1,-1.4367922E-1,-8.343988E-1,-1.7837821E-1,5.3798324E-1,3.5165522E-2,-9.400393E-1,-1.0936066E0,-2.569366E-1,-1.0281435E0,-1.0362246E0,3.5656536E-1,-1.1476935E0,-3.9471868E-1,5.1277953E-1,-1.2801186E0,-1.704324E-1,-1.1949652E0,9.657901E-1,-2.5067702E-1,-9.24509E-1,3.951441E-1,-1.587763E0,-6.7894775E-1,-4.2258877E-1,7.3445596E-2,6.0075843E-1,-6.340632E-1,1.00456975E-1,-7.4288696E-1,-6.6280967E-1,-1.0442793E0,-1.382534E0,-1.0786128E0,2.999883E-1,-8.9273703E-1,-7.7681065E-1,-1.0587285E0,-5.984686E-1,-1.2144907E0,5.6375533E-1,-8.093215E-1,-8.4417725E-1,-1.2268364E0,3.6216128E-1,-7.303822E-1],"categories":[],"categories_nodes":[],"categories_segments":[],"categories_sizes":[],"default_left":[1,1,1,1,1,1,1,1,1,1,1,1,1,1,1,1,1,1,1,1,1,1,1,1,1,1,1,1,1,1,1,0,0,0,0,0,0,0,0,0,0,0,0,0,0,0,0,0,0,0,0,0,0,0,0,0,0,0,0,0,0,0,0],"id":8,"left_children":[1,3,5,7,9,11,13,15,17,19,21,23,25,27,29,31,33,35,37,39,41,43,45,47,49,51,53,55,57,59,61,-1,-1,-1,-1,-1,-1,-1,-1,-1,-1,-1,-1,-1,-1,-1,-1,-1,-1,-1,-1,-1,-1,-1,-1,-1,-1,-1,-1,-1,-1,-1,-1],"loss_changes":[3.4150823E3,1.4608252E3,3.6852075E2,3.1935303E2,4.4533566E2,5.2094116E1,1.1144961E2,1.1125874E2,1.5202344E2,8.8279434E1,3.203731E2,6.2506104E0,5.667273E1,7.6379776E1,1.6870651E0,1.14904785E2,3.080999E1,1.14288086E2,5.524788E1,2.7878845E1,7.4480286E1,2.3124652E2,1.0811646E2,1.2064545E1,3.1027832E0,7.03682E1,6.090393E-1,2.7093353E0,9.084504E1,6.755371E-1,1.6639538E0,0E0,0E0,0E0,0E0,0E0,0E0,0E0,0E0,0E0,0E0,0E0,0E0,0E0,0E0,0E0,0E0,0E0,0E0,0E0,0E0,0E0,0E0,0E0,0E0,0E0,0E0,0E0,0E0,0E0,0E0,0E0,0E0],"parents":[2147483647,0,0,1,1,2,2,3,3,4,4,5,5,6,6,7,7,8,8,9,9,10,10,11,11,12,12,13,13,14,14,15,15,16,16,17,17,18,18,19,19,20,20,21,21,22,22,23,23,24,24,25,25,26,26,27,27,28,28,29,29,30,30],"right_children":[2,4,6,8,10,12,14,16,18,20,22,24,26,28,30,32,34,36,38,40,42,44,46,48,50,52,54,56,58,60,62,-1,-1,-1,-1,-1,-1,-1,-1,-1,-1,-1,-1,-1,-1,-1,-1,-1,-1,-1,-1,-1,-1,-1,-1,-1,-1,-1,-1,-1,-1,-1,-1],"split_conditions":[4.4510998E-2,2.4157312E-2,9.186001E-1,8.9041734E-1,3.5E0,9.052504E-1,1.7797827E3,1.9603633E3,8.062681E4,-4.2130398E-3,3.5E0,1.2809949E3,1.4729354E-1,-5.5086548E-3,1.5E0,6.0904758E4,1.2981251E-2,4.942783E-2,4.5E0,4.2355426E-2,9.252007E-1,3.1632468E-2,2.0659238E3,1.04274765E-1,5.5860084E-2,1.983815E0,1.8627469E-1,4.8427666E3,3.0891881E-3,2.741998E3,3.1069656E3,1.0930936E-1,-2.7288324E-1,-3.6331125E-2,-2.547311E-1,2.0587775E-1,-5.3436894E-2,-1.9707786E-1,8.4232986E-2,-3.384639E-1,-1.4473149E-1,-9.008337E-2,1.565642E-2,1.2806384E-1,-1.3516343E-1,2.1414442E-2,-1.5836143E-1,-1.4129134E-1,-2.2260933E-1,-2.9471517E-1,-2.2992821E-1,6.3948594E-2,-1.9030501E-1,-1.6559295E-1,-2.2568946E-1,-1.2757573E-1,-2.588933E-1,1.2017589E-1,-1.725233E-1,-1.7995352E-1,-2.615251E-1,7.720202E-2,-1.5569578E-1],"split_indices":[0,5,3,4,9,4,7,7,13,10,8,7,0,6,1,13,0,11,9,5,4,10,7,0,0,12,0,14,6,7,7,0,0,0,0,0,0,0,0,0,0,0,0,0,0,0,0,0,0,0,0,0,0,0,0,0,0,0,0,0,0,0,0],"split_type":[0,0,0,0,0,0,0,0,0,0,0,0,0,0,0,0,0,0,0,0,0,0,0,0,0,0,0,0,0,0,0,0,0,0,0,0,0,0,0,0,0,0,0,0,0,0,0,0,0,0,0,0,0,0,0,0,0,0,0,0,0,0,0],"sum_hessian":[1.6234989E4,1.3861931E4,2.3730588E3,7.1434683E3,6.718462E3,1.8820927E3,4.9096622E2,8.685237E2,6.274945E3,1.4558549E3,5.2626074E3,1.4999037E3,3.8218903E2,4.1622015E2,7.474604E1,7.490685E2,1.194552E2,6.1454985E3,1.2944626E2,2.462593E2,1.2095956E3,3.136807E3,2.1258003E3,4.4043295E2,1.0594707E3,1.9697163E2,1.852174E2,4.303255E1,3.7318762E2,7.023768E1,4.5083604E0,7.123752E2,3.669333E1,6.8662865E1,5.079233E1,6.0676445E3,7.7854164E1,5.2561523E1,7.688473E1,4.0546154E1,2.0571313E2,6.137361E2,5.958595E2,2.9778022E3,1.5900461E2,1.9620249E3,1.637754E2,1.22363075E2,3.180699E2,4.7768856E1,1.01170184E3,1.0528028E2,9.1691345E1,2.2957994E1,1.6225941E2,1.3713757E1,2.9318794E1,3.1731412E2,5.587349E1,1.6939693E1,5.329799E1,1.360856E0,3.1475043E0],"tree_param":{"num_deleted":"0","num_feature":"15","num_nodes":"63","size_leaf_vector":"0"}},{"base_weights":[3.0399373E-1,-7.7981895E-1,4.644338E-1,-1.217592E-1,-9.6687204E-1,8.066344E-1,1.9987044E-1,9.5832825E-2,-9.2152095E-1,-7.792067E-1,-1.0475043E0,8.5770017E-1,-4.4406837E-1,3.7910676E-1,-1.24049425E-1,-9.0665144E-1,4.4214514E-1,-1.0042678E0,3.9301407E-1,-6.0477346E-1,-1.1052561E0,-8.941932E-1,-1.0612009E0,-3.6131278E-1,8.859412E-1,-2.5134256E-2,-1.1426136E0,1.1841516E-1,6.293089E-1,-4.9251142E-1,2.3675626E-3,-1.9135085E-1,-9.9602115E-1,-6.799048E-1,5.842957E-1,-3.141512E-1,-1.1682093E0,-6.300369E-1,1.8028643E0,-1.0975682E0,-7.481681E-2,-5.84628E-1,-1.1278254E0,-5.518367E-1,-1.1567332E0,-9.5481676E-1,1.8097205E-1,9.006774E-1,-1.0898827E0,4.8517248E-1,-7.82108E-1,-1.9640682E0,-1.0639654E0,1.7964688E-1,-1.0167584E0,7.0790994E-1,-1.573023E-1,-3.4473774E-1,-7.086984E-1,7.3167324E-2,-6.5188056E-1],"categories":[],"categories_nodes":[],"categories_segments":[],"categories_sizes":[],"default_left":[1,1,1,1,1,1,1,1,1,1,1,1,1,1,1,1,1,1,1,1,1,1,0,1,1,1,1,1,1,1,1,0,0,0,0,0,0,0,0,0,0,0,0,0,0,0,0,0,0,0,0,0,0,0,0,0,0,0,0,0,0],"id":9,"left_children":[1,3,5,7,9,11,13,15,17,19,21,23,25,27,29,31,33,35,37,39,41,43,-1,45,47,49,51,53,55,57,59,-1,-1,-1,-1,-1,-1,-1,-1,-1,-1,-1,-1,-1,-1,-1,-1,-1,-1,-1,-1,-1,-1,-1,-1,-1,-1,-1,-1,-1,-1],"loss_changes":[2.5615354E3,2.3370764E2,1.1614194E3,7.345439E1,2.1563965E1,3.5765942E2,4.2023453E2,1.1577573E2,1.0213074E1,2.4833466E1,1.2172852E0,1.8535767E2,6.438251E1,3.038427E2,1.2012463E2,5.2850037E0,3.9900978E1,9.272446E0,9.88252E0,7.678341E1,1.1627502E0,7.5372086E0,0E0,3.9570885E1,1.5394287E2,5.3922623E1,3.2397308E0,1.5888043E2,1.4709888E2,2.0801498E1,8.903391E1,0E0,0E0,0E0,0E0,0E0,0E0,0E0,0E0,0E0,0E0,0E0,0E0,0E0,0E0,0E0,0E0,0E0,0E0,0E0,0E0,0E0,0E0,0E0,0E0,0E0,0E0,0E0,0E0,0E0,0E0],"parents":[2147483647,0,0,1,1,2,2,3,3,4,4,5,5,6,6,7,7,8,8,9,9,10,10,11,11,12,12,13,13,14,14,15,15,16,16,17,17,18,18,19,19,20,20,21,21,23,23,24,24,25,25,26,26,27,27,28,28,29,29,30,30],"right_children":[2,4,6,8,10,12,14,16,18,20,22,24,26,28,30,32,34,36,38,40,42,44,-1,46,48,50,52,54,56,58,60,-1,-1,-1,-1,-1,-1,-1,-1,-1,-1,-1,-1,-1,-1,-1,-1,-1,-1,-1,-1,-1,-1,-1,-1,-1,-1,-1,-1,-1,-1],"split_conditions":[8.862942E-1,1.5765803E-2,2.1681666E-2,4.3825423E-3,1.0629976E3,7.002254E-2,5E-1,-4.1200873E-3,9.337565E-2,4.376211E-3,3.2809965E-2,4.9955943E-1,4.2914656E4,9.233738E-1,-1.4635986E-3,1.5E0,5E-1,2.4784956E3,1.597534E-2,-3.925271E-3,1.4990759E3,2.6200092E0,-2.262165E-1,4.5E0,6.643815E-3,1.4924321E0,8.256985E-2,1.2097296E-1,7.4325847E-3,3.5E0,1.6505625E-2,-4.0790316E-2,-2.1232212E-1,-1.449355E-1,1.24554485E-1,-6.69677E-2,-2.4902752E-1,-1.3430515E-1,3.843171E-1,-2.3396893E-1,-1.594872E-2,-1.2462532E-1,-2.4041887E-1,-1.176352E-1,-2.4658114E-1,-2.0353857E-1,3.8577866E-2,1.9199766E-1,-2.3233062E-1,1.03424355E-1,-1.667222E-1,-4.18681E-1,-2.2680582E-1,3.8295377E-2,-2.167427E-1,1.5090537E-1,-3.3532176E-2,-7.348784E-2,-1.5107344E-1,1.5597099E-2,-1.3896157E-1],"split_indices":[3,0,5,6,7,0,2,6,6,6,0,12,14,4,10,8,1,14,10,6,13,12,0,9,6,12,0,11,10,2,6,0,0,0,0,0,0,0,0,0,0,0,0,0,0,0,0,0,0,0,0,0,0,0,0,0,0,0,0,0,0],"split_type":[0,0,0,0,0,0,0,0,0,0,0,0,0,0,0,0,0,0,0,0,0,0,0,0,0,0,0,0,0,0,0,0,0,0,0,0,0,0,0,0,0,0,0,0,0,0,0,0,0,0,0,0,0,0,0,0,0,0,0,0,0],"sum_hessian":[1.4727955E4,1.8985969E3,1.2829358E4,4.2059134E2,1.4780055E3,5.593008E3,7.23635E3,3.3132703E2,8.926432E1,4.4739404E2,1.0306115E3,5.373907E3,2.1910063E2,4.658479E3,2.5778713E3,8.465494E1,2.4667209E2,8.420015E1,5.064171E0,2.9332367E2,1.5407037E2,8.995822E1,9.4065326E2,1.2141202E2,5.252495E3,1.3760915E2,8.149148E1,2.2821377E3,2.376341E3,6.5777826E2,1.920093E3,9.750957E0,7.490398E1,2.7311195E1,2.193609E2,1.6722506E1,6.7477646E1,3.2551818E0,1.808989E0,1.5143585E2,1.4188782E2,7.5192914E0,1.4655109E2,4.0390392E1,4.9567825E1,5.760522E1,6.3806797E1,5.214151E3,3.834425E1,8.241137E1,5.5197784E1,5.0257964E0,7.646568E1,2.1661372E3,1.16000565E2,2.1605508E3,2.1579018E2,3.9225122E2,2.6552704E2,1.7334005E3,1.8669255E2],"tree_param":{"num_deleted":"0","num_feature":"15","num_nodes":"61","size_leaf_vector":"0"}},{"base_weights":[2.6670128E-1,3.8830203E-1,-9.0150553E-1,7.6190454E-1,1.5718791E-1,-9.892023E-1,-4.3254948E-1,-1.2621733E0,7.943619E-1,-3.744819E-1,2.510454E-1,-9.999869E-1,-1.4856245E-1,7.196696E-2,-9.220972E-1,-1.267189E-1,-1.5642653E0,8.3064884E-1,-8.413398E-1,-2.6456445E-1,-8.1741846E-1,3.722554E-1,-2.3417544E-1,-1.0298303E0,-8.1853634E-1,2.241951E-1,-8.1744325E-1,-1.0939987E0,3.8099357E-1,-4.731953E-1,-9.9004364E-1,-8.9668864E-1,5.312071E-1,-1.114073E0,-1.9445508E0,-1.0972806E0,8.5129E-1,-6.344199E-2,-1.2856381E0,-7.0035285E-1,-5.6219075E-2,-9.4074476E-1,-8.727408E-2,5.109092E-1,-6.720599E-2,-1.3377547E-2,-5.433919E-1,-9.9025303E-1,-1.0613908E0,-1.8112727E-1,-9.3702257E-1,-8.758548E-1,8.2917196E-1,-8.962802E-1,-2.3430803E-1,-1.291688E-1,-1.1382879E0,9.226864E-1,-9.741984E-1,7.5360745E-2,-9.821916E-1,-5.945943E-2,-1.0004323E0],"categories":[],"categories_nodes":[],"categories_segments":[],"categories_sizes":[],"default_left":[1,1,1,1,1,1,1,1,1,1,1,1,1,1,1,1,1,1,1,1,1,1,1,1,1,1,1,1,1,1,1,0,0,0,0,0,0,0,0,0,0,0,0,0,0,0,0,0,0,0,0,0,0,0,0,0,0,0,0,0,0,0,0],"id":10,"left_children":[1,3,5,7,9,11,13,15,17,19,21,23,25,27,29,31,33,35,37,39,41,43,45,47,49,51,53,55,57,59,61,-1,-1,-1,-1,-1,-1,-1,-1,-1,-1,-1,-1,-1,-1,-1,-1,-1,-1,-1,-1,-1,-1,-1,-1,-1,-1,-1,-1,-1,-1,-1,-1],"loss_changes":[1.910032E3,1.0512633E3,5.1707764E1,3.0671655E2,3.755562E2,9.526733E0,4.9832787E1,2.5126183E1,2.7257983E2,5.4768295E1,3.762446E2,4.8619385E0,3.8465035E0,3.650534E1,2.6529388E0,8.887129E0,7.802109E0,1.7928223E2,3.4448967E1,8.224778E1,2.009349E1,3.1187677E2,8.731296E1,7.421875E-2,1.1436447E1,7.5272446E0,4.160142E-2,7.606964E-1,5.956496E1,4.3652763E0,7.9094696E-1,0E0,0E0,0E0,0E0,0E0,0E0,0E0,0E0,0E0,0E0,0E0,0E0,0E0,0E0,0E0,0E0,0E0,0E0,0E0,0E0,0E0,0E0,0E0,0E0,0E0,0E0,0E0,0E0,0E0,0E0,0E0,0E0],"parents":[2147483647,0,0,1,1,2,2,3,3,4,4,5,5,6,6,7,7,8,8,9,9,10,10,11,11,12,12,13,13,14,14,15,15,16,16,17,17,18,18,19,19,20,20,21,21,22,22,23,23,24,24,25,25,26,26,27,27,28,28,29,29,30,30],"right_children":[2,4,6,8,10,12,14,16,18,20,22,24,26,28,30,32,34,36,38,40,42,44,46,48,50,52,54,56,58,60,62,-1,-1,-1,-1,-1,-1,-1,-1,-1,-1,-1,-1,-1,-1,-1,-1,-1,-1,-1,-1,-1,-1,-1,-1,-1,-1,-1,-1,-1,-1,-1,-1],"split_conditions":[7.8793034E-2,2.0932667E-2,9.2263526E-1,-6.3439202E-3,-4.3364633E-3,9.428334E-1,1.6038327E-1,3.9862312E1,4.8198216E-3,6.323042E-2,1.1763855E-2,8.946565E-1,1.1236857E-3,-5.0434843E-3,1.9425544E-1,9.112041E-1,8.6806965E-1,-5.254076E-2,5.9571266E-3,-3.81513E-2,2.0501647E0,2.2974008E4,6.1029307E3,2.2028742E0,1.1167121E-1,-2.7107E-3,8.431122E0,-1.284446E0,2.9275292E-3,2.2826107E0,9.2298126E-1,-1.9114737E-1,1.1323757E-1,-2.3748727E-1,-4.1452044E-1,-2.3390763E-1,1.8146974E-1,-1.3523947E-2,-2.7405983E-1,-1.4929442E-1,-1.1984237E-2,-2.0053883E-1,-1.8604241E-2,1.08910665E-1,-1.432632E-2,-2.8516955E-3,-1.15835E-1,-2.1109253E-1,-2.2625698E-1,-3.861095E-2,-1.9974537E-1,-1.8670622E-1,1.7675483E-1,-1.9106032E-1,-4.994751E-2,-2.7534949E-2,-2.4264917E-1,1.9668932E-1,-2.0767015E-1,1.6064672E-2,-2.0937407E-1,-1.2674984E-2,-2.1326244E-1],"split_indices":[0,5,4,6,10,3,0,7,6,11,10,4,6,6,0,4,3,11,0,11,11,14,14,12,0,6,12,11,6,12,4,0,0,0,0,0,0,0,0,0,0,0,0,0,0,0,0,0,0,0,0,0,0,0,0,0,0,0,0,0,0,0,0],"split_type":[0,0,0,0,0,0,0,0,0,0,0,0,0,0,0,0,0,0,0,0,0,0,0,0,0,0,0,0,0,0,0,0,0,0,0,0,0,0,0,0,0,0,0,0,0,0,0,0,0,0,0,0,0,0,0,0,0,0,0,0,0,0,0],"sum_hessian":[1.3442271E4,1.21755625E4,1.2667087E3,4.6524497E3,7.523113E3,1.066213E3,2.0049583E2,7.282958E1,4.57962E3,1.1283599E3,6.394753E3,1.0525206E3,1.3692301E1,9.915845E1,1.0133738E2,1.5603004E1,5.722658E1,4.480711E3,9.890935E1,9.053011E2,2.2305875E2,5.116792E3,1.2779612E3,8.99846E2,1.5267467E2,9.219326E0,4.4729753E0,2.0242565E1,7.8915886E1,1.4369118E1,8.696826E1,7.022123E0,8.580881E0,2.800412E1,2.9222462E1,4.6911465E1,4.4337993E3,3.6371403E1,6.2537945E1,2.9205624E2,6.132448E2,1.9058006E2,3.2478687E1,3.8894688E3,1.227323E3,7.4618585E2,5.317753E2,4.1358234E2,4.8626367E2,2.4328056E1,1.283466E2,3.112327E0,6.1069984E0,3.4672217E0,1.0057536E0,1.0603157E0,1.918225E1,5.6607906E1,2.2307978E1,7.3258443E0,7.043274E0,1.0343875E0,8.5933876E1],"tree_param":{"num_deleted":"0","num_feature":"15","num_nodes":"63","size_leaf_vector":"0"}},{"base_weights":[2.3117065E-1,-3.0636197E-1,4.6011674E-1,-5.6448866E-2,-8.7517595E-1,6.4752513E-1,8.646345E-2,-5.943194E-1,3.6119156E-2,-9.442298E-1,-1.21160604E-1,-3.0536255E-1,7.1150666E-1,2.0161279E-1,-4.3992084E-1,-1.3423162E0,-4.3081337E-1,1.402876E-1,-6.4036363E-1,-7.5866705E-1,-1.0482736E0,1.0233233E-1,-1.1005696E0,-1.0573888E0,-5.6149304E-2,7.84332E-1,-2.723887E-1,-7.147665E-1,2.6961225E-1,-1.0395483E0,-3.5390693E-1,-1.9510835E0,-7.011069E-1,-6.089489E-1,-3.5271768E-2,2.1146765E-1,-7.357944E-1,-9.992636E-1,-4.2798108E-1,-5.376501E-1,-1.0415611E0,-1.0502502E0,1.210984E-1,-1.200469E0,2.6220983E-1,-4.5469585E-1,-1.3934455E0,2.0459099E-1,-1.138517E0,6.414023E-2,-1.1763142E0,8.165832E-1,-2.7613965E-1,-3.085718E-2,-1.0369841E0,-9.863181E-1,-4.149504E-1,3.7612683E-1,-3.7850314E-1,-1.6388607E0,-9.0192044E-1,-2.653652E-1,-9.503285E-1],"categories":[],"categories_nodes":[],"categories_segments":[],"categories_sizes":[],"default_left":[1,1,1,1,1,1,1,1,1,1,1,1,1,1,1,1,1,1,1,1,1,1,1,1,1,1,1,1,1,1,1,0,0,0,0,0,0,0,0,0,0,0,0,0,0,0,0,0,0,0,0,0,0,0,0,0,0,0,0,0,0,0,0],"id":11,"left_children":[1,3,5,7,9,11,13,15,17,19,21,23,25,27,29,31,33,35,37,39,41,43,45,47,49,51,53,55,57,59,61,-1,-1,-1,-1,-1,-1,-1,-1,-1,-1,-1,-1,-1,-1,-1,-1,-1,-1,-1,-1,-1,-1,-1,-1,-1,-1,-1,-1,-1,-1,-1,-1],"loss_changes":[1.5258652E3,5.2645355E2,6.0880835E2,1.2819305E2,5.8747253E1,3.5324268E2,1.7619626E2,4.5656677E1,1.5492416E2,1.9196655E1,2.1124546E1,6.83533E1,3.890271E2,1.4878722E2,2.6545425E1,2.4918198E1,2.194083E1,1.1894133E2,2.1934395E1,2.292604E1,1.6546631E0,1.6784706E1,2.7561684E0,9.529488E0,3.7161198E1,1.7303467E2,6.9166824E1,1.3024384E1,1.5344109E2,3.8787384E0,2.3927105E1,0E0,0E0,0E0,0E0,0E0,0E0,0E0,0E0,0E0,0E0,0E0,0E0,0E0,0E0,0E0,0E0,0E0,0E0,0E0,0E0,0E0,0E0,0E0,0E0,0E0,0E0,0E0,0E0,0E0,0E0,0E0,0E0],"parents":[2147483647,0,0,1,1,2,2,3,3,4,4,5,5,6,6,7,7,8,8,9,9,10,10,11,11,12,12,13,13,14,14,15,15,16,16,17,17,18,18,19,19,20,20,21,21,22,22,23,23,24,24,25,25,26,26,27,27,28,28,29,29,30,30],"right_children":[2,4,6,8,10,12,14,16,18,20,22,24,26,28,30,32,34,36,38,40,42,44,46,48,50,52,54,56,58,60,62,-1,-1,-1,-1,-1,-1,-1,-1,-1,-1,-1,-1,-1,-1,-1,-1,-1,-1,-1,-1,-1,-1,-1,-1,-1,-1,-1,-1,-1,-1,-1,-1],"split_conditions":[8.9797354E-1,3.2775175E-2,3.5998594E-2,-6.851094E-2,9.3305874E-1,-5.3218687E-3,1.7795596E4,1.8590119E0,9.1007546E-2,1.2862522E3,7.584437E-2,-1.1856364E-2,7.317058E-3,-3.254474E-2,1.5E0,5E-1,9.368181E-1,5.940282E4,2.5032845E-3,3.103261E4,8.976468E-1,-1.3267031E-2,3.5E0,5.360101E2,3E0,7.987623E4,3.5846677E-2,9.348076E-1,1.1853081E-2,5E-1,2.8157856E-2,-4.1591305E-1,-1.4945516E-1,-1.2980981E-1,-7.518893E-3,4.507862E-2,-1.568495E-1,-2.130133E-1,-9.123285E-2,-1.1461103E-1,-2.220299E-1,-2.2388214E-1,2.5814582E-2,-2.5590432E-1,5.5895347E-2,-9.692764E-2,-2.9704118E-1,4.3612722E-2,-2.42698E-1,1.3672791E-2,-2.5075525E-1,1.7407128E-1,-5.886477E-2,-6.577834E-3,-2.210542E-1,-2.1025372E-1,-8.8455096E-2,8.0179065E-2,-8.068562E-2,-3.493564E-1,-1.9226263E-1,-5.6567978E-2,-2.0258181E-1],"split_indices":[4,0,5,11,3,10,14,12,11,7,5,10,10,6,9,2,3,13,10,14,4,10,8,14,2,13,0,3,6,2,0,0,0,0,0,0,0,0,0,0,0,0,0,0,0,0,0,0,0,0,0,0,0,0,0,0,0,0,0,0,0,0,0],"split_type":[0,0,0,0,0,0,0,0,0,0,0,0,0,0,0,0,0,0,0,0,0,0,0,0,0,0,0,0,0,0,0,0,0,0,0,0,0,0,0,0,0,0,0,0,0,0,0,0,0,0,0,0,0,0,0,0,0,0,0,0,0,0,0],"sum_hessian":[1.2396611E4,3.7027488E3,8.693862E3,2.5732634E3,1.1294852E3,5.7894106E3,2.9044517E3,3.7703937E2,2.196224E3,1.0344927E3,9.499264E1,3.6403333E2,5.4253774E3,2.3836357E3,5.208159E2,6.634033E1,3.1069904E2,1.9038516E3,2.9237262E2,3.746298E2,6.5986285E2,7.807263E1,1.6920006E1,8.9802444E1,2.742309E2,5.0516694E3,3.737082E2,1.6400107E2,2.2196345E3,6.3945786E1,4.5687012E2,3.2983147E1,3.335719E1,2.1385027E2,9.6848785E1,1.7614922E3,1.423594E2,1.0731636E2,1.8505624E2,2.1194432E2,1.6268546E2,6.58851E2,1.0118151E0,7.8222675E0,7.025037E1,6.075138E0,1.0844868E1,5.332445E0,8.447E1,2.4848946E2,2.5741436E1,4.9027944E3,1.4887459E2,2.8478613E2,8.8922035E1,8.485544E1,7.914563E1,1.9066978E3,3.129368E2,9.9051285E0,5.4040657E1,3.99071E2,5.7799118E1],"tree_param":{"num_deleted":"0","num_feature":"15","num_nodes":"63","size_leaf_vector":"0"}},{"base_weights":[1.9946437E-1,-9.7087756E-2,5.3934735E-1,5.047889E-2,-7.770472E-1,7.2533125E-1,1.0470456E-1,1.2656766E-1,-4.2459318E-1,-4.9755064E-1,-1.0162675E0,7.721241E-1,-3.1083807E-1,1.9670977E-1,-4.1830975E-1,-5.597773E-1,1.8927476E-1,-3.2268962E-1,-6.861937E-1,-2.1617354E-1,-9.492993E-1,-1.2077442E0,-9.93708E-1,2.2661768E-2,8.416125E-1,-1.6306685E-1,-1.2281862E0,-1.5642135E-1,4.466766E-1,-9.297772E-1,-3.2147008E-1,-8.077942E-1,-1.9484201E-1,2.6547253E-1,-5.1417685E-1,-7.637043E-1,-2.5821126E-1,-1.0026459E0,-3.2072765E-1,1.6648581E-2,-1.0443466E0,-9.6676487E-1,2.8637514E-1,-1.2353821E0,1.3297546E-1,2.2798693E-2,-9.976626E-1,-1.3366766E0,1.7887084E-1,-5.5634815E-1,8.6549443E-1,-9.887168E-2,-1.6695365E0,4.559125E-1,-1.3681101E0,-8.282929E-2,-6.421185E-1,-8.9718354E-1,5.015301E-1,-9.799313E-1,-1.3377877E-1,-3.6741012E-1,8.0062926E-1],"categories":[],"categories_nodes":[],"categories_segments":[],"categories_sizes":[],"default_left":[1,1,1,1,1,1,1,1,1,1,1,1,1,1,1,1,1,1,1,1,1,1,1,1,1,1,1,1,1,1,1,0,0,0,0,0,0,0,0,0,0,0,0,0,0,0,0,0,0,0,0,0,0,0,0,0,0,0,0,0,0,0,0],"id":12,"left_children":[1,3,5,7,9,11,13,15,17,19,21,23,25,27,29,31,33,35,37,39,41,43,45,47,49,51,53,55,57,59,61,-1,-1,-1,-1,-1,-1,-1,-1,-1,-1,-1,-1,-1,-1,-1,-1,-1,-1,-1,-1,-1,-1,-1,-1,-1,-1,-1,-1,-1,-1,-1,-1],"loss_changes":[1.1592142E3,6.1637885E2,4.3311633E2,1.8253197E2,7.273529E1,1.821958E2,7.741436E1,1.8741037E2,1.8362793E1,6.425829E1,1.3453369E0,1.8699292E2,2.1877298E1,1.20765854E2,1.1624664E1,3.2840942E1,2.1392157E2,1.4122818E1,2.2177986E1,6.052192E1,4.471237E0,2.2937164E0,2.1646118E0,6.51561E1,1.10194824E2,1.3511635E1,5.9121513E0,2.0229837E1,5.9486618E1,1.3777771E0,1.080699E1,0E0,0E0,0E0,0E0,0E0,0E0,0E0,0E0,0E0,0E0,0E0,0E0,0E0,0E0,0E0,0E0,0E0,0E0,0E0,0E0,0E0,0E0,0E0,0E0,0E0,0E0,0E0,0E0,0E0,0E0,0E0,0E0],"parents":[2147483647,0,0,1,1,2,2,3,3,4,4,5,5,6,6,7,7,8,8,9,9,10,10,11,11,12,12,13,13,14,14,15,15,16,16,17,17,18,18,19,19,20,20,21,21,22,22,23,23,24,24,25,25,26,26,27,27,28,28,29,29,30,30],"right_children":[2,4,6,8,10,12,14,16,18,20,22,24,26,28,30,32,34,36,38,40,42,44,46,48,50,52,54,56,58,60,62,-1,-1,-1,-1,-1,-1,-1,-1,-1,-1,-1,-1,-1,-1,-1,-1,-1,-1,-1,-1,-1,-1,-1,-1,-1,-1,-1,-1,-1,-1,-1,-1],"split_conditions":[9.2932534E-1,4.4512756E-2,3.913184E-2,3.5E0,1.5633184E3,7.73866E-3,1.7051912E4,6.952167E-1,5.295089E-2,1.5963814E-1,5.9065707E-2,-3.8799015E-3,2.3601223E-2,1.0627859E3,1.5E0,4.5E0,2.0661968E3,2.5E0,7.847013E-2,3.0377856E-3,9.4749427E-1,6.2274094E4,5.9709758E-2,-1.4815621E-2,5E-1,5.446997E4,-6.263342E-2,5.9231494E-2,-3.653329E-2,5.5E0,7.466094E4,-1.7219773E-1,-4.1534528E-2,5.6590855E-2,-1.0960723E-1,-1.6279906E-1,-5.5042967E-2,-2.1373431E-1,-6.8369605E-2,3.5489828E-3,-2.2262366E-1,-2.0608555E-1,6.104667E-2,-2.6334676E-1,2.8346417E-2,4.860004E-3,-2.1267202E-1,-2.8493974E-1,3.8129948E-2,-1.185969E-1,1.844977E-1,-2.1076504E-2,-3.5589558E-1,9.7187E-2,-2.9164043E-1,-1.7656744E-2,-1.3688059E-1,-1.9125287E-1,1.0691132E-1,-2.0889224E-1,-2.8517658E-2,-7.832092E-2,1.7067038E-1],"split_indices":[4,0,5,2,7,10,14,12,11,0,0,10,10,14,9,9,7,8,5,6,3,14,0,10,1,13,11,10,6,8,14,0,0,0,0,0,0,0,0,0,0,0,0,0,0,0,0,0,0,0,0,0,0,0,0,0,0,0,0,0,0,0,0],"split_type":[0,0,0,0,0,0,0,0,0,0,0,0,0,0,0,0,0,0,0,0,0,0,0,0,0,0,0,0,0,0,0,0,0,0,0,0,0,0,0,0,0,0,0,0,0,0,0,0,0,0,0,0,0,0,0,0,0,0,0,0,0,0,0],"sum_hessian":[1.1499418E4,6.1415522E3,5.357866E3,5.0471353E3,1.0944172E3,3.7518E3,1.6060658E3,4.351001E3,6.9613403E2,5.0614053E2,5.882767E2,3.5899353E3,1.6186479E2,1.3663334E3,2.397324E2,3.6358157E2,3.9874194E3,5.0258948E2,1.9354456E2,3.1279248E2,1.9334805E2,5.646748E1,5.318092E2,3.0472055E2,3.2852148E3,1.4042256E2,2.1442238E1,5.6646124E2,7.998722E2,3.6795013E1,2.029374E2,2.1574423E2,1.4783733E2,3.5982773E3,3.8914224E2,6.272473E1,4.3986475E2,1.0279355E2,9.0751015E1,2.4491895E2,6.787353E1,1.9086786E2,2.4801939E0,5.540394E1,1.0635405E0,2.0424428E0,5.297667E2,3.0628963E1,2.7409158E2,5.4805405E1,3.2304094E3,1.3570538E2,4.7171803E0,1.4716321E0,1.9970606E1,4.92942E2,7.351924E1,3.0766457E1,7.691057E2,3.4396683E1,2.39833E0,1.9560179E2,7.335596E0],"tree_param":{"num_deleted":"0","num_feature":"15","num_nodes":"63","size_leaf_vector":"0"}},{"base_weights":[1.7076258E-1,-6.874533E-1,2.6572403E-1,-2.0709616E-1,-8.729553E-1,6.5255356E-1,9.909663E-2,9.547926E-2,-5.719307E-1,-7.441955E-1,-1.0273563E0,-1.1238892E0,6.898237E-1,5.778081E-1,1.2226566E-2,-3.76563E-1,3.472121E-1,-3.9244488E-1,-1.1092758E0,-8.8270587E-1,9.72365E-2,-1.0316471E0,1.597509E-1,-2.158762E-1,-1.3700897E0,7.3369116E-1,-7.851881E-1,-2.7027085E-1,7.0632255E-1,9.954489E-2,-3.1764585E-1,-6.235371E-2,-8.418213E-1,-3.7939966E-1,4.816182E-1,-7.444518E-1,-1.3355048E-1,5.839372E-1,-1.2633337E0,-9.5345306E-1,-6.265962E-1,-9.8146003E-1,4.8250657E-1,-1.2671136E0,-1.0016229E0,-1.3975301E0,3.3311236E-1,-1.9188608E0,-1.0493919E0,-1.0580024E-1,7.851029E-1,-4.418776E-2,-1.2171012E0,-1.0626907E0,-1.2014056E-1,-8.626019E-1,7.5689995E-1,2.4135035E-1,-1.6669494E-1,-7.314335E-1,-2.3889059E-1],"categories":[],"categories_nodes":[],"categories_segments":[],"categories_sizes":[],"default_left":[1,1,1,1,1,1,1,1,1,1,1,1,1,1,1,1,1,1,1,1,1,1,0,1,1,1,1,1,1,1,1,0,0,0,0,0,0,0,0,0,0,0,0,0,0,0,0,0,0,0,0,0,0,0,0,0,0,0,0,0,0],"id":13,"left_children":[1,3,5,7,9,11,13,15,17,19,21,23,25,27,29,31,33,35,37,39,41,43,-1,45,47,49,51,53,55,57,59,-1,-1,-1,-1,-1,-1,-1,-1,-1,-1,-1,-1,-1,-1,-1,-1,-1,-1,-1,-1,-1,-1,-1,-1,-1,-1,-1,-1,-1,-1],"loss_changes":[8.771123E2,9.536691E1,6.244492E2,3.3175728E1,1.460791E1,1.9389392E2,2.8165698E2,1.9722017E1,1.2697441E1,4.9648438E1,1.9423828E0,1.3188644E1,1.8547192E2,1.13572296E2,1.651878E2,8.400482E0,1.0734773E1,9.343753E0,9.488583E0,6.020508E0,2.582829E1,1.190094E0,0E0,9.58214E0,6.3045654E0,1.1987317E2,2.6514168E1,1.6244408E1,7.236084E1,1.7123627E2,3.8941566E1,0E0,0E0,0E0,0E0,0E0,0E0,0E0,0E0,0E0,0E0,0E0,0E0,0E0,0E0,0E0,0E0,0E0,0E0,0E0,0E0,0E0,0E0,0E0,0E0,0E0,0E0,0E0,0E0,0E0,0E0],"parents":[2147483647,0,0,1,1,2,2,3,3,4,4,5,5,6,6,7,7,8,8,9,9,10,10,11,11,12,12,13,13,14,14,15,15,16,16,17,17,18,18,19,19,20,20,21,21,23,23,24,24,25,25,26,26,27,27,28,28,29,29,30,30],"right_children":[2,4,6,8,10,12,14,16,18,20,22,24,26,28,30,32,34,36,38,40,42,44,-1,46,48,50,52,54,56,58,60,-1,-1,-1,-1,-1,-1,-1,-1,-1,-1,-1,-1,-1,-1,-1,-1,-1,-1,-1,-1,-1,-1,-1,-1,-1,-1,-1,-1,-1,-1],"split_conditions":[8.794335E-1,1.5870105E-2,1.9893222E-2,1.2277207E3,3.2489223E4,-6.73561E-3,1.5E0,8.6487544E-1,5.5E0,2.4801953E4,9.604944E-1,9.98652E-3,4.435897E-3,1.4286555E3,2.5777713E4,3.1876326E0,5E-1,1.2630512E4,1.1008497E0,8.543151E-1,-3.5554618E-3,4.3384105E-2,3.4054145E-2,-2.3619466E-2,6.897734E-2,6.9377553E-1,1.8329665E-2,1.3329464E-1,-2.2623993E-2,6.2360305E-2,-5.0175436E-2,-1.3291959E-2,-1.7945129E-1,-8.087674E-2,1.0266669E-1,-1.5869501E-1,-2.8468994E-2,1.24478064E-1,-2.693052E-1,-2.0324786E-1,-1.335717E-1,-2.0921811E-1,1.0285607E-1,-2.7011096E-1,-2.1351625E-1,-2.9791188E-1,7.100966E-2,-4.0904412E-1,-2.2369917E-1,-2.2553468E-2,1.6736062E-1,-9.419518E-3,-2.594498E-1,-2.265341E-1,-2.5610399E-2,-1.8388109E-1,1.6134858E-1,5.1448725E-2,-3.5534408E-2,-1.559199E-1,-5.0924376E-2],"split_indices":[3,0,5,7,14,6,8,4,8,13,4,0,6,13,14,12,1,13,12,3,6,0,0,6,0,12,0,5,6,5,11,0,0,0,0,0,0,0,0,0,0,0,0,0,0,0,0,0,0,0,0,0,0,0,0,0,0,0,0,0,0],"split_type":[0,0,0,0,0,0,0,0,0,0,0,0,0,0,0,0,0,0,0,0,0,0,0,0,0,0,0,0,0,0,0,0,0,0,0,0,0,0,0,0,0,0,0,0,0,0,0,0,0,0,0,0,0,0,0,0,0,0,0,0,0],"sum_hessian":[1.0759214E4,1.0712781E3,9.687936E3,2.990374E2,7.722406E2,2.915836E3,6.7720996E3,1.6387009E2,1.3516731E2,4.2425827E2,3.4798236E2,5.9318596E1,2.8565173E3,1.0392876E3,5.7328125E3,5.6822422E1,1.0704767E2,1.0262013E2,3.2547184E1,3.642492E2,6.000907E1,3.468596E2,1.1227701E0,1.305334E1,4.6265255E1,2.774505E3,8.201242E1,1.3661955E2,9.0266797E2,4.5334824E3,1.1993296E3,3.459376E1,2.222866E1,1.642575E1,9.062192E1,4.2694653E1,5.992548E1,2.4816449E0,3.0065538E1,2.8327505E2,8.097414E1,1.53852625E1,4.462381E1,3.4566452E1,3.1229312E2,3.650432E0,9.402907E0,1.5226539E1,3.1038717E1,1.6004851E2,2.6144563E3,3.060613E1,5.140629E1,2.0792711E1,1.1582684E2,2.768912E1,8.749789E2,2.9580503E3,1.5754323E3,1.9044197E2,1.00888763E3],"tree_param":{"num_deleted":"0","num_feature":"15","num_nodes":"61","size_leaf_vector":"0"}},{"base_weights":[1.4515403E-1,-7.791211E-2,4.655863E-1,6.9143134E-3,-8.428538E-1,7.15362E-1,1.6847482E-1,5.5373825E-2,-6.4565414E-1,-5.6412625E-1,-9.58858E-1,7.401252E-1,-9.878127E-1,-4.9201265E-1,2.2928272E-1,-6.41496E-1,1.11155316E-1,-4.3537128E-1,-1.0476847E0,-1.0411744E0,-2.9981422E-1,-9.7570884E-1,-2.655063E-1,-8.0932814E-1,7.679403E-1,-1.1121014E0,1.1257324E0,-7.7146727E-1,-8.355255E-2,2.897693E-1,-6.047158E-1,-1.7514084E-1,-8.4020466E-1,4.4888648E-1,1.00199925E-2,-6.437648E-1,-7.9441234E-2,-1.1132687E0,-2.5259665E-1,4.9980432E-1,-9.249475E-1,-9.800469E-1,-4.2468673E-1,-7.558539E-1,2.9792207E-1,2.2126962E-1,-1.1481555E0,-1.2863021E0,7.89082E-1,-1.2047219E0,-1.9738552E-1,-5.104106E-1,-1.1089157E0,4.424987E-1,-4.0338242E-1,-1.992522E-1,3.7628978E-1,-7.103192E-1,7.911919E-1],"categories":[],"categories_nodes":[],"categories_segments":[],"categories_sizes":[],"default_left":[1,1,1,1,1,1,1,1,1,1,1,1,1,1,1,1,1,1,1,0,1,1,1,1,1,1,0,1,1,1,1,0,0,0,0,0,0,0,0,0,0,0,0,0,0,0,0,0,0,0,0,0,0,0,0,0,0,0,0],"id":14,"left_children":[1,3,5,7,9,11,13,15,17,19,21,23,25,27,29,31,33,35,37,-1,39,41,43,45,47,49,-1,51,53,55,57,-1,-1,-1,-1,-1,-1,-1,-1,-1,-1,-1,-1,-1,-1,-1,-1,-1,-1,-1,-1,-1,-1,-1,-1,-1,-1,-1,-1],"loss_changes":[7.234853E2,3.8726157E2,3.0816864E2,1.6995854E2,1.872229E1,9.590454E1,7.636719E1,1.9454416E2,3.095224E1,2.2070404E1,4.6393127E0,9.6506714E1,9.85961E0,1.8242226E1,8.791293E1,3.4226044E1,1.5824013E2,1.8169022E1,6.334854E0,0E0,5.8262104E1,5.613098E-1,3.3529954E0,1.41245575E1,9.595752E1,2.4267502E0,0E0,7.81221E0,1.1328742E1,6.8715744E1,1.7947086E1,0E0,0E0,0E0,0E0,0E0,0E0,0E0,0E0,0E0,0E0,0E0,0E0,0E0,0E0,0E0,0E0,0E0,0E0,0E0,0E0,0E0,0E0,0E0,0E0,0E0,0E0,0E0,0E0],"parents":[2147483647,0,0,1,1,2,2,3,3,4,4,5,5,6,6,7,7,8,8,9,9,10,10,11,11,12,12,13,13,14,14,15,15,16,16,17,17,18,18,20,20,21,21,22,22,23,23,24,24,25,25,27,27,28,28,29,29,30,30],"right_children":[2,4,6,8,10,12,14,16,18,20,22,24,26,28,30,32,34,36,38,-1,40,42,44,46,48,50,-1,52,54,56,58,-1,-1,-1,-1,-1,-1,-1,-1,-1,-1,-1,-1,-1,-1,-1,-1,-1,-1,-1,-1,-1,-1,-1,-1,-1,-1,-1,-1],"split_conditions":[9.326631E-1,7.8793034E-2,2.7102306E-2,5.8833566E-3,1.4906734E-1,1.3072383E-2,-2.4760649E-2,-5.392696E-3,1.9656507E-2,-2.6615101E-3,9.359855E-1,-5.5934414E-3,1.5101521E4,9.4101864E-1,4.0589146E-2,3.7641187E3,2.5E0,9.250841E-1,9.405658E-1,-2.2194745E-1,1.7630095E-3,1.21405695E5,8.949714E-1,3.661489E1,-6.2611595E-2,9.035504E3,2.3997271E-1,9.52083E-1,-8.164643E-2,2.5E0,5.744277E-1,-3.7334826E-2,-1.7910667E-1,9.568926E-2,2.1359648E-3,-1.3723153E-1,-1.693451E-2,-2.3731582E-1,-5.3846102E-2,1.0654343E-1,-1.9717133E-1,-2.0891689E-1,-9.05306E-2,-1.611256E-1,6.350814E-2,4.716811E-2,-2.4475263E-1,-2.742014E-1,1.6820884E-1,-2.5681093E-1,-4.207673E-2,-1.08804375E-1,-2.3638788E-1,9.432758E-2,-8.598915E-2,-4.247465E-2,8.02138E-2,-1.5141895E-1,1.686586E-1],"split_indices":[4,0,5,6,0,6,6,6,0,6,3,6,7,3,6,14,8,3,3,0,6,13,4,7,11,7,0,4,11,9,5,0,0,0,0,0,0,0,0,0,0,0,0,0,0,0,0,0,0,0,0,0,0,0,0,0,0,0,0],"split_type":[0,0,0,0,0,0,0,0,0,0,0,0,0,0,0,0,0,0,0,0,0,0,0,0,0,0,0,0,0,0,0,0,0,0,0,0,0,0,0,0,0,0,0,0,0,0,0,0,0,0,0,0,0,0,0,0,0,0,0],"sum_hessian":[1.0120342E4,5.967132E3,4.1532104E3,5.3723667E3,5.947651E2,2.2555806E3,1.8976296E3,5.001846E3,3.7052026E2,1.7651329E2,4.1825177E2,2.223813E3,3.1767485E1,1.5937944E2,1.7382502E3,3.6992526E2,4.631921E3,2.4464246E2,1.25877815E2,6.1883175E1,1.1463011E2,4.0793045E2,1.0321333E1,3.8721405E1,2.1850918E3,3.0450634E1,1.3168515E0,9.410633E1,6.52731E1,1.6213153E3,1.1693493E2,1.11088905E2,2.5883636E2,1.0666184E3,3.5653027E3,1.5379077E2,9.085168E1,1.15916115E2,9.961697E0,5.038381E1,6.42463E1,4.0397147E2,3.9589906E0,5.33596E0,4.985373E0,9.666413E0,2.905499E1,2.1649687E1,2.163442E3,2.7362926E1,3.0877066E0,5.4475544E1,3.9630787E1,2.4534914E1,4.073819E1,2.4353441E2,1.3777809E3,1.0916733E2,7.7675986E0],"tree_param":{"num_deleted":"0","num_feature":"15","num_nodes":"59","size_leaf_vector":"0"}},{"base_weights":[1.2244829E-1,-4.0296856E-1,2.2568919E-1,-1.8907933E-1,-8.298985E-1,5.356408E-1,8.199197E-2,-1.3651624E-1,-7.194485E-1,-9.0084684E-1,-2.4036333E-1,6.2581605E-1,-2.747782E-1,1.426902E-1,-3.7955672E-1,-5.5382377E-1,-5.1078778E-2,-1.0818343E0,-3.9515725E-1,-7.092226E-1,-1.0072339E0,-5.59774E-1,3.078618E-1,6.654078E-1,-7.8965753E-1,2.674641E-1,-9.36243E-1,1.7960557E-1,-6.341546E-1,-4.6092346E-1,-8.681186E-2,-1.0579579E0,-3.259525E-1,-1.3636239E-1,4.0964454E-1,-1.5187349E0,-7.419642E-1,-1.9259271E-1,-1.2143337E0,-9.34964E-1,-4.538302E-1,-1.0105294E0,-1.773543E-2,1.4568561E-1,-6.933748E-1,4.7218132E-1,-1.0824285E0,-2.96708E-1,7.164308E-1,-1.3873446E0,1.08789735E-1,5.159514E-1,-1.0375048E0,-5.1170933E-1,-1.1027105E0,-3.3746666E-1,2.3388146E-1,5.1843745E-1,-7.894118E-1,-7.6187027E-1,-2.9158396E-1,-2.504171E-1,6.003446E-1],"categories":[],"categories_nodes":[],"categories_segments":[],"categories_sizes":[],"default_left":[1,1,1,1,1,1,1,1,1,1,1,1,1,1,1,1,1,1,1,1,1,1,1,1,1,1,1,1,1,1,1,0,0,0,0,0,0,0,0,0,0,0,0,0,0,0,0,0,0,0,0,0,0,0,0,0,0,0,0,0,0,0,0],"id":15,"left_children":[1,3,5,7,9,11,13,15,17,19,21,23,25,27,29,31,33,35,37,39,41,43,45,47,49,51,53,55,57,59,61,-1,-1,-1,-1,-1,-1,-1,-1,-1,-1,-1,-1,-1,-1,-1,-1,-1,-1,-1,-1,-1,-1,-1,-1,-1,-1,-1,-1,-1,-1,-1,-1],"loss_changes":[5.189083E2,1.433065E2,3.5601807E2,2.9117249E1,2.1704254E1,1.8521729E2,1.5310822E2,3.4010986E1,1.0650085E1,8.814789E0,1.0269264E1,1.282356E2,9.143643E1,1.3859799E2,1.5091225E1,1.8282024E1,3.1237085E1,5.3979454E0,8.282197E0,9.3908615E0,9.544678E-1,3.568328E0,5.5078893E0,1.0906531E2,3.369369E1,4.6089634E1,7.545044E0,1.29477E2,3.9649673E1,2.5098328E1,1.582119E1,0E0,0E0,0E0,0E0,0E0,0E0,0E0,0E0,0E0,0E0,0E0,0E0,0E0,0E0,0E0,0E0,0E0,0E0,0E0,0E0,0E0,0E0,0E0,0E0,0E0,0E0,0E0,0E0,0E0,0E0,0E0,0E0],"parents":[2147483647,0,0,1,1,2,2,3,3,4,4,5,5,6,6,7,7,8,8,9,9,10,10,11,11,12,12,13,13,14,14,15,15,16,16,17,17,18,18,19,19,20,20,21,21,22,22,23,23,24,24,25,25,26,26,27,27,28,28,29,29,30,30],"right_children":[2,4,6,8,10,12,14,16,18,20,22,24,26,28,30,32,34,36,38,40,42,44,46,48,50,52,54,56,58,60,62,-1,-1,-1,-1,-1,-1,-1,-1,-1,-1,-1,-1,-1,-1,-1,-1,-1,-1,-1,-1,-1,-1,-1,-1,-1,-1,-1,-1,-1,-1,-1,-1],"split_conditions":[8.6073726E-1,2.6277516E-2,2.0927683E-2,1.267002E-1,9.3293566E-1,4.699355E-2,3.5E0,-6.847857E-2,8.1500244E-1,1.0399541E3,8.280668E-1,4.226794E-2,3.7327273E4,8.123633E4,2.5429963E4,4.7639266E-2,9.4873816E-1,8.1508994E-2,9.4405264E-1,8.0331075E-1,1.16060145E-1,9.362614E-1,3.5338354E3,6.332365E-1,3.97914E4,3.4139943E-3,4.4556656E4,-7.9617E-3,1.5E0,2.0047021E-4,1.100218E-1,-2.2552519E-1,-6.948339E-2,-2.906841E-2,8.7324046E-2,-3.2374915E-1,-1.5816472E-1,-4.1055042E-2,-2.5885984E-1,-1.9930655E-1,-9.6743114E-2,-2.1541485E-1,-3.7806665E-3,3.1055845E-2,-1.4780691E-1,1.0065503E-1,-2.3074159E-1,-6.324933E-2,1.5272176E-1,-2.9574066E-1,2.3190739E-2,1.0998551E-1,-2.211652E-1,-1.0908122E-1,-2.3506512E-1,-7.193787E-2,4.9856577E-2,1.1051546E-1,-1.6827914E-1,-1.624081E-1,-6.2157035E-2,-5.3381488E-2,1.2797563E-1],"split_indices":[4,0,5,11,3,0,2,11,4,7,4,11,14,13,13,5,3,5,3,4,6,3,7,12,13,6,14,6,8,10,5,0,0,0,0,0,0,0,0,0,0,0,0,0,0,0,0,0,0,0,0,0,0,0,0,0,0,0,0,0,0,0,0],"split_type":[0,0,0,0,0,0,0,0,0,0,0,0,0,0,0,0,0,0,0,0,0,0,0,0,0,0,0,0,0,0,0,0,0,0,0,0,0,0,0,0,0,0,0,0,0,0,0,0,0,0,0,0,0,0,0,0,0,0,0,0,0,0,0],"sum_hessian":[9.563424E3,1.5700701E3,7.993354E3,1.0469816E3,5.230884E2,2.5311006E3,5.4622534E3,9.537192E2,9.326245E1,4.6642755E2,5.666086E1,2.2778699E3,2.5323076E2,4.8280127E3,6.3424066E2,1.6114523E2,7.925739E2,4.294108E1,5.0321373E1,1.6924686E2,2.971807E2,3.578847E1,2.0872389E1,2.2164055E3,6.1464386E1,1.3948347E2,1.1374729E2,4.609729E3,2.1828378E2,4.9584805E2,1.3839262E2,4.9030087E1,1.1211516E2,6.693718E2,1.2320212E2,1.7270895E1,2.5670183E1,4.1335186E1,8.986189E0,8.8426125E1,8.082073E1,2.96173E2,1.0076712E0,5.6840796E0,3.0104393E1,1.9256786E1,1.6156025E0,1.1137869E2,2.1050269E3,3.6583355E1,2.4881031E1,1.17679924E2,2.1803547E1,3.3186733E1,8.0560555E1,4.3741095E2,4.172318E3,2.563517E1,1.9264862E2,1.7728377E2,3.1856427E2,1.12292465E2,2.6100164E1],"tree_param":{"num_deleted":"0","num_feature":"15","num_nodes":"63","size_leaf_vector":"0"}},{"base_weights":[1.0253949E-1,-4.4274036E-2,4.2984933E-1,1.3725927E-2,-7.5882334E-1,6.5213746E-1,7.901578E-2,5.7816577E-1,-3.8660202E-2,-4.9772003E-1,-9.520513E-1,7.042862E-1,-3.7206435E-1,-1.6286485E-1,2.3810233E-1,-3.7065715E-1,6.7546976E-1,3.9421838E-2,-3.551167E-1,-1.0020041E0,-2.498301E-1,-9.5864725E-1,7.532935E-2,7.17613E-3,7.817045E-1,-2.2227643E-1,-1.0139711E0,-9.381232E-2,-6.015374E-1,4.0662822E-1,-2.0361291E-1,-1.3205668E-1,-1.3646214E0,-2.8528592E-1,7.432379E-1,-2.778376E-1,1.5387698E-1,-1.9289851E-1,-7.2315663E-1,3.588294E-1,-9.768696E-1,-8.253661E-1,-9.906541E-1,1.68285E-1,-9.910457E-1,-5.1475805E-1,8.109847E-1,5.1608108E-2,-6.369952E-1,-1.172974E0,3.442793E-1,-6.5963835E-1,-4.796549E-2,-7.598555E-1,3.0093947E-1,4.6963742E-1,-7.098598E-1,-9.261286E-1,-8.216849E-2],"categories":[],"categories_nodes":[],"categories_segments":[],"categories_sizes":[],"default_left":[1,1,1,1,1,1,1,1,1,1,1,1,1,1,1,1,1,1,1,0,1,1,0,1,1,1,1,1,1,1,1,0,0,0,0,0,0,0,0,0,0,0,0,0,0,0,0,0,0,0,0,0,0,0,0,0,0,0,0],"id":16,"left_children":[1,3,5,7,9,11,13,15,17,19,21,23,25,27,29,31,33,35,37,-1,39,41,-1,43,45,47,49,51,53,55,57,-1,-1,-1,-1,-1,-1,-1,-1,-1,-1,-1,-1,-1,-1,-1,-1,-1,-1,-1,-1,-1,-1,-1,-1,-1,-1,-1,-1],"loss_changes":[4.3904868E2,2.6144244E2,2.2058386E2,1.7257115E2,2.3420685E1,9.275452E1,4.2306797E1,4.601207E1,1.3198373E2,2.5191193E1,1.909256E0,8.8944336E1,7.9046106E0,1.3163016E1,4.9439335E1,1.09068165E1,2.950534E1,1.556303E2,6.297171E1,0E0,6.132073E1,3.3169556E-1,0E0,2.6823408E1,5.672876E1,7.9654694E0,3.7981758E0,9.780414E0,8.682566E0,3.411936E1,1.6049036E1,0E0,0E0,0E0,0E0,0E0,0E0,0E0,0E0,0E0,0E0,0E0,0E0,0E0,0E0,0E0,0E0,0E0,0E0,0E0,0E0,0E0,0E0,0E0,0E0,0E0,0E0,0E0,0E0],"parents":[2147483647,0,0,1,1,2,2,3,3,4,4,5,5,6,6,7,7,8,8,9,9,10,10,11,11,12,12,13,13,14,14,15,15,16,16,17,17,18,18,20,20,21,21,23,23,24,24,25,25,26,26,27,27,28,28,29,29,30,30],"right_children":[2,4,6,8,10,12,14,16,18,20,22,24,26,28,30,32,34,36,38,-1,40,42,-1,44,46,48,50,52,54,56,58,-1,-1,-1,-1,-1,-1,-1,-1,-1,-1,-1,-1,-1,-1,-1,-1,-1,-1,-1,-1,-1,-1,-1,-1,-1,-1,-1,-1],"split_conditions":[9.3977773E-1,7.8793034E-2,3.6772214E-2,1.5E0,1.8626243E-1,6.9358787E-3,1.01369073E3,5E-1,4.966595E-2,-2.9474786E-3,9.4974995E-1,-3.450078E-3,1.8313082E-2,5.2260052E-2,1.3834068E4,1.4861262E4,-6.984631E-3,-4.3708347E-2,1.6607668E4,-2.1359752E-1,3.0373768E-3,5.3499304E2,1.605798E-2,3.659138E-2,5E-1,2.6435479E4,9.4906473E-1,1.4192355E0,3.3079785E-1,3.0961446E-2,1.5E0,-2.8150562E-2,-2.9089674E-1,-6.081448E-2,1.5843624E-1,-5.922672E-2,3.2802E-2,-4.112023E-2,-1.5415551E-1,7.6491766E-2,-2.0823957E-1,-1.7594352E-1,-2.1117802E-1,3.587336E-2,-2.112615E-1,-1.0973112E-1,1.7287783E-1,1.1001315E-2,-1.3578846E-1,-2.500432E-1,7.339012E-2,-1.406153E-1,-1.0224817E-2,-1.6197862E-1,6.4151354E-2,1.0011274E-1,-1.5132102E-1,-1.974231E-1,-1.7515881E-2],"split_indices":[4,0,5,8,0,10,14,1,11,6,3,10,10,6,14,14,6,11,13,0,6,7,0,0,1,14,3,12,5,6,9,0,0,0,0,0,0,0,0,0,0,0,0,0,0,0,0,0,0,0,0,0,0,0,0,0,0,0,0],"split_type":[0,0,0,0,0,0,0,0,0,0,0,0,0,0,0,0,0,0,0,0,0,0,0,0,0,0,0,0,0,0,0,0,0,0,0,0,0,0,0,0,0,0,0,0,0,0,0,0,0,0,0,0,0,0,0,0,0,0,0],"sum_hessian":[9.135266E3,6.307104E3,2.8281616E3,5.8344985E3,4.726054E2,1.7307191E3,1.0974425E3,4.9466302E2,5.3398354E3,2.0252078E2,2.7008466E2,1.6471637E3,8.355542E1,4.354086E2,6.620339E2,4.5749065E1,4.4891397E2,4.283745E3,1.0560901E3,6.574109E1,1.3677968E2,2.6842816E2,1.6564673E0,1.64752E2,1.4824116E3,6.883837E1,1.4717049E1,3.7724017E2,5.816845E1,4.7926224E2,1.8277164E2,3.78065E1,7.9425664E0,2.93669E1,4.1954706E2,1.1353179E3,3.1484275E3,7.340656E2,3.2202444E2,7.4726746E1,6.2052937E1,5.7166363E1,2.1126181E2,1.4257277E2,2.2179237E1,3.2374207E1,1.4500375E3,4.1985966E1,2.6852404E1,1.3296865E1,1.4201831E0,2.7271889E1,3.499683E2,4.962156E1,8.546889E0,4.5420828E2,2.5053963E1,2.5347061E1,1.5742458E2],"tree_param":{"num_deleted":"0","num_feature":"15","num_nodes":"59","size_leaf_vector":"0"}},{"base_weights":[8.59869E-2,1.532347E-1,-5.116482E-1,5.3440624E-1,6.3645706E-2,-1.4269508E-1,-8.69728E-1,6.3100415E-1,-1.4186633E-1,1.3676836E-1,-3.1176594E-1,-3.8351372E-1,1.9839175E-1,-1.0741917E0,-7.4758923E-1,-1.1636256E0,6.660282E-1,2.9837602E-1,-1.0004935E0,-2.553409E-1,1.938123E-1,-6.725331E-1,-2.1353638E-1,-6.5486413E-1,-6.943486E-2,-6.6392046E-1,3.718687E-1,-1.0898058E0,6.660608E-1,-3.4143132E-1,-1.0283235E0,4.262552E-1,-1.3845174E0,6.9518906E-1,-9.62365E-1,4.1943547E-1,-1.0836151E0,-1.0457739E0,4.761194E-1,-3.9175424E-1,1.7767223E-2,4.0115017E-1,6.152965E-2,-7.4826825E-1,8.08446E-1,-5.998668E-1,-1.2594958E-1,-3.3836967E-1,-9.281401E-1,4.208053E-3,-1.3856831E0,-1.2313135E0,1.0760521E-1,4.473582E-1,-5.2856433E-1,-1.1027889E0,5.692249E-2,-2.6523177E-2,-1.0944228E0,-4.4319302E-1,-1.0641843E0],"categories":[],"categories_nodes":[],"categories_segments":[],"categories_sizes":[],"default_left":[1,1,1,1,1,1,1,1,1,1,1,1,1,1,1,1,1,1,1,1,1,1,1,1,1,1,1,1,0,1,1,0,0,0,0,0,0,0,0,0,0,0,0,0,0,0,0,0,0,0,0,0,0,0,0,0,0,0,0,0,0],"id":17,"left_children":[1,3,5,7,9,11,13,15,17,19,21,23,25,27,29,31,33,35,37,39,41,43,45,47,49,51,53,55,-1,57,59,-1,-1,-1,-1,-1,-1,-1,-1,-1,-1,-1,-1,-1,-1,-1,-1,-1,-1,-1,-1,-1,-1,-1,-1,-1,-1,-1,-1,-1,-1],"loss_changes":[3.517701E2,2.6859723E2,1.1683801E2,9.7877655E1,1.7492212E2,3.5990158E1,1.0411713E1,8.311554E1,7.13291E1,1.1932861E2,3.6672012E1,2.1825535E1,2.741332E1,5.227051E0,3.207985E1,9.524715E0,6.1714478E1,2.136559E1,4.7717247E0,2.5255192E1,1.27676544E2,2.5489616E1,2.7603851E1,1.1583473E1,1.1644129E1,1.3604349E1,1.055681E1,2.5127258E0,0E0,2.789045E1,3.0468903E0,0E0,0E0,0E0,0E0,0E0,0E0,0E0,0E0,0E0,0E0,0E0,0E0,0E0,0E0,0E0,0E0,0E0,0E0,0E0,0E0,0E0,0E0,0E0,0E0,0E0,0E0,0E0,0E0,0E0,0E0],"parents":[2147483647,0,0,1,1,2,2,3,3,4,4,5,5,6,6,7,7,8,8,9,9,10,10,11,11,12,12,13,13,14,14,15,15,16,16,17,17,18,18,19,19,20,20,21,21,22,22,23,23,24,24,25,25,26,26,27,27,29,29,30,30],"right_children":[2,4,6,8,10,12,14,16,18,20,22,24,26,28,30,32,34,36,38,40,42,44,46,48,50,52,54,56,-1,58,60,-1,-1,-1,-1,-1,-1,-1,-1,-1,-1,-1,-1,-1,-1,-1,-1,-1,-1,-1,-1,-1,-1,-1,-1,-1,-1,-1,-1,-1,-1],"split_conditions":[1.7890013E3,1.8085111E-2,1.864091E-2,4.391461E4,2.864308E4,9.209109E-1,-2.422153E-3,-4.4086136E-2,2.5012482E-2,-5.380001E-3,-3.7976946E-3,4.5E0,-7.204643E-2,8.839454E-2,3.1202328E-3,1.8036973E4,5.2576832E-2,1.7245086E-2,1.7856166E5,9.408226E-1,3.4483507E-2,1.05375125E5,3.5E0,2.5319066E0,1.0373427E-1,9.713859E0,6.5E0,9.509681E-1,1.4198437E-1,3.586032E4,1.5E0,9.086494E-2,-2.9513797E-1,1.4819366E-1,-2.0514762E-1,8.9411184E-2,-2.3099454E-1,-2.2292791E-1,1.0149451E-1,-8.351036E-2,3.787444E-3,8.5513294E-2,1.3116294E-2,-1.5950856E-1,1.7233667E-1,-1.2787378E-1,-2.6848707E-2,-7.213036E-2,-1.978519E-1,8.9703186E-4,-2.9538646E-1,-2.6247945E-1,2.2938235E-2,9.5363475E-2,-1.12674214E-1,-2.3508184E-1,1.2134184E-2,-5.653953E-3,-2.3329844E-1,-9.447558E-2,-2.2685248E-1],"split_indices":[7,5,0,14,14,3,6,11,0,10,10,9,11,10,6,13,11,5,14,3,5,14,9,12,5,12,8,3,0,14,8,0,0,0,0,0,0,0,0,0,0,0,0,0,0,0,0,0,0,0,0,0,0,0,0,0,0,0,0,0,0],"split_type":[0,0,0,0,0,0,0,0,0,0,0,0,0,0,0,0,0,0,0,0,0,0,0,0,0,0,0,0,0,0,0,0,0,0,0,0,0,0,0,0,0,0,0,0,0,0,0,0,0,0,0,0,0,0,0,0,0,0,0,0,0],"sum_hessian":[8.749804E3,7.8654966E3,8.843072E2,1.4959137E3,6.369583E3,4.362297E2,4.4807745E2,1.3090042E3,1.8690955E2,5.331709E3,1.0378743E3,2.5562534E2,1.8060435E2,1.6465157E2,2.834259E2,2.4440697E1,1.2845635E3,1.2398926E2,6.2920284E1,6.767031E2,4.655006E3,2.2086348E2,8.1701074E2,1.3655916E2,1.19066185E2,2.9774641E1,1.5082971E2,1.6355783E2,1.0937316E0,1.1674254E2,1.6668336E2,2.8680503E0,2.1572647E1,1.2625275E3,2.2035948E1,1.1464326E2,9.346002E0,6.1331337E1,1.5889487E0,4.5100073E2,2.2570241E2,1.8123392E3,2.8426665E3,2.10589E2,1.0274468E1,1.4991452E2,6.670962E2,6.431314E1,7.2246025E1,1.1370149E2,5.3646936E0,1.6813652E1,1.2960989E1,1.39627E2,1.1202716E1,1.6176468E2,1.7931535E0,8.304681E1,3.3695732E1,1.0397011E1,1.5628636E2],"tree_param":{"num_deleted":"0","num_feature":"15","num_nodes":"61","size_leaf_vector":"0"}},{"base_weights":[7.131859E-2,-3.975747E-2,3.6566576E-1,-6.648584E-1,9.628657E-3,5.4941666E-1,-2.1211965E-2,-1.7743202E-1,-7.9547894E-1,4.976316E-1,-3.378382E-2,6.4821357E-1,-8.768213E-2,3.789727E-2,-5.516842E-1,2.173941E-1,-5.678976E-1,-6.494458E-1,-1.025685E0,5.988922E-1,-1.8659285E-1,4.8440497E-2,-2.320746E-1,1.6729255E-1,7.588909E-1,-2.190613E0,8.988765E-3,-2.38126E-1,1.914838E-1,-8.523184E-1,4.3212914E-1,4.278068E-1,-6.459767E-1,-7.739379E-1,2.957944E-1,-7.8024167E-1,1.1160193E-1,-1.3270149E0,-9.4043255E-1,-3.8989776E-1,6.842977E-1,-1.0842687E0,1.4289217E-1,-1.8775254E-1,1.724195E-1,-4.9127344E-2,-4.309776E-1,-1.0313115E0,2.9218912E-1,7.729694E-1,-1.5531001E0,-3.1101985E0,-3.4464213E-1,1.350684E-1,-6.991977E-1,-3.2160908E-1,3.9107704E-1,-7.7782416E-1,2.652005E-1,-9.1766775E-1,9.907567E-1,-2.8761202E-1,1.0584364E0],"categories":[],"categories_nodes":[],"categories_segments":[],"categories_sizes":[],"default_left":[1,1,1,1,1,1,1,1,1,1,1,1,1,1,1,1,1,1,1,1,1,1,1,1,1,1,1,1,1,1,1,0,0,0,0,0,0,0,0,0,0,0,0,0,0,0,0,0,0,0,0,0,0,0,0,0,0,0,0,0,0,0,0],"id":18,"left_children":[1,3,5,7,9,11,13,15,17,19,21,23,25,27,29,31,33,35,37,39,41,43,45,47,49,51,53,55,57,59,61,-1,-1,-1,-1,-1,-1,-1,-1,-1,-1,-1,-1,-1,-1,-1,-1,-1,-1,-1,-1,-1,-1,-1,-1,-1,-1,-1,-1,-1,-1,-1,-1],"loss_changes":[2.7531696E2,1.887621E2,1.6401895E2,2.836319E1,1.2008667E2,9.851248E1,2.3345627E1,1.4908981E1,1.1194077E1,3.219484E1,8.488359E1,7.195911E1,4.288994E1,2.8458967E1,2.244506E1,9.070743E0,8.859114E0,2.184581E1,2.2254028E0,3.4350235E1,1.8036547E1,1.07808495E2,5.5508347E1,3.842287E1,3.7026367E1,1.4667755E1,1.8184866E1,1.2735317E1,3.1015572E1,7.8356667E0,8.47889E0,0E0,0E0,0E0,0E0,0E0,0E0,0E0,0E0,0E0,0E0,0E0,0E0,0E0,0E0,0E0,0E0,0E0,0E0,0E0,0E0,0E0,0E0,0E0,0E0,0E0,0E0,0E0,0E0,0E0,0E0,0E0,0E0],"parents":[2147483647,0,0,1,1,2,2,3,3,4,4,5,5,6,6,7,7,8,8,9,9,10,10,11,11,12,12,13,13,14,14,15,15,16,16,17,17,18,18,19,19,20,20,21,21,22,22,23,23,24,24,25,25,26,26,27,27,28,28,29,29,30,30],"right_children":[2,4,6,8,10,12,14,16,18,20,22,24,26,28,30,32,34,36,38,40,42,44,46,48,50,52,54,56,58,60,62,-1,-1,-1,-1,-1,-1,-1,-1,-1,-1,-1,-1,-1,-1,-1,-1,-1,-1,-1,-1,-1,-1,-1,-1,-1,-1,-1,-1,-1,-1,-1,-1],"split_conditions":[9.4141334E-1,8.5467625E-1,5E-1,4.8395954E-3,1.5E0,4.0087206E-3,6.500771E-2,3.5E0,3.1865156E4,1.5616866E-2,2.5773663E-2,-2.6716467E-3,7.2078013E-1,1.1620747E-3,8.375354E-1,1.0784835E-2,8.410378E-1,2.4981924E4,4.0808015E-2,-1.1121443E-2,7.57108E-2,-3.701887E-2,1.3942406E4,-1.4289025E-2,1.4732009E-1,7.788155E-3,3.490232E-2,9.5710665E-1,-4.4115104E-2,1.4655126E0,2.6706684E1,9.1195695E-2,-1.3770305E-1,-1.6498056E-1,6.305458E-2,-1.6632435E-1,2.3790214E-2,-2.8288016E-1,-2.0047228E-1,-8.311462E-2,1.4587194E-1,-2.3113388E-1,3.0460365E-2,-4.0023264E-2,3.6754716E-2,-1.047249E-2,-9.187162E-2,-2.1984497E-1,6.2286038E-2,1.6477412E-1,-3.310748E-1,-6.630019E-1,-7.346746E-2,2.8792571E-2,-1.4904818E-1,-6.85575E-2,8.336601E-2,-1.65809E-1,5.6532867E-2,-1.956195E-1,2.111999E-1,-6.131034E-2,2.256272E-1],"split_indices":[4,3,2,0,8,10,10,8,14,10,11,10,12,10,11,6,3,13,0,10,5,11,14,10,11,10,0,3,6,5,12,0,0,0,0,0,0,0,0,0,0,0,0,0,0,0,0,0,0,0,0,0,0,0,0,0,0,0,0,0,0,0,0],"split_type":[0,0,0,0,0,0,0,0,0,0,0,0,0,0,0,0,0,0,0,0,0,0,0,0,0,0,0,0,0,0,0,0,0,0,0,0,0,0,0,0,0,0,0,0,0,0,0,0,0,0,0,0,0,0,0,0,0,0,0,0,0,0,0],"sum_hessian":[8.41934E3,6.1132744E3,2.3060654E3,4.4670316E2,5.6665713E3,1.5631931E3,7.428723E2,9.490652E1,3.5179663E2,4.6205975E2,5.2045117E3,1.3533132E3,2.0987994E2,6.6923016E2,7.3642136E1,4.7410152E1,4.7496365E1,2.1758856E2,1.3420808E2,4.0260208E2,5.945768E1,3.6795044E3,1.5250072E3,2.5365022E2,1.099663E3,8.272107E0,2.0160783E2,2.3905461E2,4.3017557E2,5.6508038E1,1.7134096E1,3.8525555E1,8.884597E0,3.843203E1,9.064335E0,1.8565596E2,3.1932598E1,2.6384535E1,1.0782355E2,3.1726006E1,3.7087607E2,1.534895E1,4.410873E1,1.2663878E3,2.4131165E3,7.950146E2,7.2999255E2,2.325169E1,2.3039854E2,1.093669E3,5.994045E0,5.0643845E0,3.2077224E0,1.7182654E2,2.9781296E1,2.1148367E2,2.7570938E1,2.9727972E1,4.0044757E2,5.5057964E1,1.4500732E0,8.224001E0,8.910094E0],"tree_param":{"num_deleted":"0","num_feature":"15","num_nodes":"63","size_leaf_vector":"0"}},{"base_weights":[5.95584E-2,1.0502332E-1,-5.057497E-1,4.6964106E-1,4.6507034E-2,-1.4729188E-1,-8.305723E-1,5.7276946E-1,-2.8269404E-1,-3.6313787E-1,9.276859E-2,-7.164008E-2,-1.4184967E0,-5.3563255E-1,-9.3534195E-1,-3.3032253E-1,6.4454657E-1,-2.9514894E-2,-7.9464406E-1,-5.949768E-1,-3.5162892E-2,1.5797542E-1,-3.319371E-1,-7.170446E-1,5.053068E-2,-1.4137042E-1,-1.5466071E0,-1.0113935E0,-1.7783715E-1,-5.4225737E-1,-9.884385E-1,-7.4606174E-1,-8.67527E-2,-1.3364002E-1,7.339397E-1,-8.236083E-1,1.3926777E-1,-8.894045E-1,5.211018E-1,-8.4642065E-1,-2.9160684E-1,1.8709207E-1,-7.291928E-1,5.0764596E-1,9.25108E-2,-8.384771E-1,-2.6021236E-1,-9.262711E-1,-2.3437059E-1,-1.3640681E-1,3.550195E-1,-2.2323782E0,-1.1912533E0,-1.0681231E0,3.6040035E-1,3.804672E-2,-1.2898345E0,-7.8129965E-1,-5.880295E-2,-1.0072646E0,-2.7641237E-1],"categories":[],"categories_nodes":[],"categories_segments":[],"categories_sizes":[],"default_left":[1,1,1,1,1,1,1,1,1,1,1,1,1,1,1,1,1,1,1,1,1,1,1,1,1,0,1,1,1,1,1,0,0,0,0,0,0,0,0,0,0,0,0,0,0,0,0,0,0,0,0,0,0,0,0,0,0,0,0,0,0],"id":19,"left_children":[1,3,5,7,9,11,13,15,17,19,21,23,25,27,29,31,33,35,37,39,41,43,45,47,49,-1,51,53,55,57,59,-1,-1,-1,-1,-1,-1,-1,-1,-1,-1,-1,-1,-1,-1,-1,-1,-1,-1,-1,-1,-1,-1,-1,-1,-1,-1,-1,-1,-1,-1],"loss_changes":[2.0937967E2,1.6083157E2,7.048772E1,8.104518E1,1.2316759E2,2.773982E1,9.323196E0,5.9663025E1,1.6352581E1,5.012728E1,1.6175693E2,2.166447E1,2.433216E0,1.4403883E1,4.3323364E0,6.8400707E0,5.922455E1,1.158431E1,5.671152E0,2.9222366E1,4.243126E1,1.15839935E2,2.802922E1,4.1985416E0,1.3229663E1,0E0,9.058418E-1,3.2301788E0,1.2079141E1,3.41792E0,2.4598846E0,0E0,0E0,0E0,0E0,0E0,0E0,0E0,0E0,0E0,0E0,0E0,0E0,0E0,0E0,0E0,0E0,0E0,0E0,0E0,0E0,0E0,0E0,0E0,0E0,0E0,0E0,0E0,0E0,0E0,0E0],"parents":[2147483647,0,0,1,1,2,2,3,3,4,4,5,5,6,6,7,7,8,8,9,9,10,10,11,11,12,12,13,13,14,14,15,15,16,16,17,17,18,18,19,19,20,20,21,21,22,22,23,23,24,24,26,26,27,27,28,28,29,29,30,30],"right_children":[2,4,6,8,10,12,14,16,18,20,22,24,26,28,30,32,34,36,38,40,42,44,46,48,50,-1,52,54,56,58,60,-1,-1,-1,-1,-1,-1,-1,-1,-1,-1,-1,-1,-1,-1,-1,-1,-1,-1,-1,-1,-1,-1,-1,-1,-1,-1,-1,-1,-1,-1],"split_conditions":[2.521507E3,1.5E0,1.5941452E-2,5.259047E-3,7.337938E-1,7.5E0,3.285284E-2,-2.2154039E-2,4.824192E-2,4.5E0,3.5E0,5E-1,1.0960557E0,1.0600055E4,7.7274014E3,1.0647326E-1,5E-1,2.5E0,5.86892E1,3.3673637E-2,1.2706863E-3,1.7509112E-2,2.1880213E-2,1.7143516E4,9.20611E-1,-3.0135972E-2,2.0128783E-2,8.644579E-2,3.7535203E4,4.5E0,9.4164455E-1,-1.590382E-1,-1.8493097E-2,-2.8488083E-2,1.5645415E-1,-1.7556882E-1,2.9687751E-2,-1.8959461E-1,1.1108342E-1,-1.8043174E-1,-6.2161915E-2,3.988247E-2,-1.5544224E-1,1.08215034E-1,1.9720554E-2,-1.787384E-1,-5.5469546E-2,-1.9745347E-1,-4.9960848E-2,-2.9077878E-2,7.5679615E-2,-4.7587672E-1,-2.539398E-1,-2.2769211E-1,7.682665E-2,8.110431E-3,-2.749544E-1,-1.6654988E-1,-1.2535042E-2,-2.147189E-1,-5.8922905E-2],"split_indices":[7,8,0,6,12,8,0,6,6,9,2,1,12,13,14,5,1,9,12,5,10,5,5,14,3,0,5,10,14,9,3,0,0,0,0,0,0,0,0,0,0,0,0,0,0,0,0,0,0,0,0,0,0,0,0,0,0,0,0,0,0],"split_type":[0,0,0,0,0,0,0,0,0,0,0,0,0,0,0,0,0,0,0,0,0,0,0,0,0,0,0,0,0,0,0,0,0,0,0,0,0,0,0,0,0,0,0,0,0,0,0,0,0,0,0,0,0,0,0,0,0,0,0,0,0],"sum_hessian":[8.143468E3,7.5380356E3,6.054324E2,1.0414825E3,6.496553E3,2.8850558E2,3.1692682E2,9.1613885E2,1.2534362E2,6.5852057E2,5.838032E3,2.732975E2,1.5208093E1,8.4673294E1,2.3225351E2,6.718773E1,8.489511E2,8.457543E1,4.0768185E1,3.8532675E2,2.731938E2,5.061541E3,7.7649146E2,4.2724262E1,2.3057323E2,1.5782359E0,1.3629857E1,3.556102E1,4.911227E1,2.8973013E1,2.032805E2,2.4059147E1,4.3128586E1,8.742269E1,7.6152844E2,1.4145165E1,7.043027E1,3.8331566E1,2.4366212E0,2.097163E2,1.7561046E2,2.0748088E2,6.57129E1,7.9711316E2,4.2644277E3,9.4985725E1,6.8150574E2,2.9163582E1,1.3560682E1,1.432057E2,8.7367516E1,2.849224E0,1.0780633E1,3.4361397E1,1.1996257E0,4.193648E1,7.17579E0,1.8974878E1,9.998136E0,1.976402E2,5.640306E0],"tree_param":{"num_deleted":"0","num_feature":"15","num_nodes":"61","size_leaf_vector":"0"}},{"base_weights":[4.9023923E-2,7.491994E-2,-8.382338E-1,1.6251063E-1,-1.6390605E-1,-8.8020605E-1,-3.944973E-1,-1.8180084E-1,2.3569302E-1,-1.16555765E-1,-6.173316E-1,-6.4510304E-1,-9.599805E-1,-9.4995713E-1,-7.644124E-2,-4.0907824E-1,4.4464912E-2,-1.457092E-1,3.0509546E-1,-4.712711E-1,-6.2912665E-2,-6.667202E-1,7.366132E-1,6.640977E-1,-8.169909E-1,7.182018E-1,-9.259674E-1,-8.118181E-1,-2.243426E-1,-5.4351413E-1,1.0948599E-1,-2.1167131E-1,3.5956556E-1,4.2917913E-1,6.054783E-2,-6.1014986E-1,9.8264426E-2,-2.8306339E-2,-8.143469E-1,-8.581461E-1,-4.0893483E-1,-3.2613596E-1,1.0749573E0,1.554612E0,-7.453149E-1,-7.996448E-2,-9.3002367E-1,-1.0881E0,1.2727324E0],"categories":[],"categories_nodes":[],"categories_segments":[],"categories_sizes":[],"default_left":[1,1,1,1,1,1,1,1,1,1,1,1,0,0,1,1,1,1,1,1,1,1,1,1,1,1,0,0,0,0,0,0,0,0,0,0,0,0,0,0,0,0,0,0,0,0,0,0,0],"id":20,"left_children":[1,3,5,7,9,11,13,15,17,19,21,23,-1,-1,25,27,29,31,33,35,37,39,41,43,45,47,-1,-1,-1,-1,-1,-1,-1,-1,-1,-1,-1,-1,-1,-1,-1,-1,-1,-1,-1,-1,-1,-1,-1],"loss_changes":[1.8240175E2,1.6134871E2,3.84581E0,1.4222995E2,4.436794E1,3.2230682E0,3.6845953E0,5.0913944E1,1.23242035E2,3.5655407E1,1.3562889E1,1.2908794E1,0E0,0E0,1.0528529E1,3.6560333E1,1.905494E1,2.3979668E1,1.1946982E2,1.953371E1,4.2369053E1,8.98188E0,2.9952006E0,9.855417E0,4.0096664E0,9.510826E0,0E0,0E0,0E0,0E0,0E0,0E0,0E0,0E0,0E0,0E0,0E0,0E0,0E0,0E0,0E0,0E0,0E0,0E0,0E0,0E0,0E0,0E0,0E0],"parents":[2147483647,0,0,1,1,2,2,3,3,4,4,5,5,6,6,7,7,8,8,9,9,10,10,11,11,14,14,15,15,16,16,17,17,18,18,19,19,20,20,21,21,22,22,23,23,24,24,25,25],"right_children":[2,4,6,8,10,12,14,16,18,20,22,24,-1,-1,26,28,30,32,34,36,38,40,42,44,46,48,-1,-1,-1,-1,-1,-1,-1,-1,-1,-1,-1,-1,-1,-1,-1,-1,-1,-1,-1,-1,-1,-1,-1],"split_conditions":[1.4781442E-1,4.5E0,9.3213964E-1,3.5E0,1.7145393E-2,1.1998863E0,-1.9437218E-3,1.10189594E-1,-4.6357624E-3,8.138516E-1,9.575573E-1,3.0251738E4,-2.0463932E-1,-2.0250264E-1,1.5281779E-3,-1.4292819E-3,5E-1,9.525725E-1,4.4751093E-3,5E-1,9.517876E-3,1.0189611E-1,-4.5795754E-1,1.8666591E-3,1.952352E-1,1.3476133E-2,-1.9738874E-1,-1.730555E-1,-4.7823176E-2,-1.15861066E-1,2.333916E-2,-4.5122035E-2,7.66487E-2,9.148824E-2,1.2906998E-2,-1.3006583E-1,2.0947056E-2,-6.0340706E-3,-1.7359456E-1,-1.8293124E-1,-8.7172754E-2,-6.95225E-2,2.2914895E-1,3.313971E-1,-1.58879E-1,-1.7046051E-2,-1.9825341E-1,-2.3195058E-1,2.7130872E-1],"split_indices":[0,8,3,9,10,12,6,5,10,12,3,14,0,0,6,10,2,3,10,2,6,5,11,6,0,5,0,0,0,0,0,0,0,0,0,0,0,0,0,0,0,0,0,0,0,0,0,0,0],"split_type":[0,0,0,0,0,0,0,0,0,0,0,0,0,0,0,0,0,0,0,0,0,0,0,0,0,0,0,0,0,0,0,0,0,0,0,0,0,0,0,0,0,0,0,0,0,0,0,0,0],"sum_hessian":[7.9349087E3,7.7107734E3,2.2413553E2,5.6418975E3,2.068876E3,2.0386838E2,2.026715E1,9.887066E2,4.653191E3,1.8743939E3,1.9448201E2,5.3952316E1,1.4991605E2,6.6560774E0,1.36110735E1,4.9284756E2,4.9585907E2,7.162004E2,3.9369905E3,2.4520293E2,1.629191E3,1.8812715E2,6.354847E0,5.9291105E0,4.802321E1,7.1125817E0,6.4984922E0,1.5391183E2,3.3893573E2,4.864133E1,4.4721774E2,6.3401294E2,8.218741E1,2.6112732E3,1.3257172E3,1.9707559E2,4.8127335E1,1.558456E3,7.0734985E1,1.06622604E2,8.1504555E1,1.543318E0,4.8115287E0,3.5702715E0,2.3588388E0,6.612707E0,4.14105E1,1.4446495E0,5.667932E0],"tree_param":{"num_deleted":"0","num_feature":"15","num_nodes":"49","size_leaf_vector":"0"}},{"base_weights":[3.999883E-2,9.010838E-2,-3.416344E-1,5.1366675E-1,4.0254265E-2,-1.9006307E-1,-8.659859E-1,-1.03274494E-1,6.153167E-1,3.6620888E-1,-3.7296228E-3,-4.713418E-2,-9.0449774E-1,-1.003769E0,-5.558601E-1,9.677187E-2,-9.103753E-1,-1.7367828E-1,6.926896E-1,5.828849E-1,9.4712645E-2,4.9204625E-2,-2.595266E-1,-8.422858E-1,1.849394E-1,-3.5228115E-1,-1.0774149E0,-2.240363E0,-9.626726E-1,2.3413444E-1,-8.8253254E-1,-2.0381248E0,1.7306185E-1,8.2913294E-2,-1.9229628E0,-8.100891E-1,7.221013E-1,-2.2247202E0,7.112176E-1,-1.0808724E0,6.5119326E-1,1.6046922E-1,-7.1058637E-1,1.1049622E-1,-2.4774337E-1,-3.5048977E-1,1.2616152E-1,-3.6222932E-1,-1.0396436E0,-6.3704324E-1,3.4688112E-1,-5.013137E-1,9.215788E-1,-7.444487E-1,-1.1121509E0,-3.154559E0,-5.398862E-1,-8.097304E-1,-1.2000722E0,-2.3455517E-1,1.2658345E0,-9.563352E-1,4.3489283E-1],"categories":[],"categories_nodes":[],"categories_segments":[],"categories_sizes":[],"default_left":[1,1,1,1,1,1,1,1,1,1,1,1,1,1,1,1,1,1,1,1,1,1,1,1,1,1,1,1,1,1,1,0,0,0,0,0,0,0,0,0,0,0,0,0,0,0,0,0,0,0,0,0,0,0,0,0,0,0,0,0,0,0,0],"id":21,"left_children":[1,3,5,7,9,11,13,15,17,19,21,23,25,27,29,31,33,35,37,39,41,43,45,47,49,51,53,55,57,59,61,-1,-1,-1,-1,-1,-1,-1,-1,-1,-1,-1,-1,-1,-1,-1,-1,-1,-1,-1,-1,-1,-1,-1,-1,-1,-1,-1,-1,-1,-1,-1,-1],"loss_changes":[1.4792328E2,1.4434538E2,7.118893E1,4.520877E1,8.771198E1,7.120691E1,8.032593E0,1.6667967E1,3.7858994E1,4.27352E1,7.301581E1,1.0764373E2,1.0722328E1,4.8542633E0,1.6744928E1,1.3902938E1,2.0770933E1,3.251454E1,3.2024506E1,4.665724E1,1.7273691E1,8.134538E1,3.2481293E1,1.2108307E1,6.0349293E1,6.0075407E0,1.904831E-1,4.023821E0,3.939865E0,9.74436E0,4.8443985E0,0E0,0E0,0E0,0E0,0E0,0E0,0E0,0E0,0E0,0E0,0E0,0E0,0E0,0E0,0E0,0E0,0E0,0E0,0E0,0E0,0E0,0E0,0E0,0E0,0E0,0E0,0E0,0E0,0E0,0E0,0E0,0E0],"parents":[2147483647,0,0,1,1,2,2,3,3,4,4,5,5,6,6,7,7,8,8,9,9,10,10,11,11,12,12,13,13,14,14,15,15,16,16,17,17,18,18,19,19,20,20,21,21,22,22,23,23,24,24,25,25,26,26,27,27,28,28,29,29,30,30],"right_children":[2,4,6,8,10,12,14,16,18,20,22,24,26,28,30,32,34,36,38,40,42,44,46,48,50,52,54,56,58,60,62,-1,-1,-1,-1,-1,-1,-1,-1,-1,-1,-1,-1,-1,-1,-1,-1,-1,-1,-1,-1,-1,-1,-1,-1,-1,-1,-1,-1,-1,-1,-1,-1],"split_conditions":[3.479536E-2,1.6376741E-2,3.558472E4,9.092516E-1,1.5E0,8.035051E-3,4.213946E4,4.1010695E4,6.976564E-1,6.1044898E-2,2.9760344E4,-4.646998E-3,3.2226553E3,8.030263E-1,4.432928E4,-4.397919E-2,7.553253E-3,6.8103734E4,-7.356694E-2,5E-1,1.2803091E-1,8.65589E-2,4.6134535E4,5.7593013E3,5E-1,9.570631E-1,6.8415254E3,3.983738E4,1.4199666E-3,9.172883E-1,2.79254E5,-4.3446764E-1,3.6891643E-2,1.7674651E-2,-4.0991855E-1,-1.7268693E-1,1.5393053E-1,-4.7424427E-1,1.5161046E-1,-2.3040989E-1,1.3881506E-1,3.420727E-2,-1.514759E-1,2.3554511E-2,-5.2811526E-2,-7.4714005E-2,2.6893888E-2,-7.721653E-2,-2.2162114E-1,-1.357987E-1,7.394475E-2,-1.0686518E-1,1.9645323E-1,-1.5869436E-1,-2.3707753E-1,-6.7245823E-1,-1.15087695E-1,-1.7261046E-1,-2.5581974E-1,-5.0000194E-2,2.698383E-1,-2.0386225E-1,9.270623E-2],"split_indices":[0,5,14,3,8,6,13,14,12,5,14,6,14,12,14,11,0,14,11,1,10,11,14,14,1,3,14,14,6,12,13,0,0,0,0,0,0,0,0,0,0,0,0,0,0,0,0,0,0,0,0,0,0,0,0,0,0,0,0,0,0,0,0],"split_type":[0,0,0,0,0,0,0,0,0,0,0,0,0,0,0,0,0,0,0,0,0,0,0,0,0,0,0,0,0,0,0,0,0,0,0,0,0,0,0,0,0,0,0,0,0,0,0,0,0,0,0,0,0,0,0,0,0,0,0,0,0,0,0],"sum_hessian":[7.73256E3,6.835768E3,8.9679224E2,7.1888116E2,6.1168867E3,6.967493E2,2.0004291E2,1.01688705E2,6.171925E2,7.2639703E2,5.3904897E3,5.814843E2,1.1526504E2,1.3695825E2,6.308467E1,8.219589E1,1.949281E1,5.500856E1,5.621839E2,4.0334668E2,3.2305032E2,4.46692E3,9.235701E2,1.3077652E2,4.507078E2,2.8210648E1,8.705439E1,2.6839285E0,1.3427432E2,1.8537811E1,4.4546856E1,1.9486768E0,8.0247215E1,1.0303652E1,9.1891575E0,3.221612E1,2.2792437E1,2.796371E0,5.593876E2,1.5322387E1,3.880243E2,2.9940335E2,2.3647001E1,3.70319E3,7.637297E2,7.473917E2,1.7617839E2,3.892648E1,9.185004E1,7.3698044E1,3.7700974E2,2.579883E1,2.4118178E0,1.0342923E1,7.671147E1,1.189394E0,1.4945345E0,8.434608E1,4.9928238E1,1.3278289E1,5.259524E0,4.244326E1,2.1035984E0],"tree_param":{"num_deleted":"0","num_feature":"15","num_nodes":"63","size_leaf_vector":"0"}},{"base_weights":[3.2671887E-2,7.970918E-2,-3.0545804E-1,-3.6250383E-1,1.2564285E-1,-1.3466235E-1,-7.293318E-1,-8.4173524E-1,-1.07336044E-1,4.0639844E-2,4.1747454E-1,-3.4306675E-1,8.640721E-2,-3.007273E-1,-9.740242E-1,-9.349607E-1,-6.3784875E-2,-5.9526354E-1,-6.3701123E-3,6.846911E-2,-4.2855787E-1,-3.6351112E-1,4.7020346E-1,-6.91133E-1,-2.2864483E-1,1.3882118E-1,-9.7648275E-1,3.527158E-1,-5.448155E-1,-4.557338E-1,-1.0122725E0,-9.912114E-1,4.5181282E-2,5.871154E-1,-7.815848E-1,1.2641488E-1,-7.1944237E-1,-5.8985734E-1,5.8819897E-2,-2.238441E-1,1.17159985E-1,-1.0489976E0,-1.4879268E-1,-3.5855882E-2,-1.804237E0,5.148715E-1,-2.6438648E-1,-7.4501914E-1,2.8519598E-1,-3.2208782E-1,3.7954038E-1,3.2429293E-1,-1.2926412E-1,7.8891024E-2,-1.090973E0,-7.216225E-1,6.7196697E-1,-6.1847645E-1,5.253862E-1,-8.215714E-1,2.595417E-1,-3.9925882E-1,-1.0294052E0],"categories":[],"categories_nodes":[],"categories_segments":[],"categories_sizes":[],"default_left":[1,1,1,1,1,1,1,1,1,1,1,1,1,1,1,1,1,1,1,1,1,1,1,1,1,1,1,1,1,1,1,0,0,0,0,0,0,0,0,0,0,0,0,0,0,0,0,0,0,0,0,0,0,0,0,0,0,0,0,0,0,0,0],"id":22,"left_children":[1,3,5,7,9,11,13,15,17,19,21,23,25,27,29,31,33,35,37,39,41,43,45,47,49,51,53,55,57,59,61,-1,-1,-1,-1,-1,-1,-1,-1,-1,-1,-1,-1,-1,-1,-1,-1,-1,-1,-1,-1,-1,-1,-1,-1,-1,-1,-1,-1,-1,-1,-1,-1],"loss_changes":[1.19900475E2,1.3446307E2,6.6553444E1,7.608677E1,1.4871176E2,3.0320047E1,2.7414963E1,1.562738E1,2.0078789E1,6.0670975E1,5.5859833E1,1.3328205E1,1.7953627E1,1.5737122E1,2.8638153E0,1.0689941E1,1.1774654E1,6.3534985E0,1.2920695E1,6.2438576E1,4.500438E1,4.057602E1,4.171698E1,4.594063E0,1.4690328E1,1.5240982E1,1.9172688E0,9.783979E0,5.949585E0,3.7056644E0,1.2209778E0,0E0,0E0,0E0,0E0,0E0,0E0,0E0,0E0,0E0,0E0,0E0,0E0,0E0,0E0,0E0,0E0,0E0,0E0,0E0,0E0,0E0,0E0,0E0,0E0,0E0,0E0,0E0,0E0,0E0,0E0,0E0,0E0],"parents":[2147483647,0,0,1,1,2,2,3,3,4,4,5,5,6,6,7,7,8,8,9,9,10,10,11,11,12,12,13,13,14,14,15,15,16,16,17,17,18,18,19,19,20,20,21,21,22,22,23,23,24,24,25,25,26,26,27,27,28,28,29,29,30,30],"right_children":[2,4,6,8,10,12,14,16,18,20,22,24,26,28,30,32,34,36,38,40,42,44,46,48,50,52,54,56,58,60,62,-1,-1,-1,-1,-1,-1,-1,-1,-1,-1,-1,-1,-1,-1,-1,-1,-1,-1,-1,-1,-1,-1,-1,-1,-1,-1,-1,-1,-1,-1,-1,-1],"split_conditions":[3.5486622E-3,-6.700767E-3,2.0721015E-2,5.3030007E-2,9.414248E-1,9.816013E0,6.8594966E3,9.330494E3,9.069597E-1,1.6117273E-1,5.2820706E-1,2.5E0,3.7386846E3,8.458358E-3,2.4234895E-2,9.5281446E-1,1.685552E-2,1.5E0,3.9264808E0,8.207851E-1,5E-1,1.1724734E-3,3.5E0,7.2486343E0,9.4363046E-1,2.8232943E-2,9.2028715E-3,2.5E0,9.5836484E-1,2.3090132E-2,5.59948E-1,-2.1129683E-1,9.631307E-3,1.2515557E-1,-1.6661066E-1,2.6947897E-2,-1.5336373E-1,-1.2574007E-1,1.2538655E-2,-4.7716912E-2,2.4975028E-2,-2.2361512E-1,-3.171818E-2,-7.6434086E-3,-3.8460973E-1,1.097553E-1,-5.6359343E-2,-1.5881595E-1,6.0795307E-2,-6.865955E-2,8.0906734E-2,6.9129616E-2,-2.7555268E-2,1.6817223E-2,-2.3256303E-1,-1.5382849E-1,1.4324339E-1,-1.3184081E-1,1.1199673E-1,-1.7513461E-1,5.5326577E-2,-8.511012E-2,-2.1943861E-1],"split_indices":[6,6,0,5,4,12,14,7,3,11,12,9,7,6,0,3,0,8,12,12,2,10,2,11,4,6,6,9,3,0,12,0,0,0,0,0,0,0,0,0,0,0,0,0,0,0,0,0,0,0,0,0,0,0,0,0,0,0,0,0,0,0,0],"split_type":[0,0,0,0,0,0,0,0,0,0,0,0,0,0,0,0,0,0,0,0,0,0,0,0,0,0,0,0,0,0,0,0,0,0,0,0,0,0,0,0,0,0,0,0,0,0,0,0,0,0,0,0,0,0,0,0,0,0,0,0,0,0,0],"sum_hessian":[7.536143E3,6.6164873E3,9.19656E2,6.219504E2,5.9945366E3,6.564598E2,2.631962E2,2.1529861E2,4.066518E2,4.643225E3,1.3513119E3,3.376253E2,3.1883447E2,9.646194E1,1.6673428E2,1.9207906E2,2.3219566E1,6.888118E1,3.377706E2,4.3840503E3,2.5917468E2,8.509201E1,1.26622E3,8.228325E1,2.5534206E2,3.0467932E2,1.4155168E1,2.6112282E1,7.0349655E1,1.2346469E1,1.543878E2,1.816432E2,1.0435858E1,1.227273E1,1.0946836E1,1.0109678E1,5.8771503E1,3.3136047E1,3.0463455E2,6.2547076E2,3.7585796E3,7.969164E1,1.7948303E2,7.016069E1,1.4931319E1,1.1939207E3,7.2299255E1,7.820389E1,4.0793586E0,2.2174332E2,3.3598743E1,1.7996378E2,1.2471554E2,1.4157442E0,1.2739423E1,5.6932154E0,2.0419065E1,6.621428E1,4.135375E0,8.07023E0,4.2762394E0,4.858351E0,1.4952945E2],"tree_param":{"num_deleted":"0","num_feature":"15","num_nodes":"63","size_leaf_vector":"0"}},{"base_weights":[2.6447708E-2,7.2670534E-2,-2.3514244E-1,-1.5589659E-1,1.2920666E-1,-1.8073712E-1,-7.2930497E-1,-5.521765E-1,-1.064846E-1,2.2104447E-1,-4.8689604E-2,-2.2489862E-1,1.8804182E-1,9.299639E-2,-8.268895E-1,-1.1083418E0,6.768488E-2,-1.185678E-2,-3.340148E-1,2.6084888E-1,-5.6281E-1,-1.6827483E-2,-8.462775E-1,-7.307455E-1,-1.9891818E-1,3.1790504E-1,-4.778509E-1,8.748042E-1,-9.451677E-1,-9.795534E-1,-4.6414253E-1,-3.269731E-1,-1.3460668E0,-1.6184878E-1,7.944609E-1,-5.150798E-1,7.1281046E-2,-3.9223486E-1,7.0066226E-1,-4.765915E-1,3.085548E-1,-8.3936536E-1,1.6212624E-2,9.631241E-2,-1.7778257E-1,-5.594951E-1,-9.810328E-1,-7.045174E-2,-1.074652E0,-1.7706107E-1,-7.827851E-1,4.660939E-1,-3.447694E-1,-7.450033E-1,6.139064E-1,1.4249398E0,-3.4191135E-1,-1.0057401E-1,-1.3917547E0,-2.7572438E-2,-1.0204759E0,-1.1281911E0,-1.8655844E-1],"categories":[],"categories_nodes":[],"categories_segments":[],"categories_sizes":[],"default_left":[1,1,1,1,1,1,1,1,1,1,1,1,1,1,1,1,1,1,1,1,1,1,1,1,1,1,1,1,1,1,1,0,0,0,0,0,0,0,0,0,0,0,0,0,0,0,0,0,0,0,0,0,0,0,0,0,0,0,0,0,0,0,0],"id":23,"left_children":[1,3,5,7,9,11,13,15,17,19,21,23,25,27,29,31,33,35,37,39,41,43,45,47,49,51,53,55,57,59,61,-1,-1,-1,-1,-1,-1,-1,-1,-1,-1,-1,-1,-1,-1,-1,-1,-1,-1,-1,-1,-1,-1,-1,-1,-1,-1,-1,-1,-1,-1,-1,-1],"loss_changes":[8.893848E1,8.079119E1,2.956445E1,2.4220322E1,8.188801E1,1.6268612E1,8.840973E0,4.7383526E1,2.3759602E1,1.0327951E2,4.336904E1,1.155439E1,9.413195E0,1.0960302E1,4.9576263E0,1.3005913E1,1.1111961E1,3.26925E1,1.980164E1,1.10837814E2,2.5643772E1,2.9929281E1,1.9845924E0,9.714981E0,1.0684967E1,9.020437E0,5.6715584E0,5.6018972E0,2.0642576E0,2.6164398E0,5.4758673E0,0E0,0E0,0E0,0E0,0E0,0E0,0E0,0E0,0E0,0E0,0E0,0E0,0E0,0E0,0E0,0E0,0E0,0E0,0E0,0E0,0E0,0E0,0E0,0E0,0E0,0E0,0E0,0E0,0E0,0E0,0E0,0E0],"parents":[2147483647,0,0,1,1,2,2,3,3,4,4,5,5,6,6,7,7,8,8,9,9,10,10,11,11,12,12,13,13,14,14,15,15,16,16,17,17,18,18,19,19,20,20,21,21,22,22,23,23,24,24,25,25,26,26,27,27,28,28,29,29,30,30],"right_children":[2,4,6,8,10,12,14,16,18,20,22,24,26,28,30,32,34,36,38,40,42,44,46,48,50,52,54,56,58,60,62,-1,-1,-1,-1,-1,-1,-1,-1,-1,-1,-1,-1,-1,-1,-1,-1,-1,-1,-1,-1,-1,-1,-1,-1,-1,-1,-1,-1,-1,-1,-1,-1],"split_conditions":[5.5E0,-3.6186175E-3,2.5969695E3,-8.9410454E-2,6.509226E-3,9.5177376E-1,1.0587409E0,1.0917927E-1,3.022389E-2,1.3768183E-1,7.875551E-2,-7.4663977E-3,5.4125484E-2,3.379492E4,9.1608065E-1,8.0273403E3,3.5E0,-1.83764E-2,5.298921E4,-1.0955261E-1,3.7838672E-3,9.009521E3,1.4576129E-2,7.0601333E3,9.5E0,4.5364418E4,9.394126E-1,4.819633E-2,4.631379E4,-1.8488036E-2,1.200408E4,-6.970096E-2,-2.8694147E-1,-3.450135E-2,1.6935545E-1,-1.0979971E-1,1.5195001E-2,-8.361282E-2,1.4936037E-1,-1.0159515E-1,6.577472E-2,-1.7892776E-1,3.4560496E-3,2.0530945E-2,-3.789796E-2,-1.1926773E-1,-2.0912704E-1,-1.5018217E-2,-2.2908387E-1,-3.7744157E-2,-1.6686653E-1,9.9357374E-2,-7.349459E-2,-1.5881257E-1,1.308666E-1,3.037548E-1,-7.288534E-2,-2.143939E-2,-2.9668075E-1,-5.8776247E-3,-2.1753514E-1,-2.4049683E-1,-3.976872E-2],"split_indices":[8,10,7,11,10,3,12,5,11,11,0,6,11,14,3,13,8,10,14,11,10,14,10,14,8,13,4,5,13,0,14,0,0,0,0,0,0,0,0,0,0,0,0,0,0,0,0,0,0,0,0,0,0,0,0,0,0,0,0,0,0,0,0],"split_type":[0,0,0,0,0,0,0,0,0,0,0,0,0,0,0,0,0,0,0,0,0,0,0,0,0,0,0,0,0,0,0,0,0,0,0,0,0,0,0,0,0,0,0,0,0,0,0,0,0,0,0,0,0,0,0,0,0,0,0,0,0,0,0],"sum_hessian":[7.3530806E3,6.2495166E3,1.1035637E3,1.238934E3,5.0105825E3,9.953459E2,1.0821785E2,1.3622737E2,1.1027065E3,3.3044429E3,1.7061399E3,8.8924805E2,1.0609785E2,1.1485098E1,9.673276E1,7.13875E1,6.4839874E1,7.795505E2,3.231561E2,3.1453862E3,1.5905667E2,1.6415829E3,6.4557014E1,4.211573E1,8.471323E2,8.9220535E1,1.6877312E1,6.6411886E0,4.8439093E0,6.6883934E1,2.9848818E1,1.7206753E1,5.4180744E1,4.986773E1,1.4972143E1,1.0979279E2,6.697577E2,3.06529E2,1.6627111E1,1.9056914E2,2.954817E3,1.0733922E2,5.1717453E1,9.642123E2,6.773706E2,2.2284248E1,4.227277E1,1.48359165E1,2.7279814E1,8.178204E2,2.9311928E1,7.3157524E1,1.6063011E1,1.3814517E1,3.0627935E0,4.4555044E0,2.185684E0,2.0991545E0,2.744755E0,2.8256037E0,6.4058334E1,7.8958073E0,2.195301E1],"tree_param":{"num_deleted":"0","num_feature":"15","num_nodes":"63","size_leaf_vector":"0"}},{"base_weights":[2.1360999E-2,3.044353E-1,-1.5541902E-2,3.950658E-1,-1.9140284E-1,-6.645517E-2,2.1648878E-1,4.52447E-2,5.407975E-1,-4.878685E-2,-7.2253233E-1,-4.905142E-1,-4.0186066E-2,2.606835E-1,-5.9928423E-1,1.7501952E-1,-4.1753387E-1,-2.2915731E-1,